tree
version=v4
num_class=1
num_tree_per_iteration=1
label_index=0
max_feature_idx=34
objective=quantile
feature_names=day_of_week day_of_month month year onpromotion is_holiday oil_price store_nbr family city state type cluster sales_lag_1 sales_lag_7 sales_lag_14 sales_lag_28 sales_ma_7 sales_std_7 sales_ma_28 sales_std_28 promo_intensity promo_lift is_holiday_resolved days_to_nearest_holiday is_payday days_to_nearest_payday family_share_of_store_sales transactions_lag_1 transactions_lag_7 oil_ma_7 oil_ma_28 earthquake_flag days_since_earthquake horizon_offset
feature_infos=[0:6] [1:31] [1:12] [2013:2017] [0:342] [0:1] [29.319999694824219:109.62000274658203] -1:30:23:42:6:0:38:3:22:31:28:14:37:44:29:10:45:47:24:40:25:19:16:9:43:48:39:15:46:17:34:18:36:4:33:13:32:11:27:8:12:21:2:35:1:7:5:41:20 -1:22:3:26:14:13:29:0:28:25:10:15:16:32:19:23:24:7:8:21:2:31:5:9:11:27:6:12:18:4:20:30:17 -1:18:8:3:13:20:0:15:9:17:2:14:4:10:16:5:6:7:12:21:19:11:1 -1:12:6:0:10:4:9:13:15:7:3:11:5:1:8:14:2 -1:3:2:0:1:4 -1:2:5:9:14:13:12:0:7:3:1:8:10:6:4:15:11:16 [0:29193] [0:46271] [0:46271] [0:46271] [0:17763.857421875] [0:14402.88671875] [0:14587.9287109375] [0:8252.14453125] [0:4620] [0.27746430039405823:455.08523559570312] [0:1] [-38:39] [0:1] [-8:7] [0:1] [10:8256] [357:8120] [28.618572235107422:110.04857635498047] [29.096071243286133:109.72714233398438] [0:1] [-1:106] [1:28]
tree_sizes=5512 5859 5741 5887 5887 5891 5864 5888 5872 5875 5892 5947 5863 5909 5809 5812 5909 5922 5967 6015 5946 5935 5991 6010 5973 5974 5884 5879 5998 5894 5893 5993 5942 5877 5940 5929 5962 5973 6006 6006 5969 5868 5967 5979 5947 5908 5967 5973 5985 5963 6052 6005 5944 6049 6046 6001 5981 5951 6010 5993 5978 6022 6028 5981 6030 6042 6008 5986 6040 5956 5970 6036 5980 6000 5961 6006 6076 5986 6051 5972 6014 6015 6035 6105 5984 6048 6001 6006 6019 6019 6066 6008 6050 6054 6052 6031 6078 5981 6006 5987 6119 6026 6017 5989 6074 6034 6015 6025 6027 6018 6041 6079 6034 5968 6050 5986 5988 6030 6067 5977 5942 5918 6013 5983 6054 6005 6094 5935 6077 6007

Tree=0
num_leaves=63
num_cat=24
split_feature=17 13 17 7 8 20 7 7 7 17 8 8 7 5 2 1 1 1 2 7 17 22 8 17 2 8 2 7 3 31 7 21 34 34 2 7 8 1 8 22 31 30 16 8 22 31 22 31 7 8 21 8 7 7 8 7 21 2 2 17 21 28
split_gain=84197.2 3193.77 2214.61 709.438 301.356 299.907 282.025 156.885 127.2 119.375 80.1164 70.8922 68.3448 52.4089 360.651 85.4783 53.8828 165.989 270.669 51.1043 44.5214 43.7535 43.5043 43.4165 39.1491 35.3935 74.1149 70.2389 44.4191 143.716 34.2928 33.5787 34.8777 59.1954 33.4315 33.4056 32.652 32.5812 30.1806 45.7153 29.7119 29.0962 26.9573 26.5543 26.4383 25.1348 24.2959 23.5847 23.3511 21.3895 21.0304 22.9268 20.9778 20.5907 19.7704 19.3579 19.1061 19.0981 30.069 18.935 18.5337 18.4602
threshold=18.006071090698246 36.041000366210945 10.449271678924562 0 1 4.7795307636260995 2 3 4 22.30292892456055 5 6 7 1.0000000180025095e-35 1.5000000000000002 1.5000000000000002 24.500000000000004 25.500000000000004 11.500000000000002 8 30.071428298950199 1.3537765145301821 9 14.700857162475588 11.500000000000002 10 1.5000000000000002 11 2013.5000000000002 106.03393173217775 12 3.2248712778091435 26.500000000000004 27.500000000000004 11.500000000000002 13 14 15.500000000000002 15 1.3182246685028078 49.637498855590827 105.1042823791504 20.008500099182132 16 7.9933395385742196 97.904285430908217 5.701202630996705 98.328750610351577 17 18 324.14772033691412 19 20 21 22 23 14.831254005432131 3.5000000000000004 2.5000000000000004 5.7857143878936776 3.6464459896087651 544.00000000000011
decision_type=2 2 2 9 9 2 9 9 9 2 9 9 9 2 2 2 2 2 2 9 2 8 9 2 2 9 2 9 2 2 9 10 2 2 2 9 9 2 9 10 2 2 2 9 10 2 10 2 9 9 10 9 9 9 9 9 10 2 2 2 10 10
left_child=2 3 5 9 8 22 10 24 31 -2 -4 19 38 20 15 -15 -16 18 -18 37 -6 -12 40 53 36 26 27 -24 -28 46 -13 32 -3 -34 43 -31 -5 44 39 48 -1 -41 47 60 57 52 -30 -22 -11 -47 59 -52 -38 -8 -25 -10 -21 58 -7 -27 -9 -50
right_child=1 4 6 7 13 11 23 34 55 12 21 30 -14 14 16 -17 17 -19 -20 56 42 -23 25 54 -26 50 28 -29 29 35 -32 -33 33 -35 -36 -37 45 -39 -40 41 -42 -43 -44 -45 -46 49 -48 -49 61 -51 51 -53 -54 -55 -56 -57 -58 -59 -60 -61 -62 -63
leaf_value=2.6915526628494262 2.8437787890434265 2.8994968175888061 2.8413392782211302 2.8114474296569822 2.8502473533153534 2.6915526628494262 2.8066819190979002 2.8235055327415468 2.8157979965209963 2.6915526628494262 2.8437787890434265 2.801413893699646 2.8664779424667359 2.6915526628494262 2.9890847921371462 2.991075611114502 2.9805186629295348 2.9874987363815309 2.6915526628494262 2.7955247402191161 2.9386840224266053 2.8235055327415468 2.6915526628494262 2.8269551753997804 2.8563445091247557 2.6915526628494262 2.6915526628494262 2.8504553556442263 2.6915526628494262 2.8958497166633608 2.7720245599746702 2.9136852264404296 2.6915526628494262 2.8881439447402952 2.8437787890434265 2.8235055327415468 2.8461047887802122 2.7464832782745363 2.8461047887802122 2.870728611946106 2.931232976913452 2.6915526628494262 2.9819834232330322 2.7955247402191161 2.8962698936462403 2.8387746095657347 2.8114474296569822 2.8835223853588103 2.8400569438934324 2.6915526628494262 2.8437787890434265 2.7811406373977663 2.8413392782211302 2.8157979965209963 2.8157979965209963 2.8581628918647768 2.8235055327415468 2.8066819190979002 2.8648394584655761 2.7888481676578523 2.8409326314926147 2.8581628918647768
leaf_weight=77 4843 7125 3493 465 580 124 3510 2416 245 138 532 2631 6186 526 12003 131 598 2646 510 9755 2326 5310 430 2397 1716 142790 11526 409 8305 210 5750 1895 271 292 453 321 6609 913 1658 6344 97 59 155662 658 159 2308 241 630 316 291 129 213 5697 9138 3542 1676 481 438 231 14961 423 5745
leaf_count=77 4843 7125 3493 465 580 124 3510 2416 245 138 532 2631 6186 526 12003 131 598 2646 510 9755 2326 5310 430 2397 1716 142790 11526 409 8305 210 5750 1895 271 292 453 321 6609 913 1658 6344 97 59 155662 658 159 2308 241 630 316 291 129 213 5697 9138 3542 1676 481 438 231 14961 423 5745
internal_value=2.83309 2.8542 2.81149 2.84245 2.85711 2.80965 2.82468 2.83566 2.84921 2.84809 2.83178 2.81538 2.84976 2.85762 2.85494 2.81864 2.85645 2.85122 2.83497 2.81789 2.8579 2.8282 2.80899 2.82112 2.83773 2.80897 2.811 2.82556 2.8104 2.81301 2.8118 2.85157 2.85012 2.83814 2.82669 2.83825 2.83693 2.82563 2.84781 2.84866 2.83457 2.85164 2.85795 2.82501 2.83206 2.83734 2.81144 2.85322 2.84561 2.83288 2.80869 2.82108 2.83829 2.81946 2.82464 2.8374 2.81648 2.82833 2.83695 2.80867 2.82718 2.84607
internal_weight=461554 233441 228113 46325 187116 200191 27922 21036 11504 25289 9335 20482 20446 175612 16414 657 15757 3754 1108 12101 159198 5842 179709 18587 17086 179535 21442 839 20603 9077 8381 9583 7688 563 3950 531 15370 1865 14260 12602 174 6403 158618 3497 952 14905 8546 2956 6199 2599 158093 342 12306 12648 5939 1921 10236 793 355 157751 2839 6061
internal_count=461554 233441 228113 46325 187116 200191 27922 21036 11504 25289 9335 20482 20446 175612 16414 657 15757 3754 1108 12101 159198 5842 179709 18587 17086 179535 21442 839 20603 9077 8381 9583 7688 563 3950 531 15370 1865 14260 12602 174 6403 158618 3497 952 14905 8546 2956 6199 2599 158093 342 12306 12648 5939 1921 10236 793 355 157751 2839 6061
cat_boundaries=0 2 3 5 7 9 11 13 15 17 18 19 21 23 25 26 27 29 30 31 32 33 34 36 38
cat_threshold=3776520192 102608 2353627200 4044427265 41025 268439561 9216 1610678280 41024 2148050944 1 1615702020 1 3759210496 32832 4044656641 1088 268435456 1611440136 768 32832 9217 1024 536903688 1024 8650816 4237312 2719744 1 1610612736 4202496 2147549184 4105 46284810 67633152 1 16908801 1
is_linear=0
shrinkage=1


Tree=1
num_leaves=63
num_cat=23
split_feature=17 13 19 7 8 0 19 20 0 7 4 7 19 7 0 8 0 7 8 0 8 4 7 7 7 0 5 2 1 1 1 2 13 17 16 13 8 3 6 2 7 2 7 2 22 0 21 7 0 8 11 7 21 0 7 4 0 8 8 0 8 0
split_gain=82323.3 3143.84 2633.09 670.192 314.574 378.353 309.985 182.693 145.741 141.916 132.503 129.342 118.822 115.985 115.489 351.188 189.08 115.373 114.982 107.944 95.5151 69.34 65.9535 61.3779 59.3751 59.165 52.0241 360.353 85.4783 54.3465 165.72 270.236 51.2952 50.8794 48.7923 44.766 44.3008 90.9474 80.341 73.6469 64.3598 51.8515 49.1958 43.3474 41.8054 40.9961 38.4301 37.9292 36.9641 36.1247 34.8265 34.565 31.1712 30.1119 29.8488 29.7994 28.1914 209.409 55.3684 29.426 26.5817 48.9653
threshold=18.006071090698246 36.041000366210945 9.4464287757873553 0 1 5.5000000000000009 14.04303550720215 4.5226502418518075 4.5000000000000009 2 4.5000000000000009 3 23.223785400390629 4 5.5000000000000009 5 3.5000000000000004 6 7 4.5000000000000009 8 1.0000000180025095e-35 9 10 11 4.5000000000000009 1.0000000180025095e-35 1.5000000000000002 1.5000000000000002 24.500000000000004 25.500000000000004 11.500000000000002 17.050000190734867 9.0027856826782244 33.030000686645515 10.031000137329103 12 2013.5000000000002 105.97499847412111 1.5000000000000002 13 6.5000000000000009 14 11.500000000000002 8.5679798126220721 4.5000000000000009 6.6801381111145028 15 4.5000000000000009 16 17 18 1.5408887267112734 3.5000000000000004 19 1.0000000180025095e-35 5.5000000000000009 20 21 4.5000000000000009 22 5.5000000000000009
decision_type=2 2 2 9 9 2 2 2 2 9 2 9 2 9 2 9 2 9 9 2 9 2 9 9 9 2 2 2 2 2 2 2 2 2 2 2 9 2 2 2 9 2 9 2 10 2 10 9 2 9 1 9 10 2 9 2 2 9 9 2 9 2
left_child=2 3 7 12 5 13 8 10 54 44 36 14 -2 -3 16 -16 20 49 -18 46 -5 -11 32 60 -14 -20 34 28 -28 -29 31 -31 48 -21 47 -26 37 -1 39 40 -39 -40 -43 -22 -7 55 -19 -6 -9 -8 -47 -35 56 -15 -4 -13 58 -58 -37 -60 -10 -62
right_child=1 4 6 11 26 9 17 22 23 21 -12 45 24 53 15 -17 18 19 25 33 43 -23 -24 -25 35 -27 27 29 -30 30 -32 -33 -34 51 -36 52 -38 38 41 -41 -42 42 -44 -45 -46 50 -48 -49 -50 -51 -52 -53 -54 -55 -56 -57 57 -59 59 -61 61 -63
leaf_value=-0.13457763314247131 0.010037186741828919 0.074126492738723765 -0.031314045786857612 0.016963962316513072 0.064342772811651225 0.047532533407211308 0.010159162282943736 -0.036817822456359874 0.006046670079231254 -0.14497484087944032 0.092378464341163646 -0.016929942965507518 0.045885587930679317 0.015994548201560967 0.043611637353897108 -0.14193873047828673 0.072584251165390024 -0.020439329147338859 0.0022133505344390961 -0.13732416391372682 -0.00064457297325133396 0.066740493774414072 -0.049013253450393673 -0.015530903339385983 0.011643981337547293 0.026059547662734994 -0.13457763314247131 0.14824647545814515 0.14996916770935059 0.14024234592914583 0.14666791081428529 -0.13457763314247131 0.014775888919830327 0.019126455783844001 0.1425601601600647 0.054654037356376639 -0.13457763314247131 -0.13457763314247131 -0.13457763314247131 -0.13457763314247131 0.016379925012588493 0.046884732842445369 -0.012927812933921824 0.013957486152648935 -0.14497484087944032 0.015599434971809378 0.0064320468902587802 0.055618059635162358 -0.020895133018493661 -0.0025458401441574188 -0.0057727640867233365 -0.00065823078155518027 0.032520142793655407 0.042770456671714779 -0.021280509829521191 0.0072223174571991013 -0.14290814459323883 0.031288951635360718 0.017310181260108949 0.029750365018844607 0.0064320468902587802 -0.036098617315292361
leaf_weight=12494 5728 7343 3500 1760 1578 501 2292 3651 1175 989 163 2350 3193 1902 880 1549 2077 5773 1383 483 7150 123 10375 2799 986 1414 526 11973 131 596 2640 510 275 757 153754 2515 152210 429 209 10041 448 239 355 873 69 361 404 3524 1457 4669 770 1298 2511 957 10866 469 427 1448 7179 1302 882 869
leaf_count=12494 5728 7343 3500 1760 1578 501 2292 3651 1175 989 163 2350 3193 1902 880 1549 2077 5773 1383 483 7150 123 10375 2799 986 1414 526 11973 131 596 2640 510 275 757 153754 2515 152210 429 209 10041 448 239 355 873 69 361 404 3524 1457 4669 770 1298 2511 957 10866 469 427 1448 7179 1302 882 869
internal_value=9.08886e-05 0.0209649 -0.0212707 0.00930329 0.023852 0.015924 -0.00881329 -0.0235872 -0.0129249 -0.00603448 -0.0240475 0.0027036 0.0147862 0.0195599 0.00458879 -0.00550638 0.00626492 -0.00354363 0.0143106 -0.00737249 0.00225647 -0.0163547 -0.0184287 -0.00617904 0.0166466 0.00759708 0.0243874 0.0217055 -0.0145738 0.0232219 0.0179658 0.0017179 -0.0138281 0.00130024 0.0246654 0.0153895 -0.0240891 -0.021999 -0.0188444 -0.019967 -0.00607184 -0.00358032 0.00395623 -6.53554e-05 0.0141379 -0.00544192 -0.0109479 0.019855 -0.0149863 0.00125879 0.00258621 0.00473236 0.016061 0.0108836 -0.0156133 -0.00868216 0.0150668 0.0094 0.0160331 0.0140354 -0.00108992 -0.00498296
internal_weight=461554 233441 228113 46325 187116 11884 35767 192346 20091 1682 176588 21036 25289 10202 17086 2429 14657 15676 4874 8715 9783 1112 15758 5725 19561 2797 175232 16376 657 15719 3746 1106 5383 2538 158856 16368 176425 24215 11721 10918 877 803 594 8023 570 3950 6177 5102 5108 6961 1131 2055 15382 2859 14366 2819 12871 1875 10996 8481 2926 1751
internal_count=461554 233441 228113 46325 187116 11884 35767 192346 20091 1682 176588 21036 25289 10202 17086 2429 14657 15676 4874 8715 9783 1112 15758 5725 19561 2797 175232 16376 657 15719 3746 1106 5383 2538 158856 16368 176425 24215 11721 10918 877 803 594 8023 570 3950 6177 5102 5108 6961 1131 2055 15382 2859 14366 2819 12871 1875 10996 8481 2926 1751
cat_boundaries=0 2 4 6 8 10 11 13 14 15 17 19 21 22 24 26 28 30 31 33 35 36 37 39
cat_threshold=3776520192 102608 2353627200 1 1627389960 32832 268439561 9216 536936448 8256 67633152 2433748993 41024 4194304 536879104 537133849 9217 2164524800 33796 532480 69760 1343004736 8389376 64 1610645512 1024 1097729 1088 8192 1 2 262400 1024 1099038730 33796 4194304 4194304 545851392 1
is_linear=0
shrinkage=0.05


Tree=2
num_leaves=63
num_cat=32
split_feature=13 20 15 14 14 8 0 8 20 16 0 4 8 12 20 4 12 13 0 8 8 10 12 8 12 8 12 10 10 5 2 1 26 1 2 10 8 12 8 10 0 0 12 8 13 0 8 8 8 10 11 10 8 0 8 8 8 2 4 3 2 0
split_gain=77402.9 4603.56 2999.34 491.623 345.321 310.151 273.379 332.532 238.313 220.501 190.064 161.334 154.399 144.329 143.622 125.275 123.288 108.934 100.426 128.799 123.394 94.7174 96.5033 82.3882 76.743 71.0564 54.2089 51.7481 51.6391 51.0038 319.533 88.4258 51.6504 266.441 130.443 48.5282 84.4013 45.1997 44.8234 44.2445 48.81 40.8077 54.0394 40.1249 38.4066 38.2698 40.4634 37.7555 36.793 36.4576 38.7807 36.1478 35.977 35.0858 34.8908 33.7151 33.6611 154.305 92.2675 48.0087 166.095 29.5785
threshold=16.902000427246097 5.570315122604371 31.028000831604007 12.03250026702881 18.013000488281254 0 5.5000000000000009 1 3.2495419979095463 12.975500106811525 3.5000000000000004 2.5000000000000004 2 3 7.5753271579742441 1.0000000180025095e-35 4 1.0000000180025095e-35 5.5000000000000009 5 6 7 8 9 10 11 12 13 14 1.0000000180025095e-35 1.5000000000000002 1.5000000000000002 5.5000000000000009 24.500000000000004 11.500000000000002 15 16 17 18 19 4.5000000000000009 4.5000000000000009 20 21 1.0000000180025095e-35 3.5000000000000004 22 23 24 25 26 27 28 4.5000000000000009 29 30 31 1.5000000000000002 1.0000000180025095e-35 2013.5000000000002 6.5000000000000009 4.5000000000000009
decision_type=2 2 2 2 2 9 2 9 2 2 2 2 9 1 2 2 1 2 2 9 9 1 1 9 1 9 1 1 1 2 2 2 2 2 2 1 9 1 9 1 2 2 1 9 2 2 9 9 9 1 1 1 9 2 9 9 9 2 2 2 2 2
left_child=1 8 4 10 14 29 16 15 11 27 21 56 18 49 43 -8 -7 -11 20 -20 39 -3 48 -19 52 -10 54 38 -25 -4 31 -31 -32 -34 -35 36 -15 -9 -5 -12 -41 -29 -43 -2 -21 -26 -47 -18 -23 -6 -51 -30 -16 -27 -14 -24 57 -1 59 -59 -61 -22
right_child=2 3 5 9 13 6 7 37 25 17 12 -13 26 35 24 -17 47 23 19 44 61 22 55 28 45 53 -28 41 51 30 32 -33 33 34 -36 -37 -38 -39 -40 40 -42 42 -44 -45 -46 46 -48 -49 -50 50 -52 -53 -54 -55 -56 -57 -58 58 -60 60 -62 -63
leaf_value=0.0088843621611595092 -0.0022177633345127124 -0.002212617576122278 0.13342349946498872 -0.024480318099260347 0.01654185459017754 0.07615238851308824 -0.13639102336764336 -0.031236225545406327 -0.028741449356079099 -0.13948759880661962 0.068955038607120531 0.074636751860380171 0.0034706053435802353 0.021830272004008291 -0.029068509012460698 0.064947170704603194 0.029472528323531144 -0.0056454720795154683 -0.13572028893232344 -0.13873148036003111 -0.020216484338045126 -0.012231937259435655 -0.048347371339797968 0.031096804082393639 -0.00037406879663466342 -0.043125552177429194 -0.032178487956523893 -0.019111902385950088 -0.0073592596054077091 -0.12784875148534774 0.1393174757361412 0.15123628759384156 0.1389435400366783 0.15223283311724664 -0.12784875148534774 0.037598347604274746 0.0070958165824413395 0.069862250685691837 0.0044073388278484281 -0.0041276173740625423 0.022806983470916767 0.011124258443713175 -0.016802650958299647 -0.015768020987510688 0.017029568433761577 -0.0072945217788219392 0.020077439934015274 0.016327770769596107 -0.021057661056518562 0.0099531154036522022 -0.0091586322784424027 0.010164478749036789 0.015919845402240763 -0.028741449356079099 -0.018817444711923592 -0.028074115037918082 -0.12784875148534774 -0.12784875148534774 0.16988123807311059 -0.12784875148534774 0.0092577293813228545 0.0022701265811920115
leaf_weight=496 1938 1322 150641 803 4567 14795 1125 141 12973 544 988 271 977 3594 123 190 2286 2000 925 165 695 2062 4260 827 4920 12906 3106 3784 658 483 11555 117 2582 181 467 5657 2003 1777 2618 544 523 608 897 1700 648 694 3006 2279 2137 3212 749 8512 4089 5222 2365 5689 142972 9316 109 3372 676 713
leaf_count=496 1938 1322 150641 803 4567 14795 1125 141 12973 544 988 271 977 3594 123 190 2286 2000 925 165 695 2062 4260 827 4920 12906 3106 3784 658 483 11555 117 2582 181 467 5657 2003 1777 2618 544 523 608 897 1700 648 694 3006 2279 2137 3212 749 8512 4089 5222 2365 5689 142972 9316 109 3372 676 713
internal_value=0.000221318 -0.0197368 0.0212278 -0.00597788 0.00805611 0.0237594 0.0182221 0.00477111 -0.023271 -0.000283516 -0.0104401 -0.0240621 -0.00561636 0.0125088 0.00270795 -0.0145472 0.0204778 0.00396101 0.00080119 -0.0090046 0.00572481 -0.0140724 -0.0152635 0.00495332 0.00519405 -0.0192719 -0.0107773 -0.00639495 0.00680274 0.0245103 0.0217696 -0.014 0.0232212 0.0176316 -0.011034 0.0162287 0.0128456 0.0179979 -0.00158117 0.0134988 0.00629062 -0.00948764 -0.00254153 -0.00606102 0.00555893 0.00247972 0.00632432 0.0131858 -0.00884414 0.00757203 0.00403551 0.00570806 0.0107177 -0.0213226 -0.00630967 -0.0179611 -0.0241287 -0.0216271 -0.0226509 -0.0230245 -0.0184783 -0.00567701
internal_weight=461554 236683 224871 48370 36252 188619 22593 3233 188313 21251 27119 157212 11649 19782 16470 1315 19360 12541 5201 1738 3463 15470 14148 11997 12832 31101 6448 8710 9997 166026 15385 600 14785 3230 648 11254 5597 1918 3421 2055 1067 5289 1505 3638 813 8620 3700 4565 4199 8528 3961 9170 4212 18128 3342 9949 156941 13969 13473 13364 4048 1408
internal_count=461554 236683 224871 48370 36252 188619 22593 3233 188313 21251 27119 157212 11649 19782 16470 1315 19360 12541 5201 1738 3463 15470 14148 11997 12832 31101 6448 8710 9997 166026 15385 600 14785 3230 648 11254 5597 1918 3421 2055 1067 5289 1505 3638 813 8620 3700 4565 4199 8528 3961 9170 4212 18128 3342 9949 156941 13969 13473 13364 4048 1408
cat_boundaries=0 1 2 4 5 6 7 8 9 10 11 12 14 15 16 17 18 20 21 22 23 24 26 28 30 31 32 33 34 35 36 37 38
cat_threshold=855646120 4194304 608700416 1 28968 44034 4194304 4196352 33289 6156 2158035008 36163 551133184 1 12590 33865 1573 8256 268437504 1 4096 134250561 72 8480 537403456 1 2157977664 1 32768 1 4204608 33864 9 16512 142606337 73728 146817097 1342996480
is_linear=0
shrinkage=0.05


Tree=3
num_leaves=63
num_cat=21
split_feature=19 13 17 7 8 0 19 17 19 0 7 7 0 8 0 8 8 13 7 13 0 7 7 17 17 7 7 21 0 21 5 3 8 0 8 3 31 21 31 31 7 21 0 0 26 26 26 22 8 0 7 19 13 7 28 21 21 8 26 30 8 7
split_gain=79106.8 3784.63 2113.49 588.527 309.74 369.98 272.331 181.464 166.243 162.434 157.012 144.981 109.981 343.895 182.991 140.925 129.72 108.006 105.719 82.9999 77.2059 127.288 92.0612 75.9826 66.1948 65.9598 64.8883 64.5533 54.6754 54.2517 53.2611 114.552 52.097 49.5466 48.8908 156.762 120.616 53.6361 58.616 105.441 54.3084 47.294 55.903 50.9021 55.1431 65.0567 50.3303 42.7116 38.3178 38.2654 48.7349 36.5346 35.8668 35.7723 32.4685 31.0811 30.8493 30.3991 29.862 29.9175 29.7666 29.4332
threshold=17.111982345581058 36.041000366210945 7.6271429061889657 0 1 5.5000000000000009 12.977053642272951 21.71535682678223 5.1250000000000009 4.5000000000000009 2 3 5.5000000000000009 4 3.5000000000000004 5 6 1.0000000180025095e-35 7 18.986499786376957 4.5000000000000009 8 9 39.886728286743171 25.57164287567139 10 11 2.5640417337417607 4.5000000000000009 8.7630662918090838 1.0000000180025095e-35 2016.5000000000002 12 4.5000000000000009 13 2013.5000000000002 106.03393173217775 0.43748033046722418 58.714643478393562 99.088573455810561 14 1.0000000180025095e-35 2.5000000000000004 4.5000000000000009 -1.4999999999999998 -1.0000000180025095e-35 5.5000000000000009 8.2969517707824725 15 4.5000000000000009 16 36.06532287597657 1.0000000180025095e-35 17 729.50000000000011 4.7234749794006357 1.5408887267112734 18 6.5000000000000009 88.957141876220717 19 20
decision_type=2 2 2 9 9 2 2 2 2 2 9 9 2 9 2 9 9 2 9 2 2 9 9 2 2 9 9 10 2 10 2 2 9 2 9 2 2 10 2 2 9 8 2 2 2 2 2 10 9 2 9 2 2 9 10 10 10 9 2 2 9 9
left_child=2 3 8 7 5 18 9 17 19 24 12 47 14 -14 16 -16 -5 -2 51 34 21 -8 -22 61 32 -11 -9 -13 -10 49 -25 41 53 -17 35 -1 37 38 -37 40 -40 42 -32 44 -44 -46 -47 -7 -30 -12 -51 -3 -18 -4 -42 -23 60 -35 59 -48 -28 -6
right_child=1 4 6 10 23 11 20 26 28 25 29 27 13 -15 15 33 52 -19 -20 -21 22 55 -24 30 -26 -27 56 -29 48 -31 31 -33 -34 57 -36 36 -38 -39 39 -41 54 -43 43 -45 45 46 58 -49 -50 50 -52 -53 -54 -55 -56 -57 -58 -59 -60 -61 -62 -63
leaf_value=-0.12145631391108035 -0.13505967243164776 0.016851389832794685 0.024088362198323013 0.016346474209427832 0.010228816764056693 0.044292906846106074 0.0041529436558485067 0.038866964310407641 -0.040969274568557749 -0.0042157365411520046 -0.023234971368312853 -0.13090654766708612 0.035294472555816192 -0.12805577950775623 0.066373787797987485 0.001127279409766202 -0.1323377495571971 0.0090271034672856354 0.022085968473553642 0.0044975018918514296 0.010859404219686987 -0.014567004577815547 -0.008308638262748724 0.12795719662308694 0.016318360324949033 -0.01731297023892403 0.0014120830558240428 0.060865444566309469 -0.016147198009490962 0.013864302839338772 0.10452219807207584 -0.12145631391108035 -0.033261744308471689 0.0045018518678844105 -0.12145631391108035 -0.12145631391108035 0.011162492652982482 0.17080050799995664 0.057481594076752664 -0.12145631391108035 -0.12145631391108035 0.15336159550249576 0.093841398587822908 0.10553613983690738 -0.12145631391108035 0.095080722203850734 -0.12145631391108035 -0.13090654766708612 -0.029116174209117874 0.019024041368067259 -0.016200614590197792 0.068453235474228866 0.00078312326818705822 -0.022737108463048928 -0.0063270576626062169 -0.00015556560605765047 0.0285576932169497 0.027593484440445917 0.11935250126421451 0.098931687703728677 0.021341644570231424 0.027509988889098159
leaf_weight=12461 442 887 118 2196 809 478 1955 3193 13658 3918 2225 981 1091 1756 2257 1704 443 5734 1845 267 1741 7948 2533 157369 242 4000 512 118 1714 434 2025 139 8008 732 141863 2717 578 133 398 2873 464 11130 375 1461 287 336 315 68 3789 241 630 7225 8793 11511 837 705 2761 988 82 57 14202 802
leaf_count=12461 442 887 118 2196 809 478 1955 3193 13658 3918 2225 981 1091 1756 2257 1704 443 5734 1845 267 1741 7948 2533 157369 242 4000 512 118 1714 434 2025 139 8008 732 141863 2717 578 133 398 2873 464 11130 375 1461 287 336 315 68 3789 241 630 7225 8793 11511 837 705 2761 988 82 57 14202 802
internal_value=0.000319031 0.0204572 -0.020958 0.00828863 0.0237363 0.0157682 -0.0109451 0.0133444 -0.0233092 -0.0138675 0.00250426 -0.00618541 0.00422384 -0.00487355 0.00573979 0.0130743 0.002095 0.00582902 0.019411 -0.0238283 -0.00548649 -0.00777244 0.000187178 0.0242617 -0.0162797 -0.00781132 0.0155966 -0.016569 -0.0189043 -0.00720339 0.0243634 0.0216342 -0.0166 0.00661037 -0.0238742 -0.0214828 -0.0160313 -0.0177445 -0.0183187 -0.0148622 -0.00498823 0.0220251 0.0179526 0.013517 0.00688705 0.00113742 0.0085443 0.0147482 -0.0146965 -0.00954457 -0.000660161 0.0218665 -0.000508328 -0.014402 -0.00989703 -0.0103688 0.0143652 0.0126163 -0.00231278 -0.00833333 0.0134634 0.0134544
internal_weight=461554 237123 224431 50334 186789 11602 42679 26844 181752 27797 23490 1645 19960 2847 17113 5681 11432 6176 9957 162591 14882 10608 4274 175187 19879 7918 20668 1099 19161 3530 173576 16207 19637 3424 162324 20461 8000 7422 7289 4572 1699 16068 4938 2913 1452 1077 790 546 5503 3096 871 8112 9236 11629 1301 8653 17475 1720 454 372 14714 1611
internal_count=461554 237123 224431 50334 186789 11602 42679 26844 181752 27797 23490 1645 19960 2847 17113 5681 11432 6176 9957 162591 14882 10608 4274 175187 19879 7918 20668 1099 19161 3530 173576 16207 19637 3424 162324 20461 8000 7422 7289 4572 1699 16068 4938 2913 1452 1077 790 546 5503 3096 871 8112 9236 11629 1301 8653 17475 1720 454 372 14714 1611
cat_boundaries=0 2 4 6 8 10 11 12 14 16 18 20 22 24 25 27 28 29 31 33 34 36
cat_threshold=3776520192 102608 2219409472 1 268440601 9216 1627389960 32832 606601216 1 4194304 536879104 1627455488 8256 537923593 64 2701394176 42048 2701526784 9221 532480 69760 2689181696 1 1342996552 536911880 1024 12681220 262400 536870920 65 270400 1 2147549192 2148532225 64
is_linear=0
shrinkage=0.05


Tree=4
num_leaves=63
num_cat=22
split_feature=19 13 19 7 8 0 19 20 17 4 7 0 7 21 0 8 0 8 8 13 7 7 8 16 0 7 7 7 17 5 2 26 26 2 26 21 13 7 0 8 7 2 2 0 0 11 0 7 7 3 8 2 2 7 24 2 4 27 19 6 8 6
split_gain=77478.8 3806.8 2197.29 603.38 271.688 377.85 231.933 218.466 194.722 182.535 154.164 150.271 139.013 111.919 110.523 321.491 178.524 137.715 125.198 107.951 94.8865 87.3487 80.1595 70.7508 69.2754 115.881 84.8696 54.7822 53.2127 50.5157 316.513 76.2064 50.3782 151.563 230.106 48.0272 47.8341 46.9433 49.3756 64.0364 59.5789 46.8991 46.4505 46.4105 45.0658 48.7106 40.569 40.5653 40.1947 72.9421 102.279 138.909 166.929 101.46 44.581 80.1266 38.8311 37.7828 40.6864 36.4135 36.2634 48.7365
threshold=17.111982345581058 41.041999816894538 7.8750000000000009 0 1 5.5000000000000009 12.977053642272951 2.8301801681518559 22.30292892456055 1.5000000000000002 2 4.5000000000000009 3 2.1763583421707158 5.5000000000000009 4 3.5000000000000004 5 6 1.0000000180025095e-35 7 8 9 69.992500305175795 4.5000000000000009 10 11 12 28.092429161071781 1.0000000180025095e-35 1.5000000000000002 -1.4999999999999998 5.5000000000000009 11.500000000000002 6.5000000000000009 8.7630662918090838 17.050000190734867 13 5.5000000000000009 14 15 11.500000000000002 11.500000000000002 4.5000000000000009 4.5000000000000009 16 4.5000000000000009 17 18 2013.5000000000002 19 6.5000000000000009 1.5000000000000002 20 -10.499999999999998 5.5000000000000009 1.0000000180025095e-35 0.4587573260068894 69.660713195800795 95.259998321533217 21 82.010002136230483
decision_type=2 2 2 9 9 2 2 2 2 2 9 2 9 10 2 9 2 9 9 2 9 9 9 2 2 9 9 9 2 2 2 2 2 2 2 10 2 9 2 9 9 2 2 2 2 1 2 9 9 2 9 2 2 9 2 2 2 10 2 2 9 2
left_child=2 3 7 8 5 20 11 9 19 48 14 28 36 22 16 59 18 -18 -5 -2 -3 -10 -7 27 25 -8 -26 -6 42 -25 31 -31 -32 -34 -35 44 -9 -13 39 -39 -40 57 47 -19 -12 -46 -14 -4 -1 -50 51 52 -51 -53 55 -54 -17 -20 -59 -16 61 -23
right_child=1 4 6 10 23 13 24 12 21 -11 35 37 46 -15 15 56 17 43 41 -21 -22 60 -24 29 26 -27 -28 -29 -30 30 32 -33 33 34 -36 -37 -38 38 40 -41 -42 -43 -44 -45 45 -47 -48 -49 49 50 -52 53 54 -55 -56 -57 -58 58 -60 -61 -62 -63
leaf_value=-0.11538349821552632 -0.12830668881006538 0.063811014984697101 -0.034056035599708559 0.016161432179175327 0.035421016822755336 -0.12436122028373181 0.0040530735604465077 -0.022353562307953847 0.034091555924192052 0.044968962680697458 -0.019253560672998438 -0.016727500579357148 -0.046068779969066359 0.057112838322147752 0.037173219605758791 -0.12174768724337218 0.064202280605956938 0.0013790800403058467 -0.0066526754356175614 0.0085757482939213588 0.024322834549397234 0.027663853461388489 0.030118853701874615 0.13074307740777733 -0.019897653361260904 -0.013348484682217256 0.0049809994228929184 0.041851759774982927 0.021205261698551484 0.13600639343902471 0.13453335661634802 -0.11538349821552632 0.13695311168625954 -0.12673312090292571 0.14445887584432959 0.013171087697371832 0.01244209983214737 0.020863758309334492 -0.03848449191845954 -0.0048335021442174834 -0.0025498361392319205 0.012722799911424533 -0.013764905652999882 0.019866754888240259 0.014326192768737657 -0.015342036986909802 -0.031355395566895608 -0.023253381794244056 -0.11538349821552632 0.00397625318184498 -0.060452882790416454 0.037520867687948045 -0.11538349821552632 -0.02412879256144165 -0.11538349821552632 0.023245938277393609 0.017748774443119786 0.0024634019874781423 0.063811014984697101 -0.12773817842505872 0.011789401512593023 0.021929025357216615
leaf_weight=92455 442 6937 4064 2296 3080 940 1939 2647 4802 370 2483 2238 23220 265 977 1714 2327 1695 5294 6296 1631 9244 224 141639 1073 8873 3283 13510 183 117 10983 462 2153 449 472 434 404 507 1226 2032 1326 931 1779 1720 339 636 9368 12480 25635 741 21629 439 445 1065 4781 229 96 2821 207 80 4984 4443
leaf_count=92455 442 6937 4064 2296 3080 940 1939 2647 4802 370 2483 2238 23220 265 977 1714 2327 1695 5294 6296 1631 9244 224 141639 1073 8873 3283 13510 183 117 10983 462 2153 449 472 434 404 507 1226 2032 1326 931 1779 1720 339 636 9368 12480 25635 741 21629 439 445 1065 4781 229 96 2821 207 80 4984 4443
internal_value=0.00038457 0.0203145 -0.0206724 0.00868441 0.0237655 0.0156865 -0.0102084 -0.0230115 0.0133872 -0.0238588 0.00277016 -0.0130898 -0.0194976 -0.00810007 0.00452945 -0.00456052 0.00603927 0.0132445 0.00245692 0.00589938 0.019672 0.0155423 -0.0147766 0.0242304 -0.00530063 -0.00744543 2.29568e-05 0.0211272 -0.0154896 0.0245614 0.0217648 -0.0144646 0.0232571 0.0175992 0.000624321 -0.00633009 -0.00918817 -0.00703029 -0.00434719 0.000580937 -0.00926724 -0.000143042 -0.0157575 0.00678102 -0.00831405 0.000794872 -0.0204537 -0.0165831 -0.0239469 -0.0228135 -0.0211148 -0.01607 -0.0193996 -0.00246011 -0.0224244 -0.0103858 -0.0173077 -0.00133381 0.00312087 0.017268 0.0139647 0.0153154
internal_weight=461554 237123 224431 54261 182862 9997 41003 183428 30211 147789 24050 25835 35639 1429 20158 2867 17291 5742 11549 6738 8568 23473 1164 172865 15168 10812 4356 16590 18506 156275 14636 579 14057 3074 921 3892 3051 7329 5091 2539 2552 9253 18323 3415 3458 975 32588 16544 147419 54964 29329 7700 6196 1504 5455 674 1810 8322 3028 1057 18671 13687
internal_count=461554 237123 224431 54261 182862 9997 41003 183428 30211 147789 24050 25835 35639 1429 20158 2867 17291 5742 11549 6738 8568 23473 1164 172865 15168 10812 4356 16590 18506 156275 14636 579 14057 3074 921 3892 3051 7329 5091 2539 2552 9253 18323 3415 3458 975 32588 16544 147419 54964 29329 7700 6196 1504 5455 674 1810 8322 3028 1057 18671 13687
cat_boundaries=0 2 4 6 8 10 11 12 14 16 17 19 20 22 23 24 25 26 28 30 31 33 35
cat_threshold=3776520192 102608 2219409472 1 268439577 9216 537133337 9216 604504064 1 4194304 536879104 1627455488 8256 532480 69776 4194304 537923585 64 1078083585 2149089280 1088 1115701275 4194304 4325888 2 58720266 33796 313281604 100545 1410170944 1610653704 9216 4229120 1
is_linear=0
shrinkage=0.05


Tree=5
num_leaves=63
num_cat=24
split_feature=17 13 19 7 19 17 8 0 4 7 19 0 4 7 17 0 7 19 0 7 0 8 7 8 0 7 7 3 8 2 24 6 7 2 8 28 7 5 2 26 26 2 26 19 19 0 8 7 7 21 0 2 7 19 0 7 7 0 8 8 33 7
split_gain=75452.7 3557.93 2508.44 567.062 298.246 271.686 259.627 341.591 158.213 157.479 152.064 142.073 107.315 97.467 93.513 84.6035 77.07 75.957 70.205 319.449 175.116 106.558 78.068 65.5912 62.731 59.7834 58.7224 98.3815 130.784 152.757 140.355 131.085 116.898 62.7061 56.1529 51.2527 49.3131 48.8505 330.848 76.6438 52.2097 158.172 236.414 46.6637 44.0307 43.1379 58.39 56.1967 42.7001 41.4254 44.8142 39.4156 44.0309 38.9125 38.3762 42.8197 37.8913 60.8684 195.867 37.3592 36.7229 35.5411
threshold=17.671785354614261 45.024499893188484 7.8750000000000009 0 13.295946121215822 3.2142857313156132 1 5.5000000000000009 1.5000000000000002 2 27.679311752319339 4.5000000000000009 1.0000000180025095e-35 3 13.311857223510744 4.5000000000000009 4 69.660713195800795 5.5000000000000009 5 3.5000000000000004 6 7 8 4.5000000000000009 9 10 2013.5000000000002 11 6.5000000000000009 -7.4999999999999991 58.61000061035157 12 1.5000000000000002 13 578.50000000000011 14 1.0000000180025095e-35 1.5000000000000002 -1.4999999999999998 5.5000000000000009 11.500000000000002 6.5000000000000009 16.544268608093265 69.660713195800795 5.5000000000000009 15 16 17 8.001256465911867 4.5000000000000009 11.500000000000002 18 0.5892857313156129 4.5000000000000009 19 20 5.5000000000000009 21 22 28.500000000000004 23
decision_type=2 2 2 9 2 2 9 2 2 9 2 2 2 9 2 2 9 2 2 9 2 9 9 9 2 9 9 2 9 2 2 2 9 2 9 10 9 2 2 2 2 2 2 2 2 2 9 9 9 10 2 2 9 2 2 9 9 2 9 9 2 9
left_child=2 3 5 10 11 8 7 13 26 18 24 51 23 -3 48 36 -17 -8 20 -20 22 -22 -5 -9 -2 45 -1 -28 29 30 31 -29 -31 -32 -24 -12 -7 -19 39 -39 -40 -42 -43 -16 -36 46 -13 -47 -6 50 -11 52 -4 -10 55 -23 -37 -58 60 -21 -59 -52
right_child=1 6 4 9 14 15 17 12 53 49 35 25 -14 -15 43 16 -18 37 19 59 21 54 34 -25 -26 -27 27 28 -30 32 33 -33 -34 -35 44 56 -38 38 40 -41 41 42 -44 -45 -46 47 -48 -49 -50 -51 61 -53 -54 -55 -56 -57 57 58 -60 -61 -62 -63
leaf_value=-0.10961432330475002 0.0069195764233334848 0.062438835054554033 -0.029895855313062672 -0.0063200416638366846 -0.033309868067100616 -0.024523611557453862 0.03076376017861069 -0.11814315926954522 0.12693127848315242 -0.014174449451159688 0.013339672147464022 0.01607048098690065 0.054257196406040369 0.022252496279917634 -0.0055734422056041844 -0.013123619520690279 -0.030957370960738497 0.12304353759683669 -0.1155656061701998 0.035778555657964221 0.063556835231054598 0.014399658295996499 -6.188774843141065e-05 0.031608075779218224 0.019372858118224891 -0.015406209451973452 -0.10961432330475002 -0.10961432330475002 -0.077703494952775509 0.034661278463184834 -0.011610233504928624 0.0082470901102125859 -0.025627910049416114 -0.10961432330475002 0.0096421462470609679 0.032539735817860807 -0.040299605058290049 0.12920607376707346 0.12777027723786979 -0.10961432330475002 0.12818171727215497 -0.11924689917030185 0.13279076069591195 0.0034244212206732461 0.062812615353647627 -0.038877554475914705 -0.0042963866097927243 0.00043076803340761364 -0.0075002528559845018 0.009255010269049558 0.012405100821215643 -0.013076660370349892 -0.016964890976272497 -0.037064253711922082 0.019762021596916004 -0.003893879858754579 0.031566079745180886 -0.13202174710084219 0.034072085843491355 0.0053009894447400901 0.042045067906170158 -0.007241180355444566
leaf_weight=86312 6072 6258 10097 3241 3146 2602 11040 881 229 2685 730 634 238 1433 5724 3454 8148 145885 1661 1101 2321 1145 2800 179 2429 3178 25292 586 20729 515 401 1075 1503 5586 7139 4925 26664 113 11294 472 2209 464 482 4736 388 1045 1526 1076 3544 637 427 1815 6973 130 2267 1149 9809 495 1025 705 62 689
leaf_count=86312 6072 6258 10097 3241 3146 2602 11040 881 229 2685 730 634 238 1433 5724 3454 8148 145885 1661 1101 2321 1145 2800 179 2429 3178 25292 586 20729 515 401 1075 1503 5586 7139 4925 26664 113 11294 472 2209 464 482 4736 388 1045 1526 1076 3544 637 427 1815 6973 130 2267 1149 9809 495 1025 705 62 689
internal_value=0.00055842 0.0204211 -0.0200165 0.0091453 -0.00922196 -0.0225789 0.02378 0.0154267 -0.0236105 0.00427199 0.0145469 -0.0125626 -0.00828197 0.0194481 -0.00409038 -0.0189855 -0.0153723 0.0242144 0.00587725 -0.000699452 0.00699511 0.0134917 0.00369988 -0.0150943 0.00909011 -0.00672007 -0.0236944 -0.0223778 -0.0204647 -0.0155901 -0.018835 -0.00597532 -0.00336967 -0.0224027 0.00582132 0.0172768 -0.0204179 0.024491 0.0217773 -0.0150855 0.0232698 0.0175832 0.000475687 -0.00113767 0.00807019 -0.00283733 0.00212963 -0.00790901 -0.00870703 -0.00437275 -0.00636017 -0.0148703 -0.0156151 0.00954039 0.008986 0.00444638 0.0178567 0.0161981 0.00711125 0.0138216 -0.0166226 0.00206093
internal_weight=461570 234850 226720 53902 43494 183226 180948 8989 142358 28355 25547 26344 1298 7691 17150 40868 11602 171959 23917 3467 20450 6882 13568 1060 8501 7459 141999 55687 30395 9666 7648 1661 2018 5987 10327 17046 29266 160919 15034 585 14449 3155 946 10460 7527 4281 2160 2121 6690 4438 3801 18885 17070 359 4561 2294 16316 11391 1582 1806 557 1116
internal_count=461570 234850 226720 53902 43494 183226 180948 8989 142358 28355 25547 26344 1298 7691 17150 40868 11602 171959 23917 3467 20450 6882 13568 1060 8501 7459 141999 55687 30395 9666 7648 1661 2018 5987 10327 17046 29266 160919 15034 585 14449 3155 946 10460 7527 4281 2160 2121 6690 4438 3801 18885 17070 359 4561 2294 16316 11391 1582 1806 557 1116
cat_boundaries=0 2 4 6 8 10 11 12 14 15 17 19 20 22 23 25 26 27 29 31 32 34 35 36 37
cat_threshold=3775471616 69872 2219409472 1 269488137 41984 1610678272 8256 595591962 41988 268439553 4194304 268435456 1024 4194304 2164655872 33797 311184452 100545 1410170944 1610653704 1024 524352 536887577 9216 541065216 131584 1615061528 1025 1136787978 33796 1048577 8192 69760 4194304 67698688 263424
is_linear=0
shrinkage=0.05


Tree=6
num_leaves=63
num_cat=11
split_feature=17 13 17 17 9 20 16 16 21 29 17 13 16 9 2 14 9 5 2 26 26 2 26 13 9 20 2 9 22 17 21 3 31 27 9 9 9 27 9 21 9 2 9 15 21 17 31 2 17 27 2 2 17 31 30 2 21 28 18 2 22 34
split_gain=74179 3635.52 2576.43 350.734 342.608 268.362 249.741 163.374 91.9483 96.4597 91.4768 91.5316 90.6437 74.0087 55.8228 54.5129 53.1529 52.2454 318.315 73.1774 55.4656 150.655 232.207 42.4099 38.8296 38.125 37.6814 34.2631 33.6562 31.1117 30.0954 29.8136 71.7618 70.9685 31.7077 27.1083 25.9502 34.1609 25.3753 24.5891 28.9893 22.9735 25.4474 22.1553 22.0784 22.5309 30.1924 21.534 21.4376 21.7756 21.2297 46.51 47.4454 30.9965 54.6482 67.8709 20.8221 20.0216 19.7014 19.4958 18.422 20.7972
threshold=17.671785354614261 45.024499893188484 6.7713572978973398 10.911785602569582 0 2.1886852979660039 75.018001556396499 16.015999794006351 0.43748033046722418 2705.5000000000005 28.092429161071781 1.0000000180025095e-35 12.975500106811525 1 1.5000000000000002 14.020999908447267 2 1.0000000180025095e-35 1.5000000000000002 -1.4999999999999998 5.5000000000000009 11.500000000000002 6.5000000000000009 18.986499786376957 3 5.0587029457092294 11.500000000000002 4 2.7762150764465336 39.886728286743171 7.362516164779664 2013.5000000000002 106.03393173217775 1.0000000180025095e-35 5 6 7 0.98251137137413036 8 1.426279664039612 9 1.5000000000000002 10 11.021999835968019 16.827845573425297 224.02600097656253 98.070175170898452 2.5000000000000004 22.30292892456055 0.42013745009899145 2.5000000000000004 3.5000000000000004 1.0000000180025095e-35 98.904644012451186 95.132141113281264 8.5000000000000018 12.488265514373781 1459.5000000000002 49.690124511718757 11.500000000000002 8.5679798126220721 26.500000000000004
decision_type=2 2 2 2 1 2 2 2 10 8 2 2 2 1 2 2 1 2 2 2 2 2 2 2 1 2 2 1 8 2 10 2 2 8 1 1 1 10 1 10 1 2 1 2 10 2 2 2 2 10 2 2 2 2 2 2 10 10 2 2 8 2
left_child=2 4 5 25 16 8 13 14 31 -10 59 -12 24 44 -6 -13 30 38 19 -19 -20 -22 -23 36 -5 -4 28 43 -16 -15 48 -1 34 -34 41 -35 -7 50 -8 40 -17 42 -33 -14 45 46 -3 -26 49 -2 -38 52 -52 54 -53 -56 -27 -49 -31 -9 -60 -62
right_child=1 6 3 12 7 23 17 10 9 -11 11 15 27 29 26 39 -18 18 20 -21 21 22 -24 -25 47 56 -28 -29 -30 58 -32 32 33 35 -36 -37 37 -39 -40 -41 -42 -43 -44 -45 -46 -47 -48 57 -50 -51 51 53 -54 -55 55 -57 -58 -59 60 -61 61 -63
leaf_value=-0.1041336071395125 0.0077943148608488949 0.023288132920038309 -0.022912054466576872 -0.00088740748463358445 -0.012525999647365872 -0.04103115557663102 0.051609369002204745 0.0070141843070371081 -0.034818888893052534 0.12630497872756274 -0.1291222108477259 0.016880101968373196 -0.0091093801673106222 0.014592368170019266 0.0084078868539696257 0.031503353204085108 0.029524783580257188 0.12322785006147736 0.12228284758446475 -0.1041336071395125 0.12238717367825397 -0.11443411989926433 0.13135221405325195 0.0036186834692213624 -0.022902177471465238 -0.021960778332051067 0.018099670469588127 0.004381393035661707 0.0020894011980390204 0.036295044718604896 0.027494918646262013 0.014821896372428523 -0.0038633492746088295 0.021519954731587701 -0.1041336071395125 -0.1041336071395125 -0.089533007013871901 -0.038751736510253126 0.11942837281721458 0.041187739417454239 0.015158155699806587 -0.1041336071395125 -0.028003782203122586 -0.0020140179856359187 0.047481038819212465 0.15040809745224937 -0.019126198038201793 -0.015081195129202297 0.016715824882944274 -0.027719589570824876 0.022568791882512564 -0.027127445926591356 -0.022849831730698312 -0.12541385582227224 -0.1266319341282636 0.02310537795368155 -0.0040606553832903351 -0.0078306858677070768 0.063319035254340975 0.016248268777607211 0.069512506209235991 -0.0027536027804795585
leaf_weight=47615 973 3247 12575 1679 1597 29805 2508 10416 643 198 220 1741 2911 712 5610 6723 4611 108 11034 456 2180 459 474 222 1861 11724 1840 2590 8181 13516 949 108 677 102 75161 1744 1898 6758 139917 1431 1869 4420 453 4294 667 291 312 6440 6459 160 362 4718 474 1116 221 414 664 4873 2503 1122 2369 195
leaf_count=47615 973 3247 12575 1679 1597 29805 2508 10416 643 198 220 1741 2911 712 5610 6723 4611 108 11034 456 2180 459 474 222 1861 11724 1840 2590 8181 13516 949 108 677 102 75161 1744 1898 6758 139917 1431 1869 4420 453 4294 667 291 312 6440 6459 160 362 4718 474 1116 221 414 664 4873 2503 1122 2369 195
internal_value=0.000611608 0.0203059 -0.0197889 -0.00971811 0.00890783 -0.0226099 0.0237013 0.00663763 -0.0237626 -0.007283 0.00934869 0.0124082 -0.00548726 0.0189295 0.00293998 0.0130058 0.0159246 0.0244244 0.0215876 -0.0152482 0.0230561 0.0171619 0.000348339 -0.0193235 -0.00794957 -0.0138956 0.00384972 -0.00175345 0.00295301 0.0202888 0.0135335 -0.023869 -0.0232949 -0.0149921 -0.0235563 -0.0200704 -0.0194293 -0.0177024 0.0247174 0.0144243 0.0134136 -0.01943 -0.00993761 -0.00352391 0.0130495 0.0116234 0.0105296 -0.00885922 0.0125 0.00615622 -0.0157313 -0.0145072 -0.00340909 -0.0159414 -0.0143611 -0.000590551 -0.0119269 -0.00804605 0.0206923 0.00617091 0.0180334 0.0150546
internal_weight=461570 234850 226720 49611 53902 177109 180948 40750 131121 841 23522 11984 24648 23812 17228 11764 13152 157136 14711 564 14147 3113 933 45988 14853 24963 15631 9795 13791 19295 8541 130280 82665 2523 80142 1846 45766 15961 142425 10023 8592 4981 561 7205 4517 3850 3559 13174 7592 1133 9203 7305 836 6469 5353 635 12388 11313 18583 11538 5067 2564
internal_count=461570 234850 226720 49611 53902 177109 180948 40750 131121 841 23522 11984 24648 23812 17228 11764 13152 157136 14711 564 14147 3113 933 45988 14853 24963 15631 9795 13791 19295 8541 130280 82665 2523 80142 1846 45766 15961 142425 10023 8592 4981 561 7205 4517 3850 3559 13174 7592 1133 9203 7305 836 6469 5353 635 12388 11313 18583 11538 5067 2564
cat_boundaries=0 1 2 3 4 5 6 7 8 9 10 11
cat_threshold=729208 249744 131096 166913 3408772 1708177 131088 1087936 33889 294913 131073
is_linear=0
shrinkage=0.05


Tree=7
num_leaves=63
num_cat=25
split_feature=17 13 17 7 19 20 16 4 0 7 7 19 8 8 7 0 7 7 0 4 0 7 0 8 7 27 0 7 19 5 2 1 0 7 4 19 7 2 8 7 0 8 8 6 1 1 2 7 24 8 20 0 7 0 8 8 8 33 7 0 28 0
split_gain=72189.5 3400.9 2934.57 475.293 463.835 346.571 287.722 169.116 151.801 137.89 136.049 129.491 123.743 87.1957 83.9983 120.819 72.7316 71.6546 64.3768 61.0159 67.0993 259.05 146.831 106.139 67.8326 54.6499 54.5012 63.7074 53.5373 51.7863 316.448 71.6393 50.3234 196.322 46.2253 44.7925 43.1937 124.339 101.727 41.8428 54.5757 187.784 42.4074 56.9327 41.8355 135.736 250.067 39.163 37.2807 37.1007 36.951 36.0897 35.6055 35.425 62.1034 55.7998 35.2542 33.9574 33.1008 39.725 33.079 32.564
threshold=18.444585800170902 45.024499893188484 6.7713572978973398 0 12.977053642272951 1.7845229506492617 82.049499511718764 1.0000000180025095e-35 4.5000000000000009 1 2 28.798892974853519 3 4 5 4.5000000000000009 6 7 4.5000000000000009 1.0000000180025095e-35 5.5000000000000009 8 3.5000000000000004 9 10 0.0017119277035817506 4.5000000000000009 11 69.660713195800795 1.0000000180025095e-35 1.5000000000000002 1.5000000000000002 5.5000000000000009 12 2.5000000000000004 16.082321166992191 13 1.5000000000000002 14 15 5.5000000000000009 16 17 87.240001678466811 24.500000000000004 25.500000000000004 11.500000000000002 18 -21.499999999999996 19 52.346599578857429 3.5000000000000004 20 5.5000000000000009 21 22 23 28.500000000000004 24 5.5000000000000009 2196.5000000000005 4.5000000000000009
decision_type=2 2 2 9 2 2 2 2 2 9 9 2 9 9 9 2 9 9 2 2 2 9 2 9 9 10 2 9 2 2 2 2 2 9 2 2 9 2 9 9 2 9 9 2 2 2 2 9 2 9 2 2 9 2 9 9 9 2 9 2 8 2
left_child=2 3 5 11 8 7 9 36 16 34 19 18 -9 25 35 -16 -4 53 -2 20 22 -22 24 -24 -5 -7 -15 -28 49 -8 31 -31 -11 60 58 -6 -1 38 -38 40 42 57 -13 -44 -32 46 -46 -17 52 -26 -23 -45 -27 54 -10 -55 -12 -42 59 -3 -34 -25
right_child=1 6 4 10 14 13 29 12 17 32 56 39 -14 26 15 47 -18 -19 -20 -21 21 50 23 61 28 48 27 -29 -30 30 44 -33 33 -35 -36 -37 37 -39 -40 -41 41 -43 43 51 45 -47 -48 -49 -50 -51 -52 -53 -54 55 -56 -57 -58 -59 -60 -61 -62 -63
leaf_value=-0.098926926782536881 0.0065368447434122293 0.023412716858145367 -0.02759758287506844 -0.0068465852277002533 -0.0044299714173671404 0.025679996184846756 0.1133516685318226 -0.047462047269750007 0.010490788940720154 0.036963584826328048 -0.0029520510166280989 0.044396992962803174 0.15162306881578247 -0.043996311357427015 -0.014159335629482239 0.014853439711574913 -0.019116988444703734 -0.016190215004440536 0.018904836647559299 0.024604217203320202 -0.11013803507704166 0.022362415306355621 0.062236024952823765 0.0040114884737314505 0.010048246117201433 0.018101673860516976 -0.013812484873889575 -0.033545056153277499 0.05831476769813957 -0.098926926782536881 0.11733051894120344 0.1170664575584035 0.0014679328116403824 0.043730643198825608 0.062852808772268329 0.0040007541371936744 -0.10326899897139111 -0.098926926782536881 0.00086423015366718934 0.030005113135592155 -0.12636754140193787 0.0310059629965308 0.023271276552499921 -0.0088944037359068306 0.11131885763902083 0.11720314405373702 -0.10756284821682355 -0.0032516169199811266 -0.043996311357427015 0.0021677327094950629 -0.11743640329725993 0.046088165431848162 -0.017646508555728337 -0.049817131663123876 -0.0074771434535095055 -0.0011097014510005666 -0.037219190877965193 0.038172141789710394 0.029278775121234869 -0.11694802864944338 -0.11540195306878503 0.017311436691445949
leaf_weight=79682 6187 1047 8711 3227 4833 200 140150 435 1050 16778 3069 3496 339 32938 6299 1098 14585 4727 2460 1766 1470 1480 1997 1950 3823 219 2428 10614 351 448 10623 105 518 1998 765 6144 805 38142 997 5030 499 1003 5181 690 566 2342 448 1431 9875 4492 78 352 435 858 1204 1368 631 62 4704 170 286 1911
leaf_count=79682 6187 1047 8711 3227 4833 200 140150 435 1050 16778 3069 3496 339 32938 6299 1098 14585 4727 2460 1766 1470 1480 1997 1950 3823 219 2428 10614 351 448 10623 105 518 1998 765 6144 805 38142 997 5030 499 1003 5181 690 566 2342 448 1431 9875 4492 78 352 435 858 1204 1368 631 62 4704 170 286 1911
internal_value=0.000733692 0.0203905 -0.0191576 0.00901426 -0.00875201 -0.0222308 0.0236098 -0.0237488 -0.0124273 0.0187714 0.00431061 0.0139527 -0.000452196 -0.019008 -0.00272027 -0.00634759 -0.0145755 -0.00699196 0.0090118 0.00576923 0.00501348 -0.00186592 0.00618698 0.0126664 0.00299546 -0.014878 -0.0199641 -0.0172328 0.00529622 0.0244314 0.0215903 -0.0155063 0.0208959 0.0147038 0.0125 0.000202512 -0.0238995 -0.0224846 -0.00965594 0.0165803 0.0148256 0.00617008 0.0162337 0.0136652 0.0230578 0.0181913 0.00290927 0.00287663 -0.0153837 0.00449489 0.0123087 0.00302303 -0.00382263 -0.00243875 0.00197427 -0.00691824 -0.00456873 -0.0168564 0.0110243 0.00356561 -0.00620393 0.00775639
internal_weight=461570 232153 229417 51205 52308 177109 180948 120400 32503 26266 26245 24960 774 56709 19805 8828 23296 9207 8647 22545 20779 3028 17751 5858 11893 10729 45980 13042 8666 154682 14532 553 19580 2802 6686 10977 119626 39944 1802 16313 11283 1564 9719 6223 13979 3356 1014 2529 10529 8315 1558 1042 654 4480 2254 2226 3700 561 5921 1217 804 3861
internal_count=461570 232153 229417 51205 52308 177109 180948 120400 32503 26266 26245 24960 774 56709 19805 8828 23296 9207 8647 22545 20779 3028 17751 5858 11893 10729 45980 13042 8666 154682 14532 553 19580 2802 6686 10977 119626 39944 1802 16313 11283 1564 9719 6223 13979 3356 1014 2529 10529 8315 1558 1042 654 4480 2254 2226 3700 561 5921 1217 804 3861
cat_boundaries=0 2 4 6 8 9 11 13 15 16 17 19 21 23 25 26 28 29 30 32 33 35 36 37 39 41
cat_threshold=3775471616 69872 4045132296 33793 269488137 41984 2217738309 1 1146986560 4044427281 8256 1402994698 34116 2701526784 9221 268439553 4194304 268435456 33792 50340888 1028 1 8256 311249984 100545 2155888645 3775463424 64 4194304 4194304 262400 33792 536879104 1610645769 9216 549521408 6291457 2719744 1 286396928 1
is_linear=0
shrinkage=0.05


Tree=8
num_leaves=63
num_cat=15
split_feature=17 13 19 17 19 17 19 13 4 19 19 8 8 15 8 3 31 8 19 13 24 6 8 8 30 29 5 1 21 26 1 4 28 21 8 3 8 12 34 19 8 8 24 1 27 12 4 8 31 4 12 22 19 16 30 8 34 15 6 6 22 1
split_gain=70639.5 3620.32 2822.36 383.411 356.107 322.123 274.187 184.783 158.492 121.72 114.806 97.3222 84.794 79.4021 63.6154 120.144 119.78 69.5586 60.5903 58.3285 57.2436 83.1998 99.3665 50.3221 85.1971 48.4734 44.8479 123.607 86.2614 46.6989 229.394 71.1914 40.6859 38.8744 37.9653 37.8237 35.5472 33.3065 33.4698 32.5747 31.2712 30.3254 30.2492 31.4885 29.2203 26.7024 26.0627 26.0537 29.5772 24.6412 24.0841 23.8554 23.1387 23.8092 26.0006 21.6885 21.3944 21.3587 21.2943 60.4445 20.6421 22.2012
threshold=18.006071090698246 51.510002136230476 6.9821429252624521 2.6428570747375493 23.223785400390629 12.185286045074465 106.49528884887697 13.000999927520754 1.5000000000000002 36.06532287597657 16.544268608093265 0 1 27.164500236511234 2 2013.5000000000002 106.03393173217775 3 17.111982345581058 16.902000427246097 -7.4999999999999991 58.61000061035157 4 5 93.957855224609389 690.50000000000011 1.0000000180025095e-35 1.5000000000000002 1.0000000180025095e-35 5.5000000000000009 24.500000000000004 1.0000000180025095e-35 2803.5000000000005 8.6446442604064959 6 2014.5000000000002 7 8 26.500000000000004 0.5892857313156129 9 10 1.0000000180025095e-35 22.500000000000004 0.003376228036358953 11 2.5000000000000004 12 48.665716171264656 1.0000000180025095e-35 13 7.1304101943969735 1.4821428656578066 6.0374999046325692 95.132141113281264 14 27.500000000000004 1.0000000180025095e-35 97.055000305175795 100.36999893188478 6.5016930103302011 8.5000000000000018
decision_type=2 2 2 2 2 2 2 2 2 2 2 9 9 2 9 2 2 9 2 2 2 2 9 9 2 10 2 2 8 2 2 2 8 10 9 2 9 1 2 2 9 9 2 2 10 1 2 9 2 2 1 10 2 2 2 9 2 2 2 2 10 2
left_child=2 4 3 8 18 11 13 32 14 34 41 33 19 36 15 -1 20 -18 57 -5 21 -17 44 24 49 40 -25 28 35 -29 -31 -32 -6 55 -9 -28 -3 38 -27 -10 -11 -7 -26 -44 -23 -20 -14 48 -22 -8 -15 -52 53 -16 -55 -4 -40 -2 -30 -60 61 -49
right_child=1 6 5 12 7 10 23 9 39 25 -12 -13 46 50 52 16 17 -19 45 -21 47 22 -24 26 42 37 27 29 58 30 31 -33 -34 -35 -36 -37 -38 -39 56 -41 -42 -43 43 -45 -46 -47 -48 60 -50 -51 51 -53 -54 54 -56 -57 -58 -59 59 -61 -62 -63
leaf_value=-0.093980580443410039 0.011918101639225909 0.029468912361702126 -0.0025490107188568148 -0.023665081333122995 0.013361371740027562 -0.0040995247715684968 0.12154433998601739 0.013462619660590459 0.11108999598920058 0.027465697775425381 0.0026787153362551664 -0.025336577726307642 -0.033250750169594868 0.020169257144692955 -0.093980580443410039 -0.093980580443410039 0.019894704940771279 -0.063665293509034285 -0.00043575576209140546 0.0053443451632629209 -0.10959796043221451 0.025988249434627755 -0.047069722545505968 0.1088621351464302 0.12365077546281514 0.031937422970119568 0.086135705869509499 0.11177946845801046 0.12299949447424581 0.11173239523319418 -0.091984648806060554 0.15706352552824898 -0.11950179975725171 -0.0017797962035347671 0.010409034327810108 -0.093980580443410039 0.01362021089068155 0.030891311600581031 -0.11358443970079418 -0.033625107205111658 0.016437866162865199 -0.011909512502814579 -0.17046152895283498 0.1443725159328004 -0.0088145471950368589 0.0062999835858124527 0.010896271127353852 -0.093980580443410039 0.1085934713285735 0.14393614801900689 0.032842393932590433 0.016956878105329486 -0.059323221320180058 -0.093980580443410039 0.0051600115112967583 -0.017882837898593108 0.017538605809437648 -0.0067285238707011537 -0.10772147591408883 0.12251583854468039 -0.0005556891524334085 -0.093980580443410039
leaf_weight=17190 545 1383 820 6764 7015 5649 3045 6421 229 1450 6274 11640 35290 571 89576 1899 565 325 2309 494 63 558 1275 132462 335 4374 57 9701 353 2275 478 117 270 1303 8592 347 1478 10884 161 104 1028 8124 218 79 480 10127 94 3506 81 3184 20062 625 8544 150 126 17334 161 3033 104 167 116 9586
leaf_count=17190 545 1383 820 6764 7015 5649 3045 6421 229 1450 6274 11640 35290 571 89576 1899 565 325 2309 494 63 558 1275 132462 335 4374 57 9701 353 2275 478 117 270 1303 8592 347 1478 10884 161 104 1028 8124 218 79 480 10127 94 3506 81 3184 20062 625 8544 150 126 17334 161 3033 104 167 116 9586
internal_value=0.000818511 0.0201575 -0.0189656 -0.0219548 0.00912187 -0.00861978 0.0236712 0.0116253 -0.0232656 0.0132132 -0.00367761 -0.0118058 -0.017824 0.0187166 -0.0233512 -0.0214773 -0.0186816 -0.000786517 0.00281316 -0.0128233 -0.0195884 -0.0145062 -0.00813878 0.0244527 0.0200735 0.0159791 0.0246553 0.0219226 0.00525292 0.0232857 0.0176829 -0.00995798 0.00441661 -0.00962269 0.00988643 -0.0127475 0.0108965 0.0170122 0.0133553 0.0111862 0.00948345 -0.00623139 0.00261076 -0.00900673 0.0033874 0.00446285 -0.0188408 -0.0211916 0.000649351 0.0218775 0.019769 0.02005 -0.0240255 -0.0242643 -0.00960145 -0.0102264 -0.00217391 -0.00292063 0.0169071 0.00636531 -0.021414 -0.0216163
internal_weight=461570 233411 228159 177015 56370 51144 177041 40356 134373 33071 20047 31097 42642 24119 134040 35644 18454 890 16014 7258 17564 4212 2313 152922 6861 18058 146061 13599 1028 12571 2870 595 7285 19457 15013 404 2861 15580 4696 333 2478 13773 632 297 1038 12436 35384 13352 144 6229 21258 20687 98396 89852 276 18154 322 3578 624 271 13208 13092
internal_count=461570 233411 228159 177015 56370 51144 177041 40356 134373 33071 20047 31097 42642 24119 134040 35644 18454 890 16014 7258 17564 4212 2313 152922 6861 18058 146061 13599 1028 12571 2870 595 7285 19457 15013 404 2861 15580 4696 333 2478 13773 632 297 1038 12436 35384 13352 144 6229 21258 20687 98396 89852 276 18154 322 3578 624 271 13208 13092
cat_boundaries=0 2 3 5 6 7 8 10 11 12 13 15 16 17 18 19
cat_threshold=1617274880 1 81305664 1479311425 1 1074561088 1074561088 1078198272 805339136 1 1879321600 53505 268438528 2684364864 1 16424 268435456 49408 536872960
is_linear=0
shrinkage=0.05


Tree=9
num_leaves=63
num_cat=24
split_feature=17 13 17 17 7 20 16 7 17 7 7 7 8 7 8 2 6 5 2 1 26 1 2 2 7 2 8 22 2 7 31 2 8 22 8 8 8 28 8 7 2 24 8 7 2 2 6 20 22 7 28 13 2 31 8 8 30 7 1 20 17 7
split_gain=68855 3592.36 3000.69 480.814 479.583 355.919 207.761 187.981 171.851 147.098 121.735 91.8858 72.9117 72.2287 68.4066 63.8979 81.4758 49.2266 311.411 70.2914 49.4646 234.99 128.95 47.6916 42.7568 160.383 54.4073 45.072 163.022 70.1429 39.0697 171.609 38.4221 37.9049 46.7158 37.404 33.8117 33.5057 31.0371 30.03 29.2764 28.6673 28.4812 28.2834 27.6641 141.467 42.7218 26.0898 26.0756 25.99 25.7354 25.7017 25.5602 39.3714 40.1439 25.2684 23.7526 23.5113 25.7842 22.608 22.548 23.0706
threshold=18.444585800170902 58.022499084472663 5.5000000000000009 10.449271678924562 0 1.4690352678298952 97.425998687744155 1 41.731571197509773 2 3 4 5 6 7 8.5000000000000018 95.259998321533217 1.0000000180025095e-35 1.5000000000000002 1.5000000000000002 5.5000000000000009 24.500000000000004 11.500000000000002 11.500000000000002 8 1.5000000000000002 9 1.3491687774658205 5.5000000000000009 10 106.03393173217775 7.5000000000000009 11 7.9933395385742196 12 13 14 700.50000000000011 15 16 11.500000000000002 -1.0000000180025095e-35 17 18 2.5000000000000004 3.5000000000000004 95.259998321533217 10.279139041900637 1.3537765145301821 19 1552.5000000000002 5.0089998245239267 11.500000000000002 48.665716171264656 20 21 49.409286499023445 22 17.500000000000004 12.237885951995851 2.7857142686843877 23
decision_type=2 2 2 2 9 2 2 9 2 9 9 9 9 9 9 2 2 2 2 2 2 2 2 2 9 2 9 10 2 9 2 2 9 8 9 9 9 10 9 9 2 2 9 9 2 2 2 2 8 9 10 2 2 2 9 9 2 9 2 2 2 9
left_child=2 4 5 11 13 24 10 8 23 32 42 35 -9 51 15 44 -17 -8 19 -19 -20 -22 -23 33 -1 26 41 30 -29 52 -27 37 48 38 -35 -4 -11 -32 -6 -10 43 -26 -3 -13 -7 47 56 -46 -5 -38 -36 -2 53 -30 -55 -12 -47 -42 -59 -18 -16 -62
right_child=1 6 3 9 7 14 17 12 39 36 55 40 -14 -15 60 16 59 18 20 -21 21 22 -24 -25 25 27 -28 28 29 -31 31 -33 -34 34 50 -37 49 -39 -40 -41 57 -43 -44 -45 45 46 -48 -49 -50 -51 -52 -53 -54 54 -56 -57 -58 58 -60 -61 61 -63
leaf_value=-0.089281551421239544 -0.12579324188394367 0.017830695414428433 0.0023490387414253355 0.0080518480370354029 0.014073085717149181 -0.11403836088153679 0.1058545933839207 0.0045142097621043492 0.038198993791534422 -0.02667402508823058 0.03385436103219619 -0.020574457530285774 -0.018431029749710715 0.024585747957619419 -0.049550026640846935 -0.020804943264520138 0.0017386775085944219 -0.089281551421239544 0.11020373929446742 0.10616399098857038 0.1098972765549085 0.13467551356191149 -0.098735039053156906 0.018641105257575386 0.018685952749989389 -0.089281551421239544 -0.046028108926689293 -0.089281551421239544 -0.09362362361009377 0.027799668242800002 -0.05896626448686379 -0.089281551421239544 0.0065612318629233004 0.0079919182342053537 0.0008472307044887329 -0.024263896401895104 -0.014045820549575783 0.0084734695208888208 0.0055673677462935835 0.015328681952324043 -0.01923415402514015 -0.11197595701023473 0.044260285405386561 -0.011668762363651976 -0.0040356490617539211 -0.032260136998070114 -0.11341168004149796 0.072942143886410016 -0.0046904974308093483 -0.0064381873756616751 -0.044701160696947122 0.01916763916572153 0.10205073533157144 0.041778888940260245 -0.05896626448686379 0.039225038741775679 -0.0016583741811095011 -0.0096951962481361745 0.015141765330405545 0.094580242246366991 -0.024869841128737514 -0.03324705022672414
leaf_weight=81274 85 2219 293 615 5281 1673 134902 8156 5311 1008 8070 12651 1498 9066 21112 1672 501 437 10420 103 2347 184 431 2137 513 21122 575 3696 506 425 155 2871 4045 3020 2903 14643 6092 800 7421 775 555 61 2687 3615 774 633 2036 184 5176 12226 666 13599 120 238 232 10435 355 679 487 165 3370 22269
leaf_count=81274 85 2219 293 615 5281 1673 134902 8156 5311 1008 8070 12651 1498 9066 21112 1672 501 437 10420 103 2347 184 431 2137 513 21122 575 3696 506 425 155 2871 4045 3020 2903 14643 6092 800 7421 775 555 61 2687 3615 774 633 2036 184 5176 12226 666 13599 120 238 232 10435 355 679 487 165 3370 22269
internal_value=0.00094666 0.0201442 -0.0184798 -0.00909197 0.00959895 -0.0219629 0.0238127 0.00609366 0.00820012 -0.00441671 0.0194342 -0.0132332 8.79553e-05 0.0153163 -0.0186559 -0.0142915 -0.00735672 0.0245014 0.0216707 -0.0155556 0.0231729 0.0174713 -0.0100407 0.00609716 -0.0235709 -0.0219177 -0.00359008 -0.0226231 -0.0183966 -0.00461867 -0.0235069 -0.0188578 0.000563681 0.00531206 0.00223479 -0.0161448 -0.00694818 -0.000497382 0.00690836 0.0156178 -0.0108004 0.0072774 0.0123373 -0.0114626 -0.0171839 -0.0149171 -0.0202216 0.00182672 -0.00204706 -0.00644915 -0.00164152 0.0129874 -0.0112568 -0.0140369 -0.00361702 0.0212976 -0.0116903 -0.00460488 -0.000510204 0.00743243 -0.0193949 -0.0184026
internal_weight=461570 232153 229417 62085 59918 167332 172235 37168 27514 29162 23411 32923 9654 22750 54744 7993 2338 148824 13922 540 13382 2962 615 21428 112588 31314 1149 30165 5217 1521 24948 3826 9836 19291 6589 14936 19326 955 12702 6086 17987 574 4906 16266 5655 3982 3024 958 5791 18318 3569 13684 1096 976 470 18505 988 1721 1166 666 46751 25639
internal_count=461570 232153 229417 62085 59918 167332 172235 37168 27514 29162 23411 32923 9654 22750 54744 7993 2338 148824 13922 540 13382 2962 615 21428 112588 31314 1149 30165 5217 1521 24948 3826 9836 19291 6589 14936 19326 955 12702 6086 17987 574 4906 16266 5655 3982 3024 958 5791 18318 3569 13684 1096 976 470 18505 988 1721 1166 666 46751 25639
cat_boundaries=0 2 4 6 8 10 12 14 15 17 18 19 20 21 22 23 24 26 27 28 29 30 31 32 34
cat_threshold=554246144 69880 3222278153 40960 4044427265 8193 2954465800 99329 3265265678 35269 341901312 1 554237952 64 1213046848 311184968 100545 1141669952 1080098820 675283008 8192 536913920 8388672 4294656 3221225473 8192 2219385856 289555968 33702402 411107328 541687872 132112 46138394 1088
is_linear=0
shrinkage=0.05


Tree=10
num_leaves=63
num_cat=23
split_feature=17 13 17 17 7 20 15 7 4 17 7 7 20 7 7 7 5 2 1 26 1 2 8 8 6 27 2 21 8 2 6 8 21 1 7 2 8 21 8 24 2 2 13 13 7 22 8 22 8 8 8 8 21 7 6 2 1 8 24 2 13 8
split_gain=67115.8 3716.81 3075.23 488.38 460.701 372.077 259.02 196.805 190.86 169.694 124.997 110.434 101.212 86.8687 63.006 62.4815 49.3481 304.422 81.4815 48.0304 241.91 124.795 45.7483 44.6161 90.306 45.6984 44.1592 44.0485 43.39 66.0544 66.5987 38.1208 36.2487 34.591 33.7652 168.434 80.7852 33.4024 38.4338 32.335 31.6235 145.224 35.5721 31.335 29.8376 28.7566 35.0219 28.7528 28.3463 28.0858 27.9316 27.435 26.8627 26.3654 25.2033 82.7861 68.0946 57.1138 31.3459 31.0407 23.5538 23.2555
threshold=18.444585800170902 58.022499084472663 4.7857143878936776 10.449271678924562 0 1.4690352678298952 80.705501556396499 1 1.0000000180025095e-35 41.731571197509773 2 3 1.0000000180025095e-35 4 5 6 1.0000000180025095e-35 1.5000000000000002 1.5000000000000002 5.5000000000000009 24.500000000000004 11.500000000000002 7 8 93.909999847412124 0.25088705122470861 11.500000000000002 6.0726737976074228 9 8.5000000000000018 95.259998321533217 10 6.2396609783172616 21.500000000000004 11 1.5000000000000002 12 8.0776262283325213 13 -1.0000000180025095e-35 3.5000000000000004 2.5000000000000004 18.986499786376957 1.0000000180025095e-35 14 7.9933395385742196 15 1.3537765145301821 16 17 18 19 9.4509673118591326 20 105.04999923706056 7.5000000000000009 15.500000000000002 21 -2.4999999999999996 6.5000000000000009 5.0089998245239267 22
decision_type=2 2 2 2 9 2 2 9 2 2 9 9 2 9 9 9 2 2 2 2 2 2 9 9 2 10 2 10 9 2 2 9 10 2 9 2 9 10 9 2 2 2 2 2 9 8 9 8 9 9 9 9 10 9 2 2 2 9 2 2 2 9
left_child=2 4 5 13 14 8 11 9 34 26 31 -3 -10 22 27 -9 23 18 -18 -19 -21 -22 -4 24 -8 33 45 60 29 40 -31 47 50 -26 -1 36 -36 38 -17 -38 41 -7 -42 54 -11 51 -47 -5 -24 -45 -12 -6 -15 -43 -37 56 57 -56 -58 -59 -2 -13
right_child=1 6 3 10 7 28 16 15 12 44 32 61 -14 52 -16 37 17 19 -20 20 21 -23 48 -25 25 -27 -28 -29 -30 30 -32 -33 -34 -35 35 43 39 -39 -40 -41 42 53 -44 49 -46 46 -48 -49 -50 -51 -52 -53 -54 -55 55 -57 58 59 -60 -61 -62 -63
leaf_value=-0.084817473850177572 -0.11968281760453002 0.018170457323387134 -0.029982262528273941 0.007649255635183639 0.012707989134419617 -0.10933232353376782 0.11999607052546729 -0.017368854933004441 0.1358517168437938 0.036103282161197563 -0.025460064136491201 -1.0929814015470108e-05 -0.035925838313030027 -0.016922612368653358 0.023291682928229009 0.0075608535647781142 -0.084817473850177572 0.10081291427275052 0.10031596170815429 0.10488552029399655 0.11096076069990063 -0.093798287100499061 0.002180279324899104 0.096325380140811101 -0.16659504173748249 0.046049692428766956 0.01779493899353677 0.028817540129808274 -0.03777508801348689 -0.022919818679438198 0.0083714088958278532 0.005931077041836064 0.0014373713127091127 0.13237083567495855 -0.059869246811341731 -0.084817473850177572 0.017178868525403936 0.013891777097245251 -0.0062031430185791603 -0.10548299058938806 -0.10515502159829404 0.01985206716008301 0.013872159531305961 0.0081359587693941148 0.01352592587442677 0.0075923223224950934 -0.0018353372014198177 -0.0052873089460242053 -0.019877874008842469 -0.050160114726947584 -0.0091908080397555166 0.0050228228234742269 -0.0025986410875053823 -0.0096431667529787834 -0.039242443507167102 -0.084817473850177572 -0.0067587330953656766 -0.084817473850177572 -0.084817473850177572 0.023971894611052161 0.017136043902386766 0.031966447712227355
leaf_weight=75925 77 3671 10790 623 5255 1422 5160 1546 360 5397 1044 154 343 19194 9086 5159 454 10924 125 2414 175 435 363 134502 276 262 2117 1538 41996 1134 652 4024 1387 119 742 26368 596 931 2015 78 2467 434 92 113 758 3037 3576 5172 7841 2048 17062 7414 904 473 421 3819 245 57 1061 425 11917 13144
leaf_count=75925 77 3671 10790 623 5255 1422 5160 1546 360 5397 1044 154 343 19194 9086 5159 454 10924 125 2414 175 435 363 134502 276 262 2117 1538 41996 1134 652 4024 1387 119 742 26368 596 931 2015 78 2467 434 92 113 758 3037 3576 5172 7841 2048 17062 7414 904 473 421 3819 245 57 1061 425 11917 13144
internal_value=0.000982467 0.019973 -0.0181703 -0.00928674 0.00923934 -0.0219384 0.0237102 0.00581284 -0.0235173 0.0079651 -0.00440775 0.0178458 0.00245377 -0.0129451 0.0148665 -0.000333816 0.0243529 0.0215788 -0.0139465 0.0230535 0.0174769 -0.0106557 -0.015381 0.0246401 0.0201261 0.00270167 0.00586359 0.012668 -0.0182854 -0.0144225 -0.00621501 0.000195849 -0.00672332 -0.00803797 -0.0236805 -0.0223335 -0.00543785 0.00142637 0.000271815 0.00709064 -0.0174509 -0.0132353 -0.0212876 -0.0230322 0.0152843 0.00511098 0.00243838 -0.00239879 -0.012503 -0.0172027 -0.00732354 0.00650604 -0.0106301 0.00239802 -0.0234211 -0.0205043 -0.0127999 -0.00224252 -0.0200995 0.00945122 0.0116558 0.0199692
internal_weight=461313 231638 229675 68404 59823 161271 171815 37205 112601 27554 29312 16969 703 39092 22618 9651 154846 14527 579 13948 3024 610 18994 140319 5817 657 21399 13532 48670 6674 1786 9819 19493 395 111898 35973 1416 8105 7174 674 4888 2329 2559 34557 6155 19282 6613 5795 8204 2161 18106 12669 20098 907 32396 6028 2209 903 1306 482 11994 13298
internal_count=461313 231638 229675 68404 59823 161271 171815 37205 112601 27554 29312 16969 703 39092 22618 9651 154846 14527 579 13948 3024 610 18994 140319 5817 657 21399 13532 48670 6674 1786 9819 19493 395 111898 35973 1416 8105 7174 674 4888 2329 2559 34557 6155 19282 6613 5795 8204 2161 18106 12669 20098 907 32396 6028 2209 903 1306 482 11994 13298
cat_boundaries=0 2 4 6 8 10 12 14 16 17 18 19 21 22 23 25 26 27 28 29 30 32 33 34
cat_threshold=554246144 69880 3222278153 40960 4044427265 8257 2954433032 98305 3533832196 35269 554237952 64 180992 5 2283814929 1 1078239232 1213046848 675283008 311249984 100545 2290155521 339738624 3221225473 8192 8192 541108224 134217792 8388673 4294656 1635811336 1024 2290155521 67698752
is_linear=0
shrinkage=0.05


Tree=11
num_leaves=63
num_cat=19
split_feature=17 13 17 19 20 7 19 7 19 7 21 7 9 21 7 7 3 7 31 2 2 22 6 5 2 26 26 2 26 19 22 7 7 28 19 7 19 7 16 21 2 7 13 30 24 21 7 19 2 7 21 7 13 7 21 13 21 34 7 20 7 2
split_gain=65635.8 3843.83 3178.52 496.177 454.914 439.427 338.734 197.48 153.699 138.643 110.55 105.831 77.267 64.9761 60.7826 58.606 48.1766 157.453 176.791 114.195 60.6568 101.188 49.1783 44.1063 299.911 77.4997 46.9139 143.272 217.571 41.1557 40.1443 39.0878 38.5141 38.4195 37.8377 37.2129 33.1695 52.5962 32.3686 30.8448 30.1147 29.5366 28.6086 28.4404 30.9373 27.6379 27.5299 27.2742 26.4894 25.259 23.6553 22.8851 22.1881 21.5502 21.1731 19.8948 19.8358 19.7177 20.063 20.6587 19.3336 18.8036
threshold=18.444585800170902 58.022499084472663 4.7857143878936776 12.977053642272951 1.4690352678298952 0 127.9381446838379 1 54.21119689941407 2 0.43748033046722418 3 4 1.6661100983619692 5 6 2013.5000000000002 7 106.03393173217775 1.5000000000000002 5.5000000000000009 2.1219869852066044 97.055000305175795 1.0000000180025095e-35 1.5000000000000002 -1.4999999999999998 5.5000000000000009 11.500000000000002 6.5000000000000009 16.082321166992191 2.4370589256286626 8 9 700.50000000000011 0.5892857313156129 10 8.9030895233154315 11 39.018999099731452 8.0776262283325213 11.500000000000002 12 18.986499786376957 93.957855224609389 -1.4999999999999998 10.256289005279543 13 22.232142448425297 11.500000000000002 14 10.490107059478762 15 5.0089998245239267 16 10.145263671875002 1.0000000180025095e-35 14.831254005432131 4.5000000000000009 17 2.3495744466781621 18 6.5000000000000009
decision_type=2 2 2 2 2 9 2 9 2 9 10 9 1 10 9 9 2 9 2 2 2 10 2 2 2 2 2 2 2 2 8 9 9 10 2 9 2 9 2 10 2 9 2 2 2 10 9 2 2 9 10 9 2 9 10 2 10 2 9 2 9 2
left_child=2 5 4 11 10 31 9 8 13 60 16 54 -12 30 -5 -9 -1 -18 19 22 -21 53 -19 38 25 -25 -26 -28 -29 56 47 50 -23 -20 -6 -24 37 -13 41 -17 49 43 45 -8 -45 51 -11 -7 -39 -32 52 -36 -2 -22 -4 -31 -16 -53 59 -59 -3 -55
right_child=1 6 3 14 34 7 23 15 -10 46 12 36 -14 -15 29 39 17 18 33 20 21 32 35 24 26 -27 27 28 -30 55 40 -33 -34 -35 42 -37 -38 48 -40 -41 -42 -43 -44 44 -46 -47 -48 -49 -50 -51 -52 57 -54 61 -56 -57 -58 58 -60 -61 -62 -63
leaf_value=-0.080576600157668682 -0.11351943890951997 0.016184179557904889 -0.024860587449438466 -0.0098716803686452314 -0.0049027067529111906 0.0035309560868015178 0.14011314553424498 -0.021522962774527834 0.037485927607407765 0.027291428538614063 -0.040341813080957051 -0.00404536425225277 0.083440300446191246 0.015347885250915017 -0.0051760212071168439 0.00020816208659191204 -0.080576600157668682 -0.085948980089021992 -0.054055829087162249 -0.080576600157668682 -0.080576600157668682 -0.051777077570011709 0.011457147372871368 0.095839993353734124 0.10117277737416318 -0.080576600157668682 0.10078195797100814 -0.089108372745474118 0.11581472609410191 -0.11973992595846278 0.0063107457517012529 0.022127098781817556 0.023824833343453568 0.0068733895656649226 -0.053004467336548358 -0.034336206541367376 -0.01216945646815968 -0.02070012558295431 0.096396715847210462 0.013197188242382986 0.017019157129282127 0.11660564223454895 0.01032062804705023 0.1336722008295825 -0.15582171468858844 -0.013737430333819045 0.029467485003298557 0.011241014071906898 -0.0085414742465223844 0.0011143531663416085 0.036794394984877812 -0.042643524426655276 0.021865675738390978 -0.080576600157668682 -0.010438064450491081 0.0033494686912765915 0.0099130041009147137 0.010479250714026556 -0.032319517856804758 -0.090189703651315387 0.0098389359085727553 -0.050471496894848249
leaf_weight=44410 81 2802 13790 5611 407 3310 387 1116 4325 8804 261 1452 263 3136 6622 7596 52014 399 158 7821 194 278 628 120 10521 442 2062 423 448 187 4311 9086 356 1005 10526 544 17474 13389 133100 939 858 815 113 172 243 786 10580 9364 1436 6297 956 5280 8448 2069 872 7236 335 96 30400 1062 896 2201
leaf_count=44410 81 2802 13790 5611 407 3310 387 1116 4325 8804 261 1452 263 3136 6622 7596 52014 399 158 7821 194 278 628 120 10521 442 2062 423 448 187 4311 9086 356 1005 10526 544 17474 13389 133100 939 858 815 113 172 243 786 10580 9364 1436 6297 956 5280 8448 2069 872 7236 335 96 30400 1062 896 2201
internal_value=0.00103222 0.0198122 -0.0179082 -0.00887667 -0.021739 0.00889666 0.0236128 0.00601643 0.00792841 0.0179772 -0.0234849 -0.0116131 -0.000572519 0.00654238 -0.00224976 -0.000245834 -0.023592 -0.0227522 -0.0182931 -0.0198102 -0.0213581 -0.0171146 -0.00708148 0.0244873 0.0218179 -0.013968 0.0233128 0.0177208 0.000717566 -0.00052467 0.0056628 0.0152831 0.00157729 0.000451419 -0.0176998 -0.0019198 -0.0100597 -0.0116867 0.0247651 0.00116735 0.0035191 0.0177335 -0.0178278 0.010468 0.00150602 -0.0178868 0.019671 0.00760218 -0.0125733 0.00279035 0.0129779 -0.0180411 0.0121556 -0.0197693 -0.0151718 0.00206453 -0.00328806 -0.0174134 -0.016945 -0.0101455 0.00902104 -0.0204907
internal_weight=461313 231638 229675 68404 161271 59823 171815 41252 31601 23082 112601 48413 524 27276 19991 9651 112077 67667 15653 14490 12919 5098 1571 148733 14016 562 13454 2933 871 14380 24140 18571 634 1163 48670 1172 33751 16277 134717 8535 11466 1617 48263 802 415 48150 19384 12674 14825 10608 9485 47364 8529 4464 14662 7423 6957 36838 31558 1158 3698 4270
internal_count=461313 231638 229675 68404 161271 59823 171815 41252 31601 23082 112601 48413 524 27276 19991 9651 112077 67667 15653 14490 12919 5098 1571 148733 14016 562 13454 2933 871 14380 24140 18571 634 1163 48670 1172 33751 16277 134717 8535 11466 1617 48263 802 415 48150 19384 12674 14825 10608 9485 47364 8529 4464 14662 7423 6957 36838 31558 1158 3698 4270
cat_boundaries=0 2 4 6 8 9 11 13 15 17 18 20 22 24 26 27 29 31 33 35
cat_threshold=537468928 69880 3239055369 40960 2954433032 98305 1386217476 35268 356 4604680 5 180736 5 311249984 67777 537460736 64 1077936128 1610646273 9216 537133329 9217 2415951872 1024 1073758209 9344 17825793 281102401 129 8192 32768 536911890 32832 2684944384 65536
is_linear=0
shrinkage=0.05


Tree=12
num_leaves=63
num_cat=28
split_feature=17 13 17 17 20 7 17 4 0 0 0 7 8 7 7 7 8 7 0 7 0 7 8 7 0 0 8 0 0 8 0 8 17 8 30 7 4 17 8 8 0 15 5 1 4 30 26 1 4 33 8 7 8 7 8 1 8 22 7 4 7 7
split_gain=63755.5 3685.09 3444.38 532.921 455.489 399.564 322.437 185.185 171.787 159.091 140.669 139.604 132.655 129.491 111.061 109.819 99.2659 90.4108 85.295 262.306 80.9417 316.017 81.5535 70.217 102.368 69.6033 88.604 69.1778 67.7266 65.0221 61.9116 346.354 86.4032 57.4128 84.4833 55.9572 52.2873 49.4462 49.314 48.8797 47.9124 45.0442 44.9881 119.806 65.2223 65.9698 44.4905 227.367 69.8899 43.2842 40.0024 39.8588 37.9031 37.0723 36.3335 34.9043 34.7274 33.6951 38.5791 33.2672 32.9592 32.6015
threshold=19.215499877929691 61.128499984741218 4.5000000000000009 10.449271678924562 1.4690352678298952 0 122.23514556884767 1.0000000180025095e-35 4.5000000000000009 3.5000000000000004 3.5000000000000004 1 2 3 4 5 6 7 5.5000000000000009 8 5.5000000000000009 9 10 11 4.5000000000000009 5.5000000000000009 12 4.5000000000000009 4.5000000000000009 13 5.5000000000000009 14 51.722856521606452 15 93.957855224609389 16 1.0000000180025095e-35 50.292785644531257 17 18 4.5000000000000009 386.41799926757818 1.0000000180025095e-35 1.5000000000000002 1.0000000180025095e-35 69.002861022949233 5.5000000000000009 24.500000000000004 1.0000000180025095e-35 28.500000000000004 19 20 21 22 23 21.500000000000004 24 2.4370589256286626 25 1.0000000180025095e-35 26 27
decision_type=2 2 2 2 2 9 2 2 2 2 2 9 9 9 9 9 9 9 2 9 2 9 9 9 2 2 9 2 2 9 2 9 2 9 2 9 2 2 9 9 2 2 2 2 2 2 2 2 2 2 9 9 9 9 9 2 9 8 9 2 9 9
left_child=2 5 4 8 7 12 14 -1 29 13 11 -5 28 37 -3 20 -9 54 60 -20 22 59 -11 24 38 39 -27 -6 -2 -4 32 36 53 34 -8 -13 49 57 -12 -25 61 -36 -35 44 45 -44 -45 -48 -49 -32 -17 -29 -23 -14 -10 -43 -39 -7 -59 -22 -16 -24
right_child=1 6 3 10 27 9 33 16 17 15 23 35 30 -15 18 50 -18 -19 19 -21 21 52 40 25 -26 26 -28 51 -30 -31 31 -33 -34 42 41 -37 -38 56 -40 -41 -42 55 43 46 -46 -47 47 48 -50 -51 -52 -53 -54 -55 -56 -57 -58 58 -60 -61 -62 -63
leaf_value=-0.076547770149785255 -0.0077459546206844372 0.014631825609271211 -0.02645903489421968 0.0043026030637771219 -0.04055348649270505 0.0063332920805185162 0.11660580682860995 -0.045981864683745238 0.0021821455538267201 0.032946632542804742 0.015155952573756038 -0.017367904212033481 0.011741092636687968 -0.0097769260391606938 0.021028626287902474 0.024158737891174377 0.090691634369701735 -0.0043474997130259927 -0.015089098364585675 0.033575860835165228 -0.11190989625262354 0.028682216632481917 0.011990691990064273 0.017778827422486664 0.011672963113765556 -0.0015545659546608249 -0.050438553712701006 -0.031637797902035712 0.025992756601539681 -0.018531739528044579 -0.1242677620154633 0.030459658529330538 0.030646824828644559 0.090114468174356782 0.085802370891659319 -0.007564047340888203 0.037107761187939306 0.029312551361925412 -0.014079485715111174 -0.001335795059192302 0.016976100333737622 -0.15047420391617894 -0.076547770149785255 0.091720950398441262 0.1270319555139503 0.066219449028964969 0.094602146380746321 -0.073303331420801018 0.11613153120327535 0.050141063076435399 -0.0028785757688538417 -0.018986563036847117 0.006360727096370933 0.018986758359084477 -0.018500776371957794 0.12634171413079839 0.011422247895637351 0.013283553154852801 -0.00074413508739334944 0.016899325226448027 0.02969852024953681 -0.0037148374645104899
leaf_weight=111898 1337 2755 14960 3109 32565 7867 5764 284 491 5132 401 5660 3601 4521 6459 589 419 6306 783 1710 1010 1902 498 577 3651 1608 1102 7783 518 15270 818 2140 9623 129939 367 9509 98 596 1371 4860 1501 283 346 9555 300 377 2241 461 112 50 2405 5215 1076 5482 5172 116 1270 898 5110 86 8416 990
leaf_count=111898 1337 2755 14960 3109 32565 7867 5764 284 491 5132 401 5660 3601 4521 6459 589 419 6306 783 1710 1010 1902 498 577 3651 1608 1102 7783 518 15270 818 2140 9623 129939 367 9509 98 596 1371 4860 1501 283 346 9555 300 377 2241 461 112 50 2405 5215 1076 5482 5172 116 1270 898 5110 86 8416 990
internal_value=0.00113713 0.0198508 -0.0173259 -0.00842607 -0.0214926 0.00909791 0.0235905 -0.0231994 -0.0121111 0.00573376 -0.00354339 -0.00640661 0.0141287 0.00283536 0.0176477 0.00960399 0.00238265 -0.00704111 0.0191276 0.0105796 0.0117063 0.00596465 0.014601 0.000313191 0.00471655 -0.00262045 -0.00916974 -0.0172744 0.00124665 -0.0141184 0.0152232 0.00869285 0.0163156 0.0243884 0.0196177 -0.00838165 -0.0160861 0.00497587 -0.00513544 0.000639139 0.00794431 0.004047 0.0246027 0.0218451 0.00540078 -0.00273167 0.0232052 0.0176795 -0.0104276 -0.0201613 0.000998668 -0.0141906 0.0143909 0.0128179 -0.0116208 -0.00758145 0.0126206 0.00395135 0.00113182 -0.0169078 0.0205731 0.0016129
internal_weight=461313 229102 232211 74047 158164 59118 169984 112601 42199 35451 31848 18278 23667 20262 20123 15189 703 11969 17368 2493 12195 4074 8121 13570 5423 8147 2710 45563 1855 30230 21812 3106 18706 149861 6530 15169 966 15741 1772 5437 2989 766 143331 13392 1023 723 12369 2814 573 868 2994 12998 2978 9083 5663 399 1866 13875 6008 1096 14875 1488
internal_count=461313 229102 232211 74047 158164 59118 169984 112601 42199 35451 31848 18278 23667 20262 20123 15189 703 11969 17368 2493 12195 4074 8121 13570 5423 8147 2710 45563 1855 30230 21812 3106 18706 149861 6530 15169 966 15741 1772 5437 2989 766 143331 13392 1023 723 12369 2814 573 868 2994 12998 2978 9083 5663 399 1866 13875 6008 1096 14875 1488
cat_boundaries=0 2 4 5 7 9 11 13 15 17 18 20 22 24 25 26 27 29 31 32 33 35 37 39 40 41 42 44 45
cat_threshold=537468928 78072 1611726849 65 524296 3243249673 32768 2954433024 99329 3507752968 33792 70254661 1 3500294149 2497 1 8192 268439552 4229120 1 2970882304 42049 69828608 1 2292203541 4194304 1078198336 46400266 1028 4237312 1 4194304 805830656 1356942401 385 67700736 1 537395200 64 541165568 805306368 1 1073750080 4224 1048576
is_linear=0
shrinkage=0.05


Tree=13
num_leaves=63
num_cat=24
split_feature=17 17 13 19 19 19 7 0 4 0 19 7 7 13 7 0 7 8 0 8 28 0 7 7 0 7 8 3 7 31 2 8 0 0 8 8 0 4 7 2 21 7 7 8 7 5 2 1 26 1 2 21 7 33 8 6 7 19 19 1 7 30
split_gain=62123.2 3659.84 3623.35 631.627 479.833 374.192 360.101 206.219 193.111 143.451 130.859 119.857 110.964 109.093 108.627 102.866 325.08 112.795 90.1945 313.002 90.1373 86.2093 147.901 118.318 83.8664 264.113 81.381 70.9164 172.353 147.159 141.681 92.0157 69.2552 66.6358 62.1706 58.6781 55.9473 51.5422 49.7222 48.5012 83.0748 78.238 47.6049 47.5204 45.8929 45.729 297.107 77.4997 46.5582 236.487 121.773 45.5199 42.4073 41.1777 40.3926 113.938 39.3737 38.2604 38.0254 37.8593 36.8119 36.6463
threshold=19.755499839782718 4.0714285373687753 61.128499984741218 12.977053642272951 1.3750000000000002 127.9381446838379 0 4.5000000000000009 1.0000000180025095e-35 3.5000000000000004 40.232250213623054 1 2 5.0089998245239267 3 5.5000000000000009 4 5 5.5000000000000009 6 2622.5000000000005 4.5000000000000009 7 8 5.5000000000000009 9 10 2013.5000000000002 11 106.03393173217775 1.5000000000000002 12 5.5000000000000009 4.5000000000000009 13 14 4.5000000000000009 1.0000000180025095e-35 15 5.5000000000000009 1.0000000180025095e-35 16 17 18 19 1.0000000180025095e-35 1.5000000000000002 1.5000000000000002 5.5000000000000009 24.500000000000004 11.500000000000002 188.50000000000003 20 28.500000000000004 21 93.909999847412124 22 54.21119689941407 22.232142448425297 17.500000000000004 23 103.07428359985353
decision_type=2 2 2 2 2 2 9 2 2 2 2 9 9 2 9 2 9 9 2 9 8 2 9 9 2 9 9 2 9 2 2 9 2 2 9 9 2 2 9 2 8 9 9 9 9 2 2 2 2 2 2 8 9 2 9 2 9 2 2 2 9 2
left_child=1 4 6 7 8 11 10 26 13 14 33 -4 -9 27 38 17 -17 -11 42 37 -10 22 -5 32 60 -26 44 -1 -29 30 31 -30 -23 34 -2 -31 -6 53 57 61 41 -41 -12 -34 -3 54 47 -47 -48 -50 -51 -40 -24 -20 55 -7 -14 -8 -19 -57 -13 -32
right_child=2 3 5 21 36 45 9 12 20 15 18 24 56 -15 -16 16 -18 58 19 -21 -22 23 52 -25 25 -27 -28 28 29 35 39 -33 43 -35 -36 -37 -38 -39 51 40 -42 -43 -44 -45 -46 46 48 -49 49 50 -52 -53 -54 -55 -56 59 -58 -59 -60 -61 -62 -63
leaf_value=-0.072720381642295981 -0.0010594094362166519 -0.019390503200931098 0.013943100271414611 0.006059152340989438 -0.037303960725258815 0.11382241607459648 0.010362298764285627 -0.020312493045476623 -0.029813362509143404 0.0487173640269895 0.016788040615854437 0.020457853139833684 0.0052705862365480362 0.00041240295234469261 -0.0093087151259509514 0.019902330655727843 -0.062686660964882415 0.0040361774432678297 -0.11781462800645943 0.032335575080016721 0.1311502113266669 0.0043658144762450894 -0.012892673821163814 0.010502117449180127 -0.015211575010486245 0.03248624282270534 -0.024447880784633516 -0.072720381642295981 -0.077824142577081631 0.024006759423989985 -0.072720381642295981 0.00847288729309832 -0.00074185732296371269 0.022017207162411491 0.010440876500637809 -0.023706721391730558 -0.025752567001483786 0.035252373128542347 0.0057632047463653359 -0.078350605384848518 -0.072720381642295981 0.023275710011607942 0.034744330601053863 -0.049452384897427183 -0.011308476924721922 -0.072720381642295981 0.091545217438455728 0.086461946166125347 0.09238195715450255 0.094567048206191426 -0.08098778753716035 -0.0015586673628260163 -0.0047610461817209297 0.047634009922613622 0.085962963248610136 -0.14050691875835006 -0.0065621293498163485 0.028633950204595072 0.012645629844803986 0.12032409795484092 0.028904320720544788 -0.055557903457992254
leaf_weight=44340 2393 13431 3025 4653 28273 4708 1690 3957 398 3341 6125 6690 1493 495 4300 2911 1976 2155 777 1522 294 1419 4855 3987 823 1803 18898 54491 539 492 6893 885 562 1793 2158 479 11285 98 9240 672 3850 413 8591 852 7327 442 10521 120 2339 171 423 3763 7571 50 129474 306 10274 507 4238 229 8887 646
leaf_count=44340 2393 13431 3025 4653 28273 4708 1690 3957 398 3341 6125 6690 1493 495 4300 2911 1976 2155 777 1522 294 1419 4855 3987 823 1803 18898 54491 539 492 6893 885 562 1793 2158 479 11285 98 9240 672 3850 413 8591 852 7327 442 10521 120 2339 171 423 3763 7571 50 129474 306 10274 507 4238 229 8887 646
internal_value=0.00121431 -0.0168917 0.0198084 -0.00815884 -0.0213744 0.023482 0.00897394 -0.0110906 -0.0230098 0.00568764 0.0137358 0.017272 -0.00624523 -0.0231694 0.00288205 0.00943335 0.00351443 0.012405 0.0160097 0.00712096 0.0033237 -0.00136512 -0.00326278 0.0033871 0.0188039 0.0105484 -0.0130119 -0.0232713 -0.0222729 -0.0174424 -0.0187689 -0.00382725 -0.00442314 0.00760561 0.00438915 0.00136457 -0.016625 -0.0157487 0.00486522 -0.0204746 -0.0166211 -0.00440092 0.0174878 -0.0122702 -0.0108268 0.0243683 0.0216503 -0.013968 0.0231381 0.0175673 -0.0106061 0.00368286 -0.00610727 -0.0199819 0.0246511 0.020098 -0.00379766 0.0118147 0.00846869 -0.00172897 0.0202077 -0.0229971
internal_weight=461313 233724 227589 79279 154445 169961 57628 55380 114887 34121 23507 21228 15724 114195 19500 14621 4887 9734 17163 2447 692 23899 17079 6820 18203 2626 39656 113700 69360 14869 13898 1424 2833 6344 4551 971 39558 925 15200 12474 4935 1085 14716 1414 20758 148733 14016 562 13454 2933 594 13003 12426 827 134717 5243 11767 2197 6393 535 15577 7539
internal_count=461313 233724 227589 79279 154445 169961 57628 55380 114887 34121 23507 21228 15724 114195 19500 14621 4887 9734 17163 2447 692 23899 17079 6820 18203 2626 39656 113700 69360 14869 13898 1424 2833 6344 4551 971 39558 925 15200 12474 4935 1085 14716 1414 20758 148733 14016 562 13454 2933 594 13003 12426 827 134717 5243 11767 2197 6393 535 15577 7539
cat_boundaries=0 2 4 6 8 10 11 12 14 16 18 20 22 24 25 26 27 28 30 32 34 36 37 39 41
cat_threshold=537468928 78072 2954433024 65537 1344290821 2432 3243249673 32768 3239313672 33792 4196352 4194304 1611730945 64 1078088209 1 1 8192 608806976 1 313347136 100545 2155872256 1 532480 1141407744 1 1077936128 537395200 65664 98304 1 1082524418 33856 410376 1029 1078198272 537133312 9221 1073766400 38016
is_linear=0
shrinkage=0.05


Tree=14
num_leaves=63
num_cat=23
split_feature=17 19 17 19 19 8 0 20 9 0 4 9 0 0 8 12 8 8 8 17 28 0 8 0 8 4 12 4 0 0 12 12 5 2 1 8 26 1 2 2 8 18 8 9 8 9 2 24 2 1 9 2 22 22 14 22 4 2 8 2 12 10
split_gain=59772.4 3701 3567.56 787.939 398.985 264.686 236.032 233.94 196.577 189.591 186.494 164.751 140.164 113.997 108.537 102.817 99.9763 95.8967 85.0313 84.4686 81.1729 68.8393 67.5672 66.0503 73.144 59.8787 58.9406 49.0457 57.04 105.296 77.2042 48.6957 47.6615 264.054 82.727 46.5418 45.3776 221.37 118.158 45.3161 228.343 44.9627 62.5175 41.8582 40.0545 38.7059 37.788 36.9019 35.4201 35.7519 34.6171 33.0434 41.1052 34.3473 47.8254 32.4242 31.9778 31.2934 113.542 30.2779 37.3775 29.1996
threshold=19.755499839782718 80.125000000000014 2.5000000000000004 11.43096446990967 33.964284896850593 0 5.5000000000000009 1.2277112603187563 1 4.5000000000000009 1.0000000180025095e-35 2 4.5000000000000009 3.5000000000000004 3 4 5 6 7 127.0178565979004 2622.5000000000005 3.5000000000000004 8 5.5000000000000009 9 1.0000000180025095e-35 10 1.5000000000000002 3.5000000000000004 5.5000000000000009 11 12 1.0000000180025095e-35 1.5000000000000002 1.5000000000000002 13 5.5000000000000009 24.500000000000004 11.500000000000002 1.5000000000000002 14 0.55593636631965648 15 16 17 18 11.500000000000002 -1.0000000180025095e-35 11.500000000000002 17.500000000000004 19 2.5000000000000004 7.1304101943969735 3.8916244506835942 554.33648681640636 7.9933395385742196 1.0000000180025095e-35 8.5000000000000018 20 1.5000000000000002 21 22
decision_type=2 2 2 2 2 9 2 2 1 2 2 1 2 2 9 1 9 9 9 2 8 2 9 2 9 2 1 2 2 2 1 1 2 2 2 9 2 2 2 2 9 2 9 1 9 1 2 2 2 2 1 2 10 10 2 8 2 2 9 2 1 1
left_child=2 4 7 9 12 6 15 10 25 17 39 27 22 16 -11 21 31 48 61 -7 -12 -3 59 -20 -25 -8 -13 28 -6 -30 -31 -5 -21 34 -34 57 -35 -38 -39 40 47 -41 -43 -19 -15 -18 -24 -1 -4 -50 -16 53 -53 -17 -55 -10 -28 -9 -59 60 -2 -14
right_child=1 5 3 13 11 19 8 35 55 14 20 26 18 44 50 51 45 43 23 32 -22 -23 46 24 -26 -27 56 -29 29 30 -32 -33 33 36 -36 -37 37 38 -40 41 -42 42 -44 -45 -46 -47 -48 -49 49 -51 -52 52 -54 54 -56 -57 -58 58 -60 -61 -62 -63
leaf_value=0.020121285961125793 -0.026945379824535133 0.0061790745647597681 -0.018171623695338035 0.0039072808326668486 -0.00034769991505845255 0.024034730360860613 -0.1076151185934813 -0.05013454133246148 0.12643066721983037 -0.0045551095898473505 -0.028322694383686231 0.023006999540697362 0.021925285306279674 0.005169782736184958 -0.0045993566748232743 0.062659687325811619 -0.015624083497140673 -0.010805969226622259 0.014512206095781788 0.081796016830259222 0.12478955106016876 0.084522070267785576 -0.0032856047817807822 0.0039737085087260702 -0.10362368561140428 0.036498188336808936 0.017119088300534768 0.032678245729802227 0.038241828011192282 0.01795250913839639 -0.098616304606067975 -0.0046900933661306434 -0.069084362560181189 0.084337182903012134 0.082422900752960715 -0.046481956267715945 0.085463083339603951 0.089838695795881843 -0.076938398160302346 -0.069084362560181189 -0.069084362560181189 0.014997816447964885 -0.069084362560181189 -0.026888615804162422 -0.0019466494467020091 -0.0084324551158721176 0.008459192152948115 -0.090487426895811643 -0.011726959464741716 0.0055980084249162678 -0.017027110211041408 0.079295311275662306 0.10688395570227525 0.028916386268734742 -0.22447198837643734 -0.11345265652768662 0.025650476562594473 -0.028768279656859741 0.015297009339277023 0.0059809752838878129 0.0026809980402874079 0.0025870077127656769
leaf_weight=639 327 1215 17858 3477 3181 9703 811 7794 794 7168 317 8211 3508 5901 1707 1307 4564 2600 2196 129359 288 615 5742 1734 445 82 16285 657 1620 307 561 4985 410 9959 111 18682 2222 167 404 81301 5378 156 16985 27214 6734 3986 908 76 1138 790 10855 7135 291 147 121 122 2977 2558 573 12921 742 292
leaf_count=639 327 1215 17858 3477 3181 9703 811 7794 794 7168 317 8211 3508 5901 1707 1307 4564 2600 2196 129359 288 615 5742 1734 445 82 16285 657 1620 307 561 4985 410 9959 111 18682 2222 167 404 81301 5378 156 16985 27214 6734 3986 908 76 1138 790 10855 7135 291 147 121 122 2977 2558 573 12921 742 292
internal_value=0.00139704 0.0196359 -0.0163631 -0.00915541 0.00928626 0.023564 0.0165534 -0.0216574 -0.000152018 -0.0120727 -0.022763 0.0129715 0.00496356 -0.00233329 -0.00792701 0.0193588 -0.00500529 -0.0137218 0.0105046 0.0241431 0.00491736 0.00839674 0.0027689 0.00570696 -0.000447453 -0.0167497 0.0146463 0.00566604 0.00417622 0.00984727 -0.00420507 -0.00114495 0.0244517 0.0215984 -0.0132917 -0.0177314 0.0230238 0.0173917 -0.0103765 -0.0229232 -0.0187387 -0.0231822 -0.020855 -0.0155211 0.00126435 -0.00881425 -0.00138138 0.00782759 -0.0109972 -0.00456432 -0.0107262 0.0215542 0.0229733 0.015 -0.00130597 0.0160367 0.0131071 -0.0150594 -0.0108512 0.00473929 -0.00334425 0.0159711
internal_weight=461313 227589 233724 98977 62614 164975 12640 134747 1809 69330 105140 33799 28815 29647 19730 10831 17012 49600 8175 152335 605 1830 20640 4375 2179 893 27473 6326 5669 2488 868 8462 142632 13273 521 29607 12752 2793 571 104535 6093 98442 17141 29814 12635 8550 6650 715 19786 1928 12562 9001 7426 1575 268 916 19262 10925 3131 13990 1069 3800
internal_count=461313 227589 233724 98977 62614 164975 12640 134747 1809 69330 105140 33799 28815 29647 19730 10831 17012 49600 8175 152335 605 1830 20640 4375 2179 893 27473 6326 5669 2488 868 8462 142632 13273 521 29607 12752 2793 571 104535 6093 98442 17141 29814 12635 8550 6650 715 19786 1928 12562 9001 7426 1575 268 916 19262 10925 3131 13990 1069 3800
cat_boundaries=0 1 2 3 4 5 7 8 10 12 13 14 15 16 17 18 19 20 22 23 24 25 26 27
cat_threshold=1078206464 257 85248 618235908 32772 603990080 1 743024704 1409879040 1 1883546624 1 539009024 15432 4192 4355 1210949697 1208778816 134283328 2097156 608700416 1 268432 2097172 2162689 16384 37952
is_linear=0
shrinkage=0.05


Tree=15
num_leaves=63
num_cat=20
split_feature=19 13 20 19 19 13 19 13 4 0 0 19 0 0 12 9 19 0 12 9 9 19 9 9 12 0 12 11 12 0 9 12 0 12 4 13 0 5 2 1 26 1 2 2 27 12 9 13 19 11 20 2 12 0 9 4 19 33 22 20 16 9
split_gain=57826.4 4326.66 3280.88 665.464 382.452 355.035 225.521 197.713 171.658 150.518 137.98 133.643 120.683 98.4295 229.939 117.556 97.7615 97.0559 137.411 94.4444 86.5675 85.1655 81.8637 71.5138 70.3381 65.3156 251.766 62.6054 60.5907 77.6676 74.1102 59.819 57.6185 56.8656 56.4858 50.489 50.3258 48.2719 278.975 77.831 47.3341 231.447 115.307 45.8857 155.297 45.5859 44.5675 42.1723 45.5084 42.1694 39.5819 39.5818 36.6732 36.2168 33.7403 33.5204 32.6014 32.511 31.091 31.0578 29.9251 28.8222
threshold=18.803571701049808 65.066501617431655 1.719018876552582 8.9030895233154315 137.55766296386722 20.055500030517582 46.362392425537116 1.0000000180025095e-35 1.0000000180025095e-35 4.5000000000000009 4.5000000000000009 0.98214286565780651 3.5000000000000004 5.5000000000000009 0 1 1.0000000180025095e-35 5.5000000000000009 2 3 4 14.04303550720215 5 6 7 5.5000000000000009 8 9 10 5.5000000000000009 11 12 4.5000000000000009 13 1.0000000180025095e-35 4.1100001335144052 5.5000000000000009 1.0000000180025095e-35 1.5000000000000002 1.5000000000000002 5.5000000000000009 24.500000000000004 11.500000000000002 1.5000000000000002 1.0000000180025095e-35 14 15 2.3999999761581425 0.33928571641445165 16 7.7369520664215097 11.500000000000002 17 3.5000000000000004 18 1.0000000180025095e-35 31.321429252624515 28.500000000000004 2.5569161176681523 78.119537353515639 88.683502197265639 19
decision_type=2 2 2 2 2 2 2 2 2 2 2 2 2 2 1 1 2 2 1 1 1 2 1 1 1 2 1 1 1 2 1 1 2 1 2 2 2 2 2 2 2 2 2 2 8 1 1 2 2 1 2 2 1 2 1 2 2 2 8 2 2 1
left_child=2 5 8 9 20 7 32 -2 11 35 21 43 31 15 34 53 -10 24 -19 55 -3 61 -11 -16 -14 45 -27 -23 46 49 -31 -9 56 36 57 -4 -34 60 39 -39 -40 -42 -43 44 -1 -22 -12 -45 -49 -30 -37 58 -24 59 -46 -20 -7 -15 -33 -8 -6 -5
right_child=1 4 3 10 37 6 13 12 16 22 28 -13 17 14 23 -17 -18 18 19 -21 25 27 52 -25 -26 26 -28 -29 29 30 -32 51 33 -35 -36 50 -38 38 40 -41 41 42 -44 47 54 -47 -48 48 -50 -51 -52 -53 -54 -55 -56 -57 -58 -59 -60 -61 -62 -63
leaf_value=0.0049515627951786994 -0.099701283107121882 0.012717887130835815 -0.02995944426354398 -0.0065923368116661109 0.060632544261014588 0.004073720994032826 0.011728870691220195 0.01197595258458839 0.11519864738258756 -0.021799412459279077 -0.0018917277814562762 -0.033873726669417271 0.039488688032775235 -0.10522200415323338 -0.099632841389603669 0.029697592900149308 -0.030852686416561872 0.018235227683176293 -0.093685489375764583 0.012704634846165153 0.018249471124444173 0.0018798942621801374 -0.0032086898522117103 0.029441368695014458 0.0087397754632388743 -0.015749890677280665 0.028709034447908025 -0.0086713424088843642 0.013160391847931364 0.0026660035013175154 -0.02748606576840347 0.002504550922411797 0.020093659030464152 0.016669739428951915 0.0298493392800145 -0.021192075515835729 -0.022450231934448485 -0.065630144432172133 0.086013396178220181 0.077477874089183496 0.082588230297196488 0.11150961201273515 -0.07309147825228722 -0.065630144432172133 0.0086162197298192741 0.024957464348426408 0.0090887536784570507 0.0069286000314291996 -0.038552980617098914 -0.0038313245068772096 -0.0059989988098967167 0.011202905654733919 -0.010792692141030314 0.024416710632628694 -0.065630144432172133 0.023867471417336084 0.010725428757397883 0.041494417101189868 -0.0047453291665168875 -0.005675958326160125 0.080740616928687642 -0.016659477766841558
leaf_weight=714 1677 2137 29716 5440 2473 9740 4339 2017 365 11511 1912 14329 3133 848 148 9429 399 1383 1179 609 6005 4195 3734 1627 3268 850 1827 6556 1392 1021 2308 4126 684 4537 123 19795 676 419 10246 115 2261 173 417 96380 111 10621 2722 304 945 1904 1077 1015 4978 2469 5277 76 4987 52 5756 672 129987 11857
leaf_count=714 1677 2137 29716 5440 2473 9740 4339 2017 365 11511 1912 14329 3133 848 148 9429 399 1383 1179 609 6005 4195 3734 1627 3268 850 1827 6556 1392 1021 2308 4126 684 4537 123 19795 676 419 10246 115 2261 173 417 96380 111 10621 2722 304 945 1904 1077 1015 4978 2469 5277 76 4987 52 5756 672 129987 11857
internal_value=0.00147269 0.0190595 -0.0163568 -0.0101391 0.0232976 0.00806334 0.0109376 0.00328087 -0.0221188 -0.0130351 -0.00492215 -0.0222717 0.00451201 0.0147625 0.00607577 0.0162 0.00150524 0.00874274 0.00170157 -0.00715048 0.0170616 -0.00679906 -0.00938906 0.0169048 0.0123145 0.0181186 0.0108797 -0.00330434 -0.000246469 -0.00331198 -0.00870381 0.00135125 0.00728278 0.0114592 -0.0127541 -0.0144926 0.00240876 0.0242128 0.0213796 -0.0140449 0.0228239 0.0171256 -0.0107627 -0.022897 -0.0186906 0.0192951 0.00413437 -0.0231599 -0.0140312 0.00212379 -0.0126078 -0.000116897 -0.0057097 0.0114619 -0.0215943 -0.0149605 0.00561044 -0.0172222 -0.00108278 0.00903512 0.0245044 -0.00897121
internal_weight=461043 232101 228942 110118 167531 64570 40331 24239 118824 70811 39307 118060 22562 19707 2798 16909 764 9648 3247 1864 21440 28048 20223 1775 6401 19303 2677 10751 11259 6625 3329 12914 20624 5897 1023 50588 1360 146091 13631 534 13097 2851 590 103731 6102 16626 4634 97629 1249 3296 20872 10897 8712 7480 5388 1255 14727 900 9882 5011 132460 17297
internal_count=461043 232101 228942 110118 167531 64570 40331 24239 118824 70811 39307 118060 22562 19707 2798 16909 764 9648 3247 1864 21440 28048 20223 1775 6401 19303 2677 10751 11259 6625 3329 12914 20624 5897 1023 50588 1360 146091 13631 534 13097 2851 590 103731 6102 16626 4634 97629 1249 3296 20872 10897 8712 7480 5388 1255 14727 900 9882 5011 132460 17297
cat_boundaries=0 1 2 3 4 5 6 7 8 9 10 11 12 13 14 15 16 17 18 19 20
cat_threshold=61442 232800 9571 263424 101664 1051588 256 50246 45056 8 8230 2117649 37952 53248 34624 261 4 24873 131088 2327052
is_linear=0
shrinkage=0.05


Tree=16
num_leaves=63
num_cat=25
split_feature=17 17 19 17 19 7 4 7 20 0 19 0 7 3 31 7 0 7 7 8 9 8 0 7 7 7 2 8 7 0 0 7 7 8 6 19 2 8 31 0 8 8 24 8 27 2 21 21 2 7 7 4 19 7 23 2 26 26 2 26 8 24
split_gain=56215.4 3946.3 3810.2 734.194 384.938 328.605 212.897 199.968 195.149 167.999 161.756 126.329 107.222 100.057 139 151.954 99.9358 354.884 99.445 97.3528 85.1993 80.3295 79.6509 92.9694 76.9398 75.9707 132.021 140.419 71.5179 66.4526 92.2857 65.8708 54.7843 53.0028 61.2284 124.195 51.6783 56.9592 130.828 48.8406 61.7924 48.6326 49.7532 48.4171 47.6977 47.3528 45.7399 44.7422 40.9689 39.4647 39.4597 36.6525 35.8226 34.7766 34.547 128.414 113.05 47.6712 113.552 186.686 31.8283 30.1291
threshold=19.755499839782718 1.928571403026581 75.892856597900405 9.9285712242126483 153.86393737792972 0 1.0000000180025095e-35 1 1.2703354954719546 4.5000000000000009 16.544268608093265 3.5000000000000004 2 2013.5000000000002 106.03393173217775 3 5.5000000000000009 4 5 6 7 8 4.5000000000000009 9 10 11 1.5000000000000002 12 13 5.5000000000000009 3.5000000000000004 14 15 16 93.075000762939467 431.91233825683599 5.5000000000000009 17 97.904285430908217 5.5000000000000009 18 19 -21.499999999999996 20 0.13934615999460223 11.500000000000002 1.6661100983619692 9.9052114486694354 6.5000000000000009 21 22 6.5000000000000009 0.62500000000000011 23 1.0000000180025095e-35 1.5000000000000002 -1.4999999999999998 5.5000000000000009 11.500000000000002 6.5000000000000009 24 -1.0000000180025095e-35
decision_type=2 2 2 2 2 9 2 9 2 2 2 2 9 2 2 9 2 9 9 9 1 9 2 9 9 9 2 9 9 2 2 9 9 9 2 2 2 9 2 2 9 9 2 9 10 2 10 10 2 9 9 2 2 9 2 2 2 2 2 2 9 2
left_child=1 6 5 9 7 32 8 29 13 19 22 12 -7 -1 25 -16 -9 47 -11 -3 -8 -17 23 -5 -24 -15 27 -27 46 30 -4 44 -2 34 -6 -36 -28 38 53 43 -41 -10 50 -26 -14 51 -13 -18 -40 -21 -43 -33 -44 -38 -35 56 -56 -57 -59 -60 -25 -29
right_child=2 3 4 10 33 11 20 16 41 18 -12 28 31 14 15 21 17 -19 -20 49 -22 -23 24 60 39 26 36 61 -30 -31 -32 45 -34 54 35 -37 37 -39 48 40 -42 42 52 -45 -46 -47 -48 -49 -50 -51 -52 -53 -54 -55 55 57 -58 58 59 -61 -62 -63
leaf_value=-0.06234863721056353 0.01492239366241428 -0.015946530274491822 0.0056649421631802315 1.9998904470064363e-05 0.059445946711109789 -0.011129893420652116 0.11356197478337066 0.023794164323305944 -0.052903611779406751 -0.0026560040075952474 0.0029118411361322982 0.014618797202161705 0.009157028626148955 -0.06234863721056353 -0.06234863721056353 -0.051036548232384842 -0.051768874434793513 0.028630294303688821 -0.014971813124206501 -0.010384868195439136 -0.019268216982696252 0.021623197976822994 0.0073134010395386586 -0.02159034887400817 0.015155403149236402 -0.06234863721056353 -0.06234863721056353 0.01881265973804257 0.0039306501877044544 -0.087893858958505558 0.066547383688902742 0.0019533440342360264 0.020775148570669279 0.082195844154152695 0.022452558975014504 -0.13052606031572914 -0.01443432326328189 -0.06234863721056353 -0.06234863721056353 -0.0017915264364328333 -0.049840410689276943 0.018636827116195298 0.0074266421848012245 -0.0046654057371447342 0.021266723103169394 0.013759992424383206 0.023001175870360338 0.034374705097573476 0.043336722917585002 -0.025416180805035306 -0.022386629939273064 0.032684557579566155 -0.059088658336881053 0.037365138496707764 0.09831236789682847 0.087133413263964385 -0.06234863721056353 0.08461531697607759 -0.069436904339672853 0.093842767942024757 -0.010689418750979663 -0.08985266752846327
leaf_weight=43652 17903 16557 1743 3919 9088 3430 340 20036 10504 5350 10656 9189 1683 37857 1113 265 992 2196 14792 2030 583 816 2522 1523 642 1267 10548 795 4334 444 858 13040 5424 117946 1799 445 352 7613 839 1417 1028 240 232 1754 761 1652 2178 83 55 31666 399 256 8780 379 195 9360 269 1491 368 387 12944 64
leaf_count=43652 17903 16557 1743 3919 9088 3430 340 20036 10504 5350 10656 9189 1683 37857 1113 265 992 2196 14792 2030 583 816 2522 1523 642 1267 10548 795 4334 444 858 13040 5424 117946 1799 445 352 7613 839 1417 1028 240 232 1754 761 1652 2178 83 55 31666 399 256 8780 379 195 9360 269 1491 368 387 12944 64
