tree
version=v4
num_class=1
num_tree_per_iteration=1
label_index=0
max_feature_idx=34
objective=quantile
feature_names=day_of_week day_of_month month year onpromotion is_holiday oil_price store_nbr family city state type cluster sales_lag_1 sales_lag_7 sales_lag_14 sales_lag_28 sales_ma_7 sales_std_7 sales_ma_28 sales_std_28 promo_intensity promo_lift is_holiday_resolved days_to_nearest_holiday is_payday days_to_nearest_payday family_share_of_store_sales transactions_lag_1 transactions_lag_7 oil_ma_7 oil_ma_28 earthquake_flag days_since_earthquake horizon_offset
feature_infos=[0:6] [1:31] [1:12] [2013:2017] [0:718] [0:1] [29.319999694824219:109.62000274658203] -1:41:15:51:24:0:10:45:16:3:53:34:13:50:25:1:39:6:43:20:35:52:11:31:8:38:48:47:22:28:32:33:17:44:42:27:5:40:7:37:19:2:30:46:4:9:12:36:18:14:23:29:21:26:49 -1:25:1:2:12:6:14:3:22:10:24:17:26:16:9:8:11:27:23:5:18:21:15:31:20:19:4:13:0:32:28:30:7:29 -1:18:8:21:3:14:13:10:0:20:2:5:15:19:11:17:6:12:1:7:9:16:4 -1:12:6:10:14:0:4:9:3:15:13:2:5:8:1:7:11 -1:3:2:0:1:4 -1:2:5:9:14:12:13:10:7:3:0:8:1:6:11:16:4:15 [0:124717] [0:63434] [0:46271] [0:63434] [0:29937.28515625] [0:47275.359375] [0:15127.7861328125] [0:25057.796875] [0:90636] [0:2532.371826171875] [0:1] [-38:39] [0:1] [-8:7] [0:0.5721595287322998] [10:8256] [357:8120] [28.618572235107422:110.04857635498047] [29.096071243286133:109.72714233398438] [0:1] [-1:106] [1:28]
tree_sizes=5828 6179 6208 6201 6179 6196 6259 6168 6202 6208 6246 6307 6277 6249 6207 6291 6270 6278 6280 6323 6301 6265 6285 6324 6268 6290 6227 6275 6334 6265 6272 6357 6293 6278 6296 6331 6317 6272 6349 6310 6417 6265 6370 6321 6305 6255 6331 6341 6378 6369 6397 6411 6352 6445 6389 6411 6434 6332 6367 6318 6300 6399 6354 6424 6408 6423 6370 6392 6395 6408 6407 6450 6361 6373 6410 6333 6371 6363 6391 6351 6434 6417 6363 6487 6347 6383 6406 6414 6421 6393 6373 6368 6432 6450 6414 6383 6427 6402 6459 6379 6469 6397 6409 6413 6382 6450 6430 6451 6431 6364 6493 6431 6396 6328 6528 6493 6344 6471 6454 6463 6378 6372 6388 6428 6560 6441 6506 6422

Tree=0
num_leaves=63
num_cat=12
split_feature=17 20 17 8 17 30 8 17 20 15 1 2 21 2 1 16 34 8 13 22 6 21 8 8 5 2 1 17 1 1 2 13 17 16 34 34 8 2 28 31 2 7 8 2 8 6 17 34 34 22 7 15 2 8 1 24 2 2 20 2 24 8
split_gain=1.55232e+06 38316.4 30494.1 7694.41 5917.16 5884.12 3048.25 2577.43 2143.54 1748.35 1634.54 1781.14 1517.32 1489.98 1450.98 1163.42 1155.1 1138.39 1114.22 1091.02 1396.6 986.187 1802.1 944.928 867.071 5628.67 1503.6 837.341 823.867 2605.68 4468.5 798.146 713.965 667.185 648.932 980.703 644.606 1457.62 2661.12 632.518 3086.02 1454.6 623.559 1133.64 605.055 584.046 582.087 574.271 798.784 569.972 554.765 495.72 490.954 486.006 478.708 464.608 435.327 2042.03 453.579 422.103 600.117 401.284
threshold=11.007214546203615 3.4225171804428105 19.575857162475589 0 7.3028569221496591 93.736431121826186 1 14.015142917633058 2.4157768487930302 6.0399999618530282 21.500000000000004 8.5000000000000018 1.0000000180025095e-35 1.5000000000000002 1.5000000000000002 5.0030000209808358 17.500000000000004 2 1.0000000180025095e-35 3.6263325214385991 50.010000228881843 0.22078755497932437 3 4 1.0000000180025095e-35 1.5000000000000002 1.5000000000000002 9.3205714225769061 24.500000000000004 25.500000000000004 11.500000000000002 20.013000488281254 5.5715715885162362 5.0030000209808358 26.500000000000004 27.500000000000004 5 1.5000000000000002 1560.5000000000002 106.07303619384767 7.5000000000000009 6 7 8.5000000000000018 8 97.055000305175795 6.1482856273651132 26.500000000000004 27.500000000000004 4.3039615154266366 9 12.010499954223635 8.5000000000000018 10 6.5000000000000009 -11.499999999999998 3.5000000000000004 2.5000000000000004 9.4327893257141131 2.5000000000000004 20.500000000000004 11
decision_type=2 2 2 1 2 2 1 2 2 2 2 2 10 2 2 2 2 1 2 10 2 10 1 1 2 2 2 2 2 2 2 2 2 2 2 2 1 2 10 2 2 1 1 2 1 2 2 2 2 10 1 2 2 1 2 2 2 2 2 2 2 1
left_child=1 8 7 18 31 12 47 33 21 54 11 55 13 14 -5 -9 -12 34 -4 -16 -21 36 -23 -22 -20 26 -26 -6 -27 30 -30 32 42 -2 53 -36 37 38 -1 -39 41 -41 43 56 -43 -40 -10 -7 -49 -45 -46 59 -18 -15 -8 -11 57 -3 -59 60 -19 -17
right_child=2 4 3 5 27 6 9 15 46 10 16 -13 -14 17 19 61 52 51 24 20 23 22 -24 -25 25 28 -28 -29 29 -31 -32 -33 -34 -35 35 -37 -38 39 45 40 -42 44 -44 49 50 -47 -48 48 -50 -51 -52 -53 -54 -55 -56 -57 -58 58 -60 -61 -62 -63
leaf_value=2.1874558687210084 2.3025851249694824 2.1874558687210084 2.1874558687210084 2.1874558687210084 2.2914279460906983 2.3799632430076598 2.1874558687210084 2.3157033324241638 2.2567705869674684 2.4468251705169677 2.4459800720214844 2.4523717403411864 2.4606609106063844 2.284751373529434 2.3666318178176882 2.3312131285667421 2.1874558687210084 2.3372424840927124 2.4707772016525267 2.4412682771682741 2.1874558687210084 2.2567705869674684 2.47571542263031 2.3483996629714965 2.1874558687210084 2.4789181470870973 2.4881892919540407 2.3025851249694824 2.4645190477371215 2.4768005847930907 2.1874558687210084 2.3346778154373169 2.284751373529434 2.3128096580505373 2.1874558687210084 2.3718998432159424 2.1874558687210084 2.1874558687210084 2.1874558687210084 2.1874558687210084 2.1874558687210084 2.4468251705169677 2.2567705869674684 2.284751373529434 2.3346778154373169 2.3319744586944582 2.284751373529434 2.1874558687210084 2.3622812509536741 2.475400948524475 2.284751373529434 2.3820468783378601 2.4422962784767153 2.3887234449386598 2.4433555603027344 2.1874558687210084 2.1874558687210084 2.2914279460906983 2.4633285045623778 2.3442305803298948 2.1874558687210084 2.3260853052139283
leaf_weight=37030 45195 9688 2149 2654 178927 73390 2518 40861 295598 741 6952 3116 199048 1712 38540 82445 3314 2219 2611742 5517 6435 12936 2794 1978 8269 195199 1990 122170 9960 43334 8203 2693 162245 121614 3980 4193 2151182 806950 1614 7193 65819 5543 218076 4251 3062 11142 44306 2793 2858 3135 5987 233586 842 98277 12215 22090 18873 1997 4262 34990 1487 109530
leaf_count=37030 45195 9688 2149 2654 178927 73390 2518 40861 295598 741 6952 3116 199048 1712 38540 82445 3314 2219 2611742 5517 6435 12936 2794 1978 8269 195199 1990 122170 9960 43334 8203 2693 162245 121614 3980 4193 2151182 806950 1614 7193 65819 5543 218076 4251 3062 11142 44306 2793 2858 3135 5987 233586 842 98277 12215 22090 18873 1997 4262 34990 1487 109530
internal_value=2.3024 2.28102 2.32447 2.32591 2.29146 2.32145 2.3118 2.31136 2.27882 2.30237 2.29657 2.2897 2.32344 2.32179 2.31411 2.31476 2.31262 2.3229 2.32709 2.31593 2.30394 2.27841 2.2909 2.29112 2.32712 2.32441 2.28809 2.29682 2.32586 2.32081 2.30491 2.28766 2.28749 2.30662 2.31856 2.30501 2.27835 2.27944 2.28777 2.27898 2.28301 2.29932 2.28586 2.29144 2.3084 2.30746 2.28259 2.31797 2.30262 2.30923 2.30042 2.32463 2.29177 2.31966 2.31694 2.28486 2.28766 2.29374 2.316 2.31939 2.30334 2.31639
internal_weight=8.22341e+06 4.17747e+06 4.04594e+06 3.64629e+06 726317 765445 130829 399645 3.45116e+06 51788 37055 25947 634616 435568 55124 232836 11108 380444 2.88085e+06 52470 13930 3.11125e+06 15730 8413 2.8787e+06 266955 10259 301097 256696 61497 18163 425220 422527 166809 108162 8173 3.09552e+06 944340 49786 894554 87604 21785 260282 42206 14592 12756 339904 79041 5651 7386 9049 272282 4156 99989 14733 22831 34820 15947 6259 38696 3706 191975
internal_count=8223409 4177473 4045936 3646291 726317 765445 130829 399645 3451156 51788 37055 25947 634616 435568 55124 232836 11108 380444 2880846 52470 13930 3111252 15730 8413 2878697 266955 10259 301097 256696 61497 18163 425220 422527 166809 108162 8173 3095522 944340 49786 894554 87604 21785 260282 42206 14592 12756 339904 79041 5651 7386 9049 272282 4156 99989 14733 22831 34820 15947 6259 38696 3706 191975
cat_boundaries=0 2 3 4 6 7 8 10 11 12 14 15 17
cat_threshold=855654312 1 7340033 2152726535 2361090119 1 1275854912 2066590784 2444754944 1573380 1074038784 1074036736 1460 260144 2147483650 872492032 1
is_linear=0
shrinkage=1


Tree=1
num_leaves=63
num_cat=12
split_feature=17 19 19 8 0 30 20 0 8 4 8 19 19 17 8 0 8 4 0 13 13 2 1 15 13 0 13 0 13 16 19 2 5 2 1 1 1 2 17 6 33 8 2 6 7 2 1 3 22 8 3 6 2 7 19 8 8 7 24 21 19 15
split_gain=1.50403e+06 50802.5 32089 8209.59 7222.56 5825.76 4755.27 3794.7 5341.31 3667.69 3111.94 3003.25 2684.36 2052.96 1637.64 1603.49 6998.33 1975.17 1510.67 1486.57 1431.33 1214.98 1430.18 1283.63 1161.08 1147.22 1116.08 1113.55 1000.45 945.249 919.704 899.348 860.804 5608.58 1510.37 821.594 2596.96 4475.07 778.121 750.666 721.913 678.208 1891.64 2395.42 1110.61 671.491 1085.4 864.679 1297.2 885.798 584.348 1998.4 999.108 1067.52 580.891 567.043 532.032 539.314 503.289 491.098 477.077 436.474
threshold=11.007214546203615 5.1908392906188974 17.932303428649906 0 4.5000000000000009 93.694286346435561 2.219293594360352 5.5000000000000009 1 1.0000000180025095e-35 2 12.190339565277101 8.1942501068115252 6.1482856273651132 3 5.5000000000000009 4 1.0000000180025095e-35 4.5000000000000009 15.016499996185305 1.0000000180025095e-35 8.5000000000000018 21.500000000000004 7.0474998950958261 1.0000000180025095e-35 4.5000000000000009 1.0000000180025095e-35 4.5000000000000009 19.003999710083011 10.028500080108644 7.9311070442199716 8.5000000000000018 1.0000000180025095e-35 1.5000000000000002 1.5000000000000002 24.500000000000004 25.500000000000004 11.500000000000002 21.573071479797367 95.259998321533217 28.500000000000004 5 1.5000000000000002 97.055000305175795 6 1.5000000000000002 1.5000000000000002 2015.5000000000002 2.6318147182464604 7 2013.5000000000002 105.97499847412111 6.5000000000000009 8 28.027786254882816 9 10 11 1.5000000000000002 1.718268930912018 9.850499629974367 1.0000000180025095e-35
decision_type=2 2 2 1 2 2 2 2 1 2 1 2 2 2 1 2 1 2 2 2 2 2 2 2 2 2 2 2 2 2 2 2 2 2 2 2 2 2 2 2 2 1 2 2 1 2 2 2 10 1 2 2 2 1 2 1 1 1 2 10 2 2
left_child=1 6 11 26 12 15 9 8 -7 41 -11 25 -3 -6 -9 20 17 40 59 27 -5 22 23 58 31 38 -4 -8 55 -24 -15 -14 54 34 -34 -35 37 -37 -2 -33 -17 42 43 -1 -45 46 -30 48 -48 -50 -44 -52 -53 -54 -28 -22 -46 -58 -10 -13 -26 -21
right_child=2 4 3 5 13 7 19 14 21 10 -12 18 24 30 -16 16 -18 -19 -20 61 28 -23 29 -25 60 -27 32 -29 45 -31 -32 39 33 35 -36 36 -38 -39 -40 -41 -42 -43 50 44 56 -47 47 -49 49 -51 51 52 53 -55 -56 -57 57 -59 -60 -61 -62 -63
leaf_value=-0.10937279343605043 -0.0052680253982543947 -0.02464959412813186 -0.10937279343605043 -0.10937279343605043 -0.015543024539947515 0.078564019799232498 -0.043523811101913459 0.04953157901763916 0.16449928283691406 -0.043523811101913459 0.17107192158699036 0.011943198442459103 -0.10937279343605043 -0.0043763378262519749 -0.118998162150383 -0.119436172246933 0.093322411179542542 0.089391709566116334 0.031581463813781734 0.027089269161224363 -0.0059239357709884649 0.1481864380836487 0.14505636692047119 -0.10937279343605043 -0.010599319934844975 0.016312386989593499 0.034455636739730844 -0.032366632223129278 -0.10937279343605043 -0.10937279343605043 0.013118207454681396 -0.11283852934837342 -0.10937279343605043 0.16690964341163636 0.17581352829933167 0.1534435260295868 0.16493549823760989 -0.10937279343605043 0.036220535039901726 0.13272487998008728 0.073071202039718619 -0.10937279343605043 -0.10937279343605043 -0.10937279343605043 0.14468860864639282 0.12580363869667052 0.10380097270011901 0.10518436551094056 0.045484839677810675 -0.10937279343605043 -0.10937279343605043 -0.10937279343605043 -0.10937279343605043 0.018874670267105098 0.16231252312660219 0.035115953683853139 0.027919867038726801 -0.027010748386383066 -0.10937279343605043 0.02298895359039306 -0.0047101664543151905 -0.036261993646621707
leaf_weight=22708 80586 269659 2234 2342 68240 72188 340732 4492 4035 13200 7217 144266 30895 52015 14455 16076 74574 3545 64445 5087 3248 5377 7688 19256 80902 34758 88541 136027 1502 3454 66274 2301 8261 196531 1994 10011 43536 8217 6535 3496 1119 2165635 413076 4599 5916 393103 9360 33161 1845 4334 373262 6547 6891 10828 2540041 122785 4042 6020 1638 16403 80255 1649
leaf_count=22708 80586 269659 2234 2342 68240 72188 340732 4492 4035 13200 7217 144266 30895 52015 14455 16076 74574 3545 64445 5087 3248 5377 7688 19256 80902 34758 88541 136027 1502 3454 66274 2301 8261 196531 1994 10011 43536 8217 6535 3496 1119 2165635 413076 4599 5916 393103 9360 33161 1845 4334 373262 6547 6891 10828 2540041 122785 4042 6020 1638 16403 80255 1649
internal_value=0.000120756 -0.0209231 0.0218487 0.0232126 -0.00812519 0.0187258 -0.0232987 0.00915332 0.0126074 -0.0240312 -0.00291056 0.00731031 -0.0114441 0.000193134 -0.0115625 0.0206288 0.0146248 -0.0110651 0.010733 -0.0186928 0.0216298 -0.00170052 -0.0050061 -0.0116621 -0.00702088 0.00098848 0.0244498 -0.0190223 0.0217903 0.00988602 0.00417727 -0.0150482 0.0244771 0.0217807 -0.0144832 0.0232204 0.0181902 0.00234529 -0.00207556 0.00302312 -0.0180765 -0.024174 -0.0229764 -0.0127925 -0.000436167 0.0229079 0.0174625 0.0187536 0.00902085 -0.00875951 -0.0235205 -0.022152 -0.00824817 -0.0020811 0.0247526 0.0178594 0.0057981 -0.00120135 0.00924114 0.00813894 -0.00519323 0.00463183
internal_weight=8.22341e+06 4.17747e+06 4.04594e+06 3.69894e+06 654037 799577 3.52344e+06 132583 113636 3.03994e+06 20417 346993 467508 186529 18947 666994 95314 20740 225114 483495 571680 41448 36071 24929 197849 121879 2.89937e+06 476759 569338 11142 118289 36692 2.89713e+06 268550 10255 258295 61764 18228 87121 5797 17195 3.01952e+06 853889 43285 20577 443305 50202 48700 15539 6179 810604 397528 24266 17719 2.62858e+06 126033 15978 10062 5673 160669 161157 6736
internal_count=8223409 4177473 4045936 3698943 654037 799577 3523436 132583 113636 3039941 20417 346993 467508 186529 18947 666994 95314 20740 225114 483495 571680 41448 36071 24929 197849 121879 2899366 476759 569338 11142 118289 36692 2897132 268550 10255 258295 61764 18228 87121 5797 17195 3019524 853889 43285 20577 443305 50202 48700 15539 6179 810604 397528 24266 17719 2628582 126033 15978 10062 5673 160669 161157 6736
cat_boundaries=0 2 3 5 6 7 8 10 11 13 14 15 17
cat_threshold=855654312 1 7340033 2361090055 1 1076887553 4194304 1210949697 2419589120 1573380 4292608 3086483456 3670540 3221225472 1074036736 1534 522288
is_linear=0
shrinkage=0.05


Tree=2
num_leaves=63
num_cat=11
split_feature=13 20 16 20 13 20 20 8 0 8 4 8 0 4 0 8 0 16 16 8 20 4 14 5 2 1 26 1 2 34 6 1 8 0 4 20 8 0 8 2 6 27 3 31 27 15 2 2 16 31 30 2 13 14 16 20 8 12 20 13 12 27
split_gain=1.42985e+06 72700.6 43589.7 10387.9 5766.92 5337.79 5069.34 4760.07 4595.31 6321.3 3751.45 2936.92 2397.14 1973.78 1923.9 1855.43 1619.05 1379.35 1347.47 1160.04 1149.42 1118.48 963.641 952.973 6406.69 1361.02 1038.67 5052.5 2584.75 940.435 1262.31 1429.04 1380.39 898.447 715.807 698.094 649.736 644.726 633.598 1959.71 2270.36 1268.11 618.26 2556.27 974.431 609.786 598.148 886.795 1119.2 632.337 641.07 1148.52 594.318 552.107 532.901 512.643 503.009 521.535 474.074 471.921 463.595 420.928
threshold=9.0339999198913592 3.6605287790298466 17.029999732971195 5.5873889923095712 3.0080000162124638 5.8739705085754403 1.9523082971572878 0 5.5000000000000009 1 1.0000000180025095e-35 2 4.5000000000000009 1.0000000180025095e-35 4.5000000000000009 3 4.5000000000000009 8.0194997787475604 8.0194997787475604 4 4.1765756607055673 1.0000000180025095e-35 20.010000228881839 1.0000000180025095e-35 1.5000000000000002 1.5000000000000002 5.5000000000000009 24.500000000000004 11.500000000000002 13.500000000000002 93.909999847412124 18.500000000000004 5 3.5000000000000004 1.5000000000000002 12.997303485870363 6 4.5000000000000009 7 1.5000000000000002 97.055000305175795 0.00018259316857438537 2013.5000000000002 105.9573211669922 0.00022001963952789086 11.018000125885012 2.5000000000000004 3.5000000000000004 12.004499912261965 98.143928527832045 95.132141113281264 8.5000000000000018 1.0000000180025095e-35 12.004499912261965 5.0030000209808358 2.9773172140121464 8 9 12.2005672454834 26.001999855041507 10 0.00010043375004897827
decision_type=2 2 2 2 2 2 2 1 2 1 2 1 2 2 2 1 2 2 2 1 2 2 2 2 2 2 2 2 2 2 2 2 1 2 2 2 1 2 1 2 2 8 2 2 8 2 2 2 2 2 2 2 2 2 2 2 1 1 2 2 1 10
left_child=1 6 3 20 14 12 10 8 22 13 38 -12 54 -10 34 -5 -8 33 21 60 61 29 -4 59 25 -25 -26 -28 -29 35 58 32 -32 -7 36 -17 -3 -22 39 40 -1 56 -41 -44 -45 -20 -38 48 -48 50 -49 -52 -21 -19 -6 -18 -42 -58 -31 -9 -16 -2
right_child=2 4 7 15 5 17 16 23 9 -11 11 -13 -14 -15 19 18 55 53 45 52 37 -23 -24 24 26 -27 27 28 -30 30 31 -33 -34 -35 -36 -37 46 -39 -40 42 41 -43 43 44 -46 -47 47 49 -50 -51 51 -53 -54 -55 -56 -57 57 -59 -60 -61 -62 -63
leaf_value=-0.10390415376424791 0.015990613043308243 0.0035124402642250142 0.031367984592914587 0.069613089978694934 -0.023417114421725272 -0.0097355253100395167 -0.04134762054681778 0.037643180906772634 -0.11304825404286385 0.052549561113119127 -0.04134762054681778 0.16642238444089891 0.0011105044633150207 0.091598702609539021 0.02017520487308502 0.011865137159824381 -0.030748300611972826 0.0084601670503616343 0.017948799610137935 -0.10859564220905304 -0.0040355456918478088 0.066877457931637768 0.074056679546833037 -0.10390415376424791 0.16241222669184208 0.15402655977010726 0.16117346185445786 0.14771942025423052 -0.10390415376424791 0.0078168498873710801 0.01616770327091217 0.029290484011173269 -0.10390415376424791 0.011127579092979435 0.028655577495694164 0.067651452898979211 -0.10390415376424791 0.011791361451148986 -0.10390415376424791 -0.10390415376424791 0.16723047602176666 -0.10390415376424791 -0.10390415376424791 0.0065677093863487192 -0.10390415376424791 0.0291596000790596 -0.02201807509362699 -0.030190441668033599 0.063744655743241313 -0.10390415376424791 -0.055731723368167875 0.032751352846622471 -0.007248120367527023 0.022433103501796725 -0.01084476123750211 -0.016164912641048423 0.026523873686790458 -0.018434281468391413 0.046306831181049349 0.157382693707943 -0.007248120367527023 -0.015709584161639211
leaf_weight=20502 3313 7015 97503 52945 79148 51167 394430 87329 20166 29039 10908 6897 65469 2846 11508 43529 101443 56833 66796 28831 59461 21762 215107 9054 216894 2273 48051 3672 9062 34599 6353 13312 14896 38349 2563 37065 44418 23688 2108354 407453 3753 4238 347313 14709 4610 141385 11747 81756 5761 46277 6334 7718 32344 47340 84578 56169 5818 6611 25096 2671472 12454 51923
leaf_count=20502 3313 7015 97503 52945 79148 51167 394430 87329 20166 29039 10908 6897 65469 2846 11508 43529 101443 56833 66796 28831 59461 21762 215107 9054 216894 2273 48051 3672 9062 34599 6353 13312 14896 38349 2563 37065 44418 23688 2108354 407453 3753 4238 347313 14709 4610 141385 11747 81756 5761 46277 6334 7718 32344 47340 84578 56169 5818 6611 25096 2671472 12454 51923
internal_value=0.000142219 -0.0201905 0.021521 0.00904625 -0.00574244 -0.00198565 -0.0231751 0.0237002 0.0182989 0.0045441 -0.0240003 -0.00111907 -0.0071497 -0.0150269 -0.0110606 0.0126754 -0.0187786 0.00412504 0.0115231 -0.00470506 -0.00295787 0.00855492 0.0205897 0.0243463 0.0216148 -0.0152445 0.0231183 0.0173419 -0.0106604 0.00722448 0.00383371 -0.00377087 -0.0118182 -0.000426739 -0.013594 0.01119 -0.013913 0.000756173 -0.0241397 -0.0229513 -0.012288 -0.000487267 -0.0235153 -0.0220256 -0.00432346 0.0143268 -0.0144271 -0.0129995 -0.00238177 -0.0143078 -0.0119896 -0.00212425 -0.00835703 0.00803639 -0.0103832 -0.0144951 0.00588926 0.00103505 0.00823645 0.0246326 0.00461997 -0.00854877
internal_weight=8.22341e+06 4.21482e+06 4.00859e+06 596123 721610 422884 3.49321e+06 3.41247e+06 364661 52051 2.94117e+06 17805 229195 23012 298726 457738 552042 193689 404793 85137 138385 196612 312610 3.04781e+06 289006 11327 277679 60785 12734 174850 94256 34561 21249 89516 213589 80594 211026 83149 2.92336e+06 815007 40922 20420 774085 366632 19319 208181 204011 159593 17508 142085 95808 14052 61175 104173 163726 157612 16182 12429 59695 2.7588e+06 23962 55236
internal_count=8223409 4214818 4008591 596123 721610 422884 3493208 3412468 364661 52051 2941166 17805 229195 23012 298726 457738 552042 193689 404793 85137 138385 196612 312610 3047807 289006 11327 277679 60785 12734 174850 94256 34561 21249 89516 213589 80594 211026 83149 2923361 815007 40922 20420 774085 366632 19319 208181 204011 159593 17508 142085 95808 14052 61175 104173 163726 157612 16182 12429 59695 2758801 23962 55236
cat_boundaries=0 1 2 4 5 6 8 9 10 11 12 13
cat_threshold=2365161541 4194304 2361024583 1 855646120 1615857668 7348225 1 541067264 1210949697 1074003968 79034 75160
is_linear=0
shrinkage=0.05


Tree=3
num_leaves=63
num_cat=10
split_feature=17 19 13 19 0 8 20 13 19 30 8 0 8 17 0 13 15 19 0 8 21 34 17 21 8 13 5 3 0 8 3 31 27 29 21 26 26 31 31 0 8 19 19 24 8 28 24 30 24 19 7 33 0 32 31 0 0 19 22 8 19 23
split_gain=1.46734e+06 48209.8 36152.1 6868.59 6073.57 5423.12 4632.25 3924.12 3119.2 2665.69 2200.65 2953.3 2183.56 2173.58 1853.93 1518.03 1462.43 1385.79 1374.13 5501.42 1554.35 1220.93 1159.56 1151.82 1615.83 903.655 850.508 1784.8 793.707 727.709 1390.24 3207.06 1206.07 1184.43 692.377 892.019 1517.6 791.799 796.518 662.957 860.063 661.012 656.439 644.745 644.224 643.383 960.089 1332.76 619.412 597.166 577.748 511.684 498.343 493.268 478.69 582.079 641.836 458.187 454.099 452.91 424.194 417.592
threshold=10.580999851226808 4.5892858505249032 22.029500007629398 14.002678394317629 4.5000000000000009 0 2.0208890438079838 1.0000000180025095e-35 7.9311070442199716 93.867141723632827 1 5.5000000000000009 2 6.4380712509155282 4.5000000000000009 14.001500129699709 7.0474998950958261 23.465338706970218 5.5000000000000009 3 1.4473868012428286 12.500000000000002 6.1482856273651132 0.22078755497932437 4 9.0339999198913592 1.0000000180025095e-35 2016.5000000000002 4.5000000000000009 5 2013.5000000000002 106.07303619384767 0.00022001963952789086 4178.5000000000009 0.11256537586450578 5.5000000000000009 6.5000000000000009 97.769641876220717 37.06428527832032 3.5000000000000004 6 7.4674823284149179 18.572803497314457 1.0000000180025095e-35 7 1593.5000000000002 -7.4999999999999991 58.839286804199226 -21.499999999999996 11.287214279174806 8 28.500000000000004 4.5000000000000009 1.0000000180025095e-35 37.893928527832038 3.5000000000000004 4.5000000000000009 6.0728216171264657 7.3820304870605478 9 9.2973928451538104 1.0000000180025095e-35
decision_type=2 2 2 2 2 1 2 2 2 2 1 2 1 2 2 2 2 2 2 1 10 2 2 10 1 2 2 2 2 1 2 2 8 10 10 2 2 2 2 2 1 2 2 2 1 10 2 2 2 2 1 2 2 2 2 2 2 2 8 1 2 2
left_child=1 6 3 14 8 26 23 -5 57 17 11 -11 -13 -6 49 28 -12 -7 -19 20 51 43 48 29 -25 39 -4 34 59 30 -1 33 44 45 35 54 37 38 -37 40 -9 -15 52 -18 -33 -32 47 -47 -10 -2 -46 -20 -27 61 55 -28 -57 -3 -23 -8 -24 -40
right_child=2 4 5 7 13 9 15 25 22 10 16 12 -14 41 -16 -17 21 18 19 -21 -22 58 60 24 -26 42 27 -29 -30 -31 31 32 -34 -35 -36 36 -38 -39 53 -41 -42 -43 -44 -45 50 46 -48 -49 -50 -51 -52 -53 -54 -55 -56 56 -58 -59 -60 -61 -62 -63
leaf_value=-0.098708946076035517 -0.0050290745168924513 -0.029066771489381794 0.14838817564547063 -0.098708946076035517 -0.013116447296738644 0.023130766364932054 -0.040246716792136428 -0.018600045469403258 0.033439784941077244 0.069962084773182873 0.13647024995982646 -0.10739584134072067 0.052547824659943614 -0.004128943544626229 0.017647430244088168 0.012783464226126685 0.14540511829257011 0.11364829160869122 -0.10781195093244317 0.13567920536696909 0.09178427803814411 0.06504519233405591 -0.010425435597449552 -0.03928023951947688 0.14424950101673603 0.014265499329566956 0.12435812467858197 -0.098708946076035517 -0.029940054979920406 -0.098708946076035517 -0.098708946076035517 0.12627541282474994 -0.098708946076035517 0.043583912855386722 0.18058774069473149 0.12638114630877972 0.13671311639845371 0.12604374193251131 0.11699353956282138 0.035553836914524441 0.016053893032670019 0.0089625007711350967 0.032638133653998369 -0.031301391324400907 0.02921593696177005 -0.098708946076035517 -0.098708946076035517 0.017626398450136162 -0.098708946076035517 0.0046101763874292212 -0.019509339925646785 0.09708566199690101 0.031518013485521079 0.10721451543867587 0.13277959421798588 -0.098708946076035517 0.12719323233291507 -0.021349733394384375 -0.098708946076035517 -0.050198606428503982 -0.0044902790136635449 -0.098708946076035517
leaf_weight=409844 71351 166397 2484473 11294 101574 56294 31535 6942 3354 66621 12408 6852 4259 38562 56927 6793 4893 431145 11564 57191 2520 2275 61978 8901 2930 77176 3098 2092 128190 2127656 331089 6062 4400 2210 117637 2240 13803 3386 777 43756 51225 67201 239624 6295 3062 6126 47656 9027 45308 71326 6657 668 30992 1062 96373 2194 1159 156853 12728 289608 85631 10185
leaf_count=409844 71351 166397 2484473 11294 101574 56294 31535 6942 3354 66621 12408 6852 4259 38562 56927 6793 4893 431145 11564 57191 2520 2275 61978 8901 2930 77176 3098 2092 128190 2127656 331089 6062 4400 2210 117637 2240 13803 3386 777 43756 51225 67201 239624 6295 3062 6126 47656 9027 45308 71326 6657 668 30992 1062 96373 2194 1159 156853 12728 289608 85631 10185
internal_value=0.000164156 -0.0207679 0.0214753 0.0107687 -0.0090733 0.023547 -0.0232521 0.0141234 -0.0119607 0.0195336 0.0126473 0.0174925 -0.00636981 -0.00183843 0.00302048 -0.0185612 0.00288469 0.020966 0.0217985 0.0154014 -0.0118209 -0.00381333 -0.00698868 -0.0239736 -0.00840377 0.0148545 0.0245371 0.0217814 -0.0189159 -0.024036 -0.0227724 -0.0207375 -0.00129453 -0.021728 0.0221633 0.0197098 0.0123414 0.0026289 -0.00253085 0.0107142 0.00721672 0.00317857 0.0160678 0.00868788 0.00515969 -0.0219328 -0.0172933 -0.00633043 -0.0136821 -2.33044e-05 -0.00282403 -0.0191956 0.0128347 -0.00763057 0.0219637 0.00877771 -0.00565911 -0.0149796 -0.0131357 -0.0202436 -0.00478206 -0.0107827
internal_weight=8.22341e+06 4.1486e+06 4.0748e+06 660613 726858 3.41419e+06 3.42175e+06 461009 519521 675713 116331 77732 11111 207337 199604 456126 38599 559382 503088 71943 14752 26191 196271 2.96562e+06 11831 449715 2.73848e+06 254006 449333 2.95379e+06 826133 416289 20181 396108 251914 134277 31453 17650 14264 101923 58167 105763 347792 11188 15781 393898 62809 15153 48662 142677 9719 12232 108168 12024 102824 6451 3353 323250 15003 321143 147609 10962
internal_count=8223409 4148604 4074805 660613 726858 3414192 3421746 461009 519521 675713 116331 77732 11111 207337 199604 456126 38599 559382 503088 71943 14752 26191 196271 2965620 11831 449715 2738479 254006 449333 2953789 826133 416289 20181 396108 251914 134277 31453 17650 14264 101923 58167 105763 347792 11188 15781 393898 62809 15153 48662 142677 9719 12232 108168 12024 102824 6451 3353 323250 15003 321143 147609 10962
cat_boundaries=0 2 3 4 5 7 8 9 10 12 13
cat_threshold=855646120 1 6299649 4194304 4194304 2361024583 1 1210949697 3221225472 1074036736 1460 260144 1610713152
is_linear=0
shrinkage=0.05


Tree=4
num_leaves=63
num_cat=13
split_feature=17 19 13 19 0 20 4 13 8 19 8 0 8 17 0 16 4 13 16 13 2 8 5 2 26 26 2 26 19 8 0 0 6 24 0 6 19 15 8 2 6 27 3 31 27 3 8 19 2 3 8 5 7 19 8 6 8 8 17 33 30 8
split_gain=1.43961e+06 49044.5 37809.8 8457.69 5694.27 5028.96 4194.99 4029.39 3828.53 3222.77 2541.79 2431.31 7551.56 2071.58 1931.91 1809.91 1581.84 1541.64 1460.02 1194.63 892.496 866.959 833.845 5265.57 1413.66 884.547 2675.35 3872.2 829.792 879.476 3314.2 730.786 706.008 819.734 697.281 688.664 637.003 633.986 619.452 2104.98 2327.46 1277.33 686.25 2629.58 966.453 580.327 578.011 563.764 558.234 905.149 2024.18 552.264 519.528 503.184 493.584 492.03 2315.97 463.799 454.168 452.306 448.872 833.542
threshold=10.580999851226808 4.4336249828338632 30.010999679565433 14.507410526275637 4.5000000000000009 1.7666434049606325 1.0000000180025095e-35 1.0000000180025095e-35 0 7.9311070442199716 1 5.5000000000000009 2 6.7384285926818857 4.5000000000000009 20.015999794006351 1.0000000180025095e-35 13.007999897003176 7.0009999275207528 1.0000000180025095e-35 8.5000000000000018 3 1.0000000180025095e-35 1.5000000000000002 -1.4999999999999998 5.5000000000000009 11.500000000000002 6.5000000000000009 21.944356918334964 4 5.5000000000000009 4.5000000000000009 93.909999847412124 1.0000000180025095e-35 4.5000000000000009 95.259998321533217 11.717392921447756 87.007499694824233 5 1.5000000000000002 97.055000305175795 0.00018259316857438537 2013.5000000000002 105.9573211669922 0.00022001963952789086 2015.5000000000002 6 8.723642826080324 1.5000000000000002 2015.5000000000002 7 1.0000000180025095e-35 8 9.2973928451538104 9 101.47999954223634 10 11 3.6051428318023686 28.500000000000004 93.867141723632827 12
decision_type=2 2 2 2 2 2 2 2 1 2 1 2 1 2 2 2 2 2 2 2 2 1 2 2 2 2 2 2 2 1 2 2 2 2 2 2 2 2 1 2 2 8 2 2 8 2 1 2 2 2 1 2 1 2 1 2 1 1 2 2 2 1
left_child=1 5 3 14 9 6 38 -5 22 -3 -8 15 16 58 36 32 59 21 60 20 -11 52 -4 24 -24 -25 -27 -28 34 30 46 -23 -10 -34 -20 -22 -2 -35 39 40 -1 57 -41 -44 -45 54 -30 -15 49 50 -17 -51 -7 -21 -32 -50 -57 -42 -6 -13 -9 -62
right_child=2 4 8 7 13 17 10 18 11 19 -12 12 -14 47 -16 48 -18 -19 28 53 35 31 23 25 -26 26 27 -29 29 -31 45 -33 33 37 -36 -37 -38 -39 -40 42 41 -43 43 44 -46 -47 -48 -49 55 51 -52 -53 -54 -55 -56 56 -58 -59 -60 -61 61 -63
leaf_value=-0.093773498772233732 -0.0042942870841920387 -0.024871458158791084 0.14270764892801643 -0.093773498772233732 -0.075544610230773704 -0.03887106171116235 -0.037316227543503035 0.021458175821378822 0.052105710907727469 -0.093773498772233732 0.14698673140540719 -0.10202604927368464 0.13062702228978273 0.00010600047010929093 0.01752851257309318 0.066542317314892976 0.090492965289801358 0.0097217135465145002 0.016329832397103308 -0.009938924652598824 -0.1007516334937513 -0.04768867610707879 0.15842705030564219 0.14899399018038065 -0.093773498772233732 0.14435178099021315 -0.093773498772233732 0.16325775442466139 0.051771882577687479 0.033825256451517349 -0.10902774802342059 -0.031555017738193296 0.10085432936929167 0.045268735357970005 0.032044341632276763 0.12423691333547238 0.0059917444942891645 -0.093773498772233732 -0.093773498772233732 -0.093773498772233732 0.16208562925890091 -0.093773498772233732 -0.093773498772233732 0.0053605461446941012 -0.093773498772233732 0.026182193913608764 0.00059298130109903819 0.012149022634811702 0.12234325646355747 0.12050738989308477 -0.11745570303007963 -0.10439136065647009 -0.0092871171179041093 -0.0042657650629803756 0.040604394061416388 0.082521249309033151 -0.10683784114584327 0.0046143271979689482 -0.0066478232258558425 0.094898662908896772 -0.10034085275873544 0.022425170482564719
leaf_weight=19394 85886 341144 2435880 11064 27081 33541 8381 44108 60251 31485 7569 16135 60348 55455 66037 8628 2222 7586 148505 70242 2446 342349 1851 187630 7766 36642 7724 7841 60584 241541 6966 136843 15322 7996 59574 3529 79556 6871 2058491 403523 3753 4080 329088 14696 4409 3047 4475 41783 322479 25676 4540 617 10616 88569 771 18694 4041 12429 90122 564 7150 15823
leaf_count=19394 85886 341144 2435880 11064 27081 33541 8381 44108 60251 31485 7569 16135 60348 55455 66037 8628 2222 7586 148505 70242 2446 342349 1851 187630 7766 36642 7724 7841 60584 241541 6966 136843 15322 7996 59574 3529 79556 6871 2058491 403523 3753 4080 329088 14696 4409 3047 4475 41783 322479 25676 4540 617 10616 88569 771 18694 4041 12429 90122 564 7150 15823
internal_value=0.00021295 -0.0205204 0.0213218 0.0118353 -0.00896515 -0.0230781 -0.0239062 0.0149513 0.0237671 -0.0117138 0.00166458 0.0199818 0.0118757 -0.00207668 0.00370973 0.0213347 -0.015682 -0.0186084 0.0155096 -0.0066091 -0.014641 -0.0189327 0.0245484 0.0217952 -0.0144822 0.0232499 0.0174933 0.000126887 0.0163963 0.0180052 0.0133004 -0.0195508 0.0149701 0.00872917 0.0139424 0.00307531 0.000823854 0.000364902 -0.0240493 -0.0228558 -0.0116288 0.000222091 -0.0234484 -0.021822 -0.00378828 -0.0123702 0.0175575 0.00331866 0.022831 0.0171974 0.00649681 0.0225564 -0.0122178 -0.00471457 -0.0196491 0.023475 0.0163657 0.00652577 -0.00655295 -0.0209638 0.00856315 0.00289579
internal_weight=8.22341e+06 4.1486e+06 4.0748e+06 835087 751856 3.39675e+06 2.86581e+06 603608 3.23972e+06 537415 15950 554384 79269 214441 231479 475115 18921 530935 592544 196271 37460 523349 2.68533e+06 249454 9617 239837 52207 15565 525463 317384 75843 479192 90440 30189 208079 5975 165442 14867 2.84986e+06 791372 39656 20262 751716 348193 19105 10784 65059 97238 384675 39461 13168 26293 44157 158811 7737 345214 22735 16182 117203 16699 67081 22973
internal_count=8223409 4148604 4074805 835087 751856 3396748 2865813 603608 3239718 537415 15950 554384 79269 214441 231479 475115 18921 530935 592544 196271 37460 523349 2685334 249454 9617 239837 52207 15565 525463 317384 75843 479192 90440 30189 208079 5975 165442 14867 2849863 791372 39656 20262 751716 348193 19105 10784 65059 97238 384675 39461 13168 26293 44157 158811 7737 345214 22735 16182 117203 16699 67081 22973
cat_boundaries=0 2 4 5 6 7 8 9 10 12 13 14 15 16
cat_threshold=855646120 1 2226282503 1 4194304 1610711104 3225419781 1210949697 4194305 6397952 3880254081 3146764 4194304 6299648 1074003968 201949248
is_linear=0
shrinkage=0.05


Tree=5
num_leaves=63
num_cat=16
split_feature=17 17 19 19 19 13 19 8 0 8 4 0 8 0 4 13 0 30 8 0 15 8 0 19 2 3 8 3 2 5 2 26 26 2 26 19 8 2 6 27 3 6 2 27 0 6 8 33 34 7 7 19 7 17 17 8 2 7 8 19 7 8
split_gain=1.40358e+06 50761 40060.6 6989.62 6435.64 5873.9 5099.32 4867.76 4347.21 9064.58 4154.54 3189.54 2463.15 2270.12 2163.29 1645.87 1600.87 1540.08 2688.73 1341.55 1067.28 961.129 1668.68 913.794 889.802 1123.89 1483.44 880.924 1010.84 823.599 5358.48 1450.72 878.489 2714.76 3961.73 784.204 716.393 1820.51 2395.47 1382.21 886.789 1723.78 973.213 1105.95 698.098 696.667 685.36 662.174 659.789 614.991 593.958 574.903 709.369 503.321 485.457 484.108 952.09 472.279 465.211 455.414 434.923 421.923
threshold=10.580999851226808 3.7144285440444951 31.431660652160648 6.8265001773834237 14.002678394317629 1.0000000180025095e-35 1.9464285969734194 0 5.5000000000000009 1 1.0000000180025095e-35 4.5000000000000009 2 4.5000000000000009 1.0000000180025095e-35 7.0355000495910653 4.5000000000000009 95.81000137329103 3 4.5000000000000009 9.0179996490478533 4 5.5000000000000009 9.0054106712341326 2.5000000000000004 2015.5000000000002 5 2014.5000000000002 1.5000000000000002 1.0000000180025095e-35 1.5000000000000002 -1.4999999999999998 5.5000000000000009 11.500000000000002 6.5000000000000009 19.151874542236332 6 1.5000000000000002 97.055000305175795 8.4491366578731699e-05 2013.5000000000002 105.97499847412111 6.5000000000000009 1.0000000180025095e-35 4.5000000000000009 95.81000137329103 7 28.500000000000004 7.5000000000000009 8 9 1.0000000180025095e-35 10 50.864070892333991 25.581999778747562 11 8.5000000000000018 12 13 11.717392921447756 14 15
decision_type=2 2 2 2 2 2 2 1 2 1 2 2 1 2 2 2 2 2 1 2 2 1 2 2 2 2 1 2 2 2 2 2 2 2 2 2 1 2 2 8 2 2 2 8 2 2 1 2 2 1 1 2 1 2 2 1 2 1 1 2 1 1
left_child=1 6 4 13 16 -4 10 8 17 14 15 23 -12 -3 47 36 54 24 -19 35 -20 22 -21 -5 25 26 -7 28 -28 53 31 -31 -32 -34 -35 -6 37 38 -1 58 -39 51 -43 -44 55 -11 -26 -10 -22 -23 -15 -42 -53 -9 59 56 -8 -13 -40 -2 -60 -17
right_child=2 3 5 11 19 7 44 29 9 45 12 57 -14 50 -16 61 -18 18 20 21 48 49 -24 -25 46 -27 27 -29 -30 30 32 -33 33 34 -36 -37 -38 40 39 -41 41 42 43 -45 -46 -47 -48 -49 -50 -51 -52 52 -54 -55 -56 -57 -58 -59 60 -61 -62 -63
leaf_value=-0.08908482383362204 -0.0043645717108920182 -0.026369860006973146 -0.08908482383362204 -0.013190115150168569 0.012698035249371076 0.061198761690013107 -0.08908482383362204 0.034543786599062369 -0.096969965984649964 0.14048928637417404 -0.035450416166327894 -0.00018907047248073461 0.14705724031799286 -0.018820087972499445 0.076639021866925061 0.018826255301803332 0.01637911750481278 0.080949897553630162 0.1571954831286855 0.069900884134955696 0.12234553997676445 0.0048477426281794862 -0.10741041591038554 -0.004619962449023518 -0.012844956295339405 0.108091238012366 0.16128329937617852 -0.11158291787857565 -0.08908482383362204 0.14550775176641903 0.13886563290120477 -0.08908482383362204 0.13335759977923331 -0.08908482383362204 0.15204545120821891 0.020194416104197501 -0.08908482383362204 -0.08908482383362204 0.15441901571781191 -0.08908482383362204 -0.08908482383362204 -0.08908482383362204 0.0094430857014730762 -0.08908482383362204 -0.033827574911929691 0.0016111623408123776 0.11406851379518955 0.076036661881778364 -0.08908482383362204 0.0348320647100024 -0.0062928415935039617 -0.054427464710392059 -0.019770105587162079 0.138113880060412 0.034551927067242548 -0.048769978214047854 0.082204869609616732 0.0100383751889076 0.026789000462904555 0.0046727001223042519 -0.014234630980029707 -0.054427464710392059
leaf_weight=24562 85878 328716 8556 140332 142563 14382 19769 146603 22660 49582 9827 40561 6878 53981 3253 4453 63024 44716 6586 5174 4000 5578 5164 105951 2020 44608 3517 5563 1843 1923 194490 7966 38227 7876 8088 223537 2018167 419376 3694 4693 289369 6795 13632 4628 124725 3888 341062 894 11939 130305 77279 75090 8328 2370006 5949 288723 3948 58069 5568 65387 6871 1899
leaf_count=24562 85878 328716 8556 140332 142563 14382 19769 146603 22660 49582 9827 40561 6878 53981 3253 4453 63024 44716 6586 5174 4000 5578 5164 105951 2020 44608 3517 5563 1843 1923 194490 7966 38227 7876 8088 223537 2018167 419376 3694 4693 289369 6795 13632 4628 124725 3888 341062 894 11939 130305 77279 75090 8328 2370006 5949 288723 3948 58069 5568 65387 6871 1899
internal_value=0.000323918 -0.020161 0.0211559 -0.00888908 0.0105659 0.0234756 -0.0228765 0.0235818 0.0193297 0.00856005 -0.0236344 -0.00350835 0.00122867 -0.0129238 -0.0151667 -0.0237783 0.00341812 0.0211303 0.014113 0.0136386 2.10783e-05 0.0176871 0.00297642 -0.0065511 0.0222728 0.0171316 0.00871468 -0.00517927 0.00928172 0.0244404 0.0217533 -0.0143417 0.0231886 0.0175587 0.000241168 0.0120216 -0.0238343 -0.0226243 -0.0128779 -0.000403342 -0.0231659 -0.0214749 -0.00877968 -0.00276835 -0.0178421 0.0204544 0.0233205 -0.0204509 -0.00697503 0.0188047 -0.00736515 -0.0223281 -0.018671 0.0247166 0.000719084 -0.0191045 -0.0122171 0.00408953 0.00654404 0.000168083 0.00190578 0.00164515
internal_weight=8.22269e+06 4.14588e+06 4.07681e+06 804889 732559 3.34425e+06 3.341e+06 3.33569e+06 560513 80277 2.90383e+06 344913 16705 459976 26807 2.88712e+06 220238 480236 67241 512321 22525 146221 10338 246283 412995 69913 25305 10923 5360 2.77518e+06 258570 9889 248681 54191 15964 366100 2.88077e+06 862606 45388 20826 817218 397842 25055 18260 437165 53470 343082 23554 15939 135883 131260 372787 83418 2.51661e+06 157214 312440 23717 98630 16133 151265 12439 6352
internal_count=8222691 4145884 4076807 804889 732559 3344248 3340995 3335692 560513 80277 2903830 344913 16705 459976 26807 2887125 220238 480236 67241 512321 22525 146221 10338 246283 412995 69913 25305 10923 5360 2775179 258570 9889 248681 54191 15964 366100 2880773 862606 45388 20826 817218 397842 25055 18260 437165 53470 343082 23554 15939 135883 131260 372787 83418 2516609 157214 312440 23717 98630 16133 151265 12439 6352
cat_boundaries=0 1 2 4 5 6 7 9 10 11 13 15 16 18 19 21 22
cat_threshold=3371008064 4194304 2361024583 1 6291456 2151677952 6389760 1210949697 1 2147483648 16777217 3823139393 1182 3815766528 2131087 1074036736 1675950787 1183 1074003968 8390143 522288 201949248
is_linear=0
shrinkage=0.05


Tree=6
num_leaves=63
num_cat=0
split_feature=17 17 13 17 17 20 13 16 16 21 20 20 16 5 2 26 26 2 26 20 24 31 17 34 31 2 6 17 15 6 21 28 13 3 31 27 13 28 24 16 34 16 24 2 31 24 31 21 21 3 14 2 21 2 6 27 21 17 2 17 13 17
split_gain=1.38484e+06 52875.9 42327.1 6871.26 6152.83 5573.2 3560.45 3269.44 2103.55 1469.51 1176.49 1121.39 1034.41 957.178 6211.3 1320.71 997.27 2908.84 4404.37 905.09 1130.03 733.614 722.37 713.839 761.501 1136.86 1390.63 591.146 554.661 551.329 504.262 500.325 481.469 460.128 1840.85 1365.34 436.724 430.535 397.16 464.892 377.395 420.942 836.242 1029.75 775.554 460.506 330.026 328.119 324.283 317.319 316.308 312.429 291.897 289.532 1521.29 1303.49 285.658 282.077 281.05 270.263 269.277 258.644
threshold=10.580999851226808 3.4309999942779545 36.009000778198249 16.860214233398441 6.7384285926818857 1.4898241162300112 1.0000000180025095e-35 36.107500076293952 10.028500080108644 0.22078755497932437 1.0000000180025095e-35 3.7366163730621342 5.0030000209808358 1.0000000180025095e-35 1.5000000000000002 -1.4999999999999998 5.5000000000000009 11.500000000000002 6.5000000000000009 3.5043433904647832 -21.499999999999996 95.45035552978517 8.4474287033081072 18.500000000000004 95.103752136230483 3.5000000000000004 97.90000152587892 13.175000190734865 18.020500183105472 93.909999847412124 0.16465033590793612 5281.5000000000009 9.0339999198913592 2013.5000000000002 105.9573211669922 1.0000000180025095e-35 24.003499984741214 1942.5000000000002 1.5000000000000002 2.0069999694824223 12.500000000000002 13.007500171661379 1.5000000000000002 2.5000000000000004 97.931606292724624 17.500000000000004 97.931606292724624 0.28624781966209417 0.39673796296119695 2013.5000000000002 42.013000488281257 2.5000000000000004 0.81367683410644542 1.5000000000000002 97.055000305175795 1.0000000180025095e-35 0.74832645058631908 2.435928583145142 9.5000000000000018 0.5000000149011613 5.0164999961853036 4.7158572673797616
decision_type=2 2 2 2 2 2 2 2 2 10 2 2 2 2 2 2 2 2 2 2 2 2 2 2 2 2 2 2 2 2 10 10 2 2 2 8 2 10 2 2 2 2 2 2 2 2 2 10 10 2 2 2 10 2 2 8 10 2 2 2 2 2
left_child=1 5 3 12 11 9 58 30 29 31 -11 61 -2 50 15 -15 -16 -18 -19 32 21 -21 47 -22 -25 59 -27 -14 -10 51 40 33 57 -1 53 37 -13 -36 -31 49 -4 42 -42 -44 -45 -46 -33 -6 -24 -40 -9 -8 -30 54 -35 -56 -29 -7 -5 -26 -55 -3
right_child=2 4 7 6 22 19 8 13 28 10 -12 36 27 14 16 -17 17 18 -20 20 23 -23 48 24 25 26 -28 56 52 38 -32 46 -34 34 35 -37 -38 -39 39 -41 41 -43 43 44 45 -47 -48 -49 -50 -51 -52 -53 -54 60 55 -57 -58 -59 -60 -61 -62 -63
leaf_value=-0.084630582641940955 0.00097546821559928447 -0.025821489865793315 0.048939021509335372 -0.084630582641940955 -0.010671637799131118 -0.049973223518710967 0.0094937861804447188 0.041220313067572949 0.023068727366942189 0.11187173266842552 -0.04806199817936159 -0.017675204308223624 0.0058474988555854424 0.12733863902131404 0.13701852454258251 -0.096205009656642013 0.13205530144797192 -0.084630582641940955 0.1494446939431272 -0.050643925055917728 -0.090112060835242647 0.04031992352055052 -0.0034047232338175306 -0.07007600097363853 0.051073586774902063 0.052835587359301384 -0.097041428476628291 0.013038130680995241 0.029760398084323115 0.020223382200844232 0.069337594643366793 -0.084630582641940955 -0.0050744555233981584 -0.084630582641940955 -0.049973223518710967 -0.084630582641940955 0.039414153683358412 0.011745881697184957 0.023709372772152751 0.016169434482257074 0.092584714797320611 0.032243757844199597 -0.084630582641940955 0.11479593417995163 -0.084630582641940955 0.14490603412055478 0.019341494727749001 0.002605098762189595 0.0087019149908605931 -0.097065413356298785 0.132182852357734 0.02253538503201602 0.037987032968929302 -0.084630582641940955 -0.042635361772813664 -0.084630582641940955 0.023185837512837894 -0.03213619616633321 0.14462850301327146 -0.037124934487032156 -0.015315864395480983 -0.018791952552473568
leaf_weight=952601 81245 167475 70066 8447 176227 270104 13298 72091 173318 3443 4096 187757 106353 2229 210347 8890 41357 8749 9014 3347 73249 5535 156628 18108 6063 3450 11006 122232 268568 18900 39450 1797 3945 129801 23644 20305 1587 7646 1697 7007 25154 51563 3686 8257 5167 1170 2806 10556 10885 7454 2586326 65183 44964 1547917 27065 17782 14020 152377 605 990 2078 145614
leaf_count=952601 81245 167475 70066 8447 176227 270104 13298 72091 173318 3443 4096 187757 106353 2229 210347 8890 41357 8749 9014 3347 73249 5535 156628 18108 6063 3450 11006 122232 268568 18900 39450 1797 3945 129801 23644 20305 1587 7646 1697 7007 25154 51563 3686 8257 5167 1170 2806 10556 10885 7454 2586326 65183 44964 1547917 27065 17782 14020 152377 605 990 2078 145614
internal_value=0.000304727 -0.0200429 0.0209971 0.011647 -0.00897895 -0.0229248 0.0147744 0.0237731 0.0152437 -0.0238452 -0.00180064 -0.0125371 0.00576162 0.0241985 0.0214211 -0.0152015 0.0229322 0.0171947 0.000271632 -0.0183225 -0.0145202 0.00265143 -0.00393301 -0.0158715 -0.0104646 -0.0041041 -0.0121334 0.0073969 0.0166729 0.00911515 0.0176604 -0.023906 -0.0194081 -0.0239338 -0.0234583 -0.014152 -0.00949964 -0.00759987 0.00390211 -0.00185357 0.0164466 0.0143933 0.0107669 0.00262856 0.00859257 -0.00456446 -0.00743537 -0.00607108 -0.00154898 -0.00927494 0.0244917 0.0114439 0.0179277 -0.0237367 -0.0218067 -0.0138677 0.00957747 -0.0195704 -0.01635 0.0123529 -0.0239542 -0.0143741
internal_weight=8.22269e+06 4.14588e+06 4.07681e+06 933291 856729 3.28916e+06 609441 3.14352e+06 600389 2.74098e+06 7539 502433 323850 2.939e+06 280586 11119 269467 59120 17763 548174 121748 8882 354296 112866 39617 21509 14456 242605 486850 113539 204513 2.73344e+06 426426 2.72884e+06 1.77624e+06 51595 189344 31290 35058 16158 165063 94997 43434 18280 14594 6337 4603 186783 167513 9151 2.65842e+06 78481 313532 1.72464e+06 174648 44847 136252 422481 9052 7053 1.55e+06 313089
internal_count=8222691 4145884 4076807 933291 856729 3289155 609441 3143516 600389 2740981 7539 502433 323850 2939003 280586 11119 269467 59120 17763 548174 121748 8882 354296 112866 39617 21509 14456 242605 486850 113539 204513 2733442 426426 2728839 1776238 51595 189344 31290 35058 16158 165063 94997 43434 18280 14594 6337 4603 186783 167513 9151 2658417 78481 313532 1724643 174648 44847 136252 422481 9052 7053 1549995 313089
is_linear=0
shrinkage=0.05


Tree=7
num_leaves=63
num_cat=14
split_feature=17 19 13 19 20 17 4 13 8 0 0 6 0 13 0 8 8 16 19 8 8 0 8 4 1 8 2 17 2 22 31 5 2 1 0 1 1 2 24 19 0 8 19 8 0 8 4 7 19 19 1 2 8 28 24 34 7 2 19 8 0 0
split_gain=1.35303e+06 53926 44880.5 8322.04 5949.34 5486.73 4920.74 3790.16 3560.22 2689.87 2683.71 2278.64 1871.71 1815.42 1713.3 1962.54 1615.49 1422.56 1230.13 1215.53 1121.16 2518.3 1851.41 1209.31 989.97 952.054 894.698 889.197 861.72 979.973 1663.74 828.765 5090.91 1397.25 802.804 760.849 2389.78 4074.89 735.299 729.574 727.987 720.884 677.654 666.906 1954.65 1776.24 672.539 577.949 575.837 575.119 561.086 559.779 2772.5 2251.24 667.249 529.425 526.577 511.751 503.845 480.808 821.597 459.488
threshold=10.580999851226808 3.7321428060531621 37.046499252319343 15.517857074737551 1.2511876821517947 6.7384285926818857 1.0000000180025095e-35 1.0000000180025095e-35 0 4.5000000000000009 4.5000000000000009 93.909999847412124 4.5000000000000009 9.0339999198913592 5.5000000000000009 1 2 10.028500080108644 9.0054106712341326 3 4 5.5000000000000009 5 1.0000000180025095e-35 16.500000000000004 6 8.5000000000000018 26.6066427230835 1.5000000000000002 3.6263325214385991 53.274106979370124 1.0000000180025095e-35 1.5000000000000002 1.5000000000000002 4.5000000000000009 24.500000000000004 25.500000000000004 11.500000000000002 1.0000000180025095e-35 12.190339565277101 4.5000000000000009 7 41.575607299804695 8 5.5000000000000009 9 1.0000000180025095e-35 10 9.0054106712341326 6.0728216171264657 1.5000000000000002 1.5000000000000002 11 652.50000000000011 -1.0000000180025095e-35 20.500000000000004 12 7.5000000000000009 53.601268768310554 13 5.5000000000000009 3.5000000000000004
decision_type=2 2 2 2 2 2 2 2 1 2 2 2 2 2 2 1 1 2 2 1 1 2 1 2 2 1 2 2 2 10 2 2 2 2 2 2 2 2 2 2 2 1 2 1 2 1 2 1 2 2 2 2 1 10 2 2 1 2 2 1 2 2
left_child=1 4 3 12 6 9 51 -5 31 49 18 20 39 25 15 -13 -8 61 -7 -16 28 42 23 -23 26 -6 38 40 29 50 -31 58 33 -33 -27 -34 37 -37 57 -2 -19 -15 -22 44 -29 46 -46 -11 -12 -3 -10 52 53 -1 -55 -26 -14 -17 -4 60 -42 -9
right_child=2 5 8 7 13 10 16 17 11 47 48 14 56 41 19 24 -18 27 -20 -21 21 22 -24 -25 55 34 -28 43 -30 30 -32 32 35 -35 -36 36 -38 -39 -40 -41 59 -43 -44 -45 45 -47 -48 -49 -50 -51 -52 -53 -54 54 -56 -57 -58 -59 -60 -61 -62 -63
leaf_value=-0.080399053509843901 -0.0031981451524365268 -0.02615898376744398 0.029291109151482076 -0.080399053509843901 -0.03196217017492782 -0.01399238277752426 -0.037393297807113611 0.011392064570727079 -0.10895561021154113 -0.018796342388605416 0.00029938868053500659 0.068973308000506647 0.022251760823767164 0.015147497555967983 -0.098685391128654612 0.12893778122401586 0.13692931287449098 0.016508663237230128 -0.0034338443590328227 0.046492852153549459 0.023460144015921381 -0.09797611388474238 0.047763774355664701 0.078620990480216035 0.14009025540051309 -0.045741694386613921 0.14486218555338223 0.039060708077162332 0.13580775617532376 0.17859642438135981 -0.11261291460253356 -0.079820332159108845 0.13007914889359329 0.13532288428582451 -0.032221858338964827 0.1173750264131783 0.12764019347069253 -0.080399053509843901 -0.080399053509843901 0.0062460073436700347 0.065473991157741329 -0.035616160249874365 0.070890490813776283 0.030511857149986013 -0.093959572527120422 0.046115980920241585 0.051752489027376572 -0.0059582101536357346 0.011951236314520797 -0.02589666061184899 0.12833833167186467 -0.080399053509843901 -0.080399053509843901 0.02948665518106355 -0.099552311361766191 0.017046923583115072 0.010372678695249172 -0.098991209788883247 0.12669445664751253 0.031361571167216121 -0.10236315518395352 0.029737761858531588
leaf_weight=9027 99022 248699 75808 10721 36150 153662 4974 61550 661 63896 61422 41991 40129 9262 5098 2685 7031 191277 92431 6456 26501 9368 8944 1980 8122 424025 2392 97881 238253 4651 4654 7625 179880 1845 169220 9169 39822 7550 8204 99964 2689 5158 95511 168105 8530 6648 1186 89680 36975 135386 18987 2436971 147457 12949 1509 4720 39354 1101 2317609 71083 2721 46360
leaf_count=9027 99022 248699 75808 10721 36150 153662 4974 61550 661 63896 61422 41991 40129 9262 5098 2685 7031 191277 92431 6456 26501 9368 8944 1980 8122 424025 2392 97881 238253 4651 4654 7625 179880 1845 169220 9169 39822 7550 8204 99964 2689 5158 95511 168105 8530 6648 1186 89680 36975 135386 18987 2436971 147457 12949 1509 4720 39354 1101 2317609 71083 2721 46360
internal_value=0.00038377 -0.0197289 0.0208372 0.0113014 -0.0226935 -0.00876038 -0.0237518 0.0143256 0.0237233 -0.0119168 -0.00383407 0.019808 0.0040386 -0.0183872 0.0121331 0.0151084 0.00818617 0.0148061 -0.00662463 -0.00569067 0.0213222 0.0177305 0.00142174 -0.0119827 0.00464493 -0.018789 -0.00436309 0.0158357 0.0232335 0.0150891 0.00172219 0.0244505 0.0216863 -0.0142608 -0.0192692 0.0231262 0.018067 0.00220258 -0.00993328 0.00144784 0.0137715 -0.000846047 0.0204443 0.0177933 0.014839 -0.00115497 -0.0147748 -0.0063239 0.00314517 -0.0141531 0.0214195 -0.0238988 -0.0211329 -0.00516812 0.00706183 0.0147368 0.0105246 0.00829371 0.0247346 0.0178941 0.00349631 0.00955704
internal_weight=8.22269e+06 4.14588e+06 4.07681e+06 947220 3.26373e+06 882151 2.61992e+06 668751 3.12959e+06 537661 344490 490279 278469 643815 80769 69215 12005 658030 246093 11554 409510 142304 20292 11348 27224 629395 14382 550120 267206 28953 9305 2.63931e+06 245891 9470 593245 236421 56541 16719 11990 198986 267770 14420 122012 282350 114245 16364 9716 153576 98397 384085 19648 2.60791e+06 170942 23485 14458 12842 79483 3786 2.39342e+06 76493 5410 107910
internal_count=8222691 4145884 4076807 947220 3263733 882151 2619918 668751 3129587 537661 344490 490279 278469 643815 80769 69215 12005 658030 246093 11554 409510 142304 20292 11348 27224 629395 14382 550120 267206 28953 9305 2639308 245891 9470 593245 236421 56541 16719 11990 198986 267770 14420 122012 282350 114245 16364 9716 153576 98397 384085 19648 2607913 170942 23485 14458 12842 79483 3786 2393417 76493 5410 107910
cat_boundaries=0 2 3 5 6 7 8 9 10 11 12 14 15 17 18
cat_threshold=855646120 1 4202496 2226806855 1 4194304 1074012160 4194304 1073840192 201949248 3234627717 4194304 2749528641 1183 1208320064 1545209268 1309216 2151677952
is_linear=0
shrinkage=0.05


Tree=8
num_leaves=63
num_cat=15
split_feature=17 17 17 19 19 8 19 4 13 4 8 13 6 8 1 8 30 8 19 13 15 8 5 1 21 3 26 1 4 19 19 13 8 1 24 19 8 3 31 27 28 29 31 31 8 13 34 34 1 8 34 34 8 12 8 8 30 31 15 31 34 12
split_gain=1.32976e+06 53215.4 50430.3 7324.28 6704.36 5789.09 5109.76 4752.1 3333.53 2540.25 1810.01 1602.2 1405.07 1803.22 1300.42 1073.99 1258.55 1168.57 1059.88 1043.04 915.118 914.688 850.789 2236.9 1306.46 907.04 840.582 4264.98 1059.94 821.065 777.049 844.678 706.892 1022.86 858.768 659.373 637.377 1213.34 2389.95 1608.35 1064.82 694.235 1016.47 1543.24 1116.83 579.483 573.557 518.558 515.098 513.603 452.627 613.715 610.239 451.422 519.198 440.317 422.799 502.004 1059.98 422.603 420.371 416.786
threshold=10.148214340209963 3.0599285364151005 36.436641693115241 15.009303569793703 6.4344463348388681 0 1.3392856717109682 1.0000000180025095e-35 1.1940000057220461 1.0000000180025095e-35 1 5.0164999961853036 93.909999847412124 2 18.500000000000004 3 93.736431121826186 4 11.717392921447756 1.0000000180025095e-35 9.0179996490478533 5 1.0000000180025095e-35 1.5000000000000002 1.0000000180025095e-35 2014.5000000000002 5.5000000000000009 24.500000000000004 1.0000000180025095e-35 9.0054106712341326 4.8733036518096933 19.003999710083011 6 17.500000000000004 -7.4999999999999991 68.459892272949233 7 2013.5000000000002 106.07303619384767 1.0000000180025095e-35 4240.5000000000009 1623.5000000000002 58.697322845458991 99.279464721679702 8 1.0000000180025095e-35 17.500000000000004 21.500000000000004 20.500000000000004 9 26.500000000000004 27.500000000000004 10 11 12 13 103.17428588867189 95.103752136230483 1.0000000180025095e-35 37.06428527832032 21.500000000000004 14
decision_type=2 2 2 2 2 1 2 2 2 2 1 2 2 1 2 1 2 1 2 2 2 1 2 2 8 2 2 2 2 2 2 2 1 2 2 2 1 2 2 8 10 10 2 2 1 2 2 2 2 1 2 2 1 1 1 1 2 2 2 2 2 1
left_child=1 6 3 18 30 19 7 11 -7 12 -9 36 21 61 20 16 -5 -18 -2 -4 46 -10 35 24 25 -24 -25 -28 59 -6 31 -3 33 34 -8 -21 37 -1 40 53 41 -39 -43 44 -44 -31 -15 -16 -46 -23 -51 52 -52 -40 -55 -13 57 -36 -59 -29 -35 -14
right_child=2 4 5 15 29 8 32 10 9 -11 -12 55 13 14 47 -17 17 -19 -20 22 -22 49 23 26 -26 -27 27 28 -30 45 -32 -33 -34 60 56 -37 -38 38 39 -41 -42 42 43 -45 48 -47 -48 -49 -50 50 51 -53 -54 54 -56 -57 -58 58 -60 -61 -62 -63
leaf_value=-0.076379100834351704 0.0002916512093884549 -0.024961674263368084 -0.076379100834351704 0.020447895989428422 -0.0083136824370442456 -0.076379100834351704 0.054245214056905411 0.13521268243595744 0.11069420914872308 0.11839795759600864 -0.029405130558687733 0.015717800105589708 0.03332429912007525 0.13970630160380867 0.13267003858616561 0.02021528877384662 0.018436463493860366 -0.093657970322035489 0.009195092216383682 0.031276451702558709 -0.076379100834351704 -0.035800788361408119 0.10005955780955544 0.1214957007310032 0.12128007496806376 -0.075829315551153409 0.12109017262558053 0.090327189133099992 0.12272819135349966 -0.090140968377490249 -0.015956622356064133 0.027060095718821266 -0.04345460966728322 -0.082515832174397105 -0.078830146569586368 0.12284794163221453 -0.076379100834351704 -0.076379100834351704 0.029873648089177276 -0.076379100834351704 0.034534731873079094 -0.076379100834351704 -0.041721741711121724 -0.076379100834351704 0.022921730252430342 0.00082322867612354416 -0.10740418769077037 -0.014915222145572615 -0.076379100834351704 0.051198107848839741 -0.084118510735671281 0.039866446819548165 0.047190265598684736 0.10889362975240434 -0.028283891278498507 -0.045863469425827176 -0.088690221906448985 0.10004488449938456 -0.078830146569586368 -0.076379100834351704 -0.027665191085567798 0.057185018242021005
leaf_weight=539003 146497 318607 1922 197117 239148 6174 5775 6574 152233 176380 7008 4875 12994 3521 7680 321003 31519 9519 140841 178674 13019 1220 1556 178653 10528 6814 41731 587 1746 8776 215008 3444 436310 15780 4178 2252941 1476228 570277 5990 8773 2853 46207 6901 25510 12815 121498 1121 3667 4842 130721 3375 5241 1732 2994 7514 2397 4509 4307 5780 8345 2908 56831
leaf_count=539003 146497 318607 1922 197117 239148 6174 5775 6574 152233 176380 7008 4875 12994 3521 7680 321003 31519 9519 140841 178674 13019 1220 1556 178653 10528 6814 41731 587 1746 8776 215008 3444 436310 15780 4178 2252941 1476228 570277 5990 8773 2853 46207 6901 25510 12815 121498 1121 3667 4842 130721 3375 5241 1732 2994 7514 2397 4509 4307 5780 8345 2908 56831
internal_value=0.000399228 -0.0196813 0.020533 0.00965953 -0.00898328 0.0233569 -0.0227021 -0.023538 0.0188065 0.0192028 0.00596378 -0.0236855 0.0169672 0.0118086 0.00132676 0.0129936 0.0104475 0.00248185 0.00317153 0.0243334 -0.00715843 0.0186983 0.0243598 0.0215821 0.00504286 -0.00970131 0.0229348 0.0173668 -0.0108307 -0.00379864 -0.0125496 -0.0141036 -0.0179419 -0.0118326 -0.00512546 0.0246454 -0.0237484 -0.0229064 -0.0215254 -0.00643128 -0.0220952 -0.0222256 -0.0182984 -0.0133628 -0.00441608 -0.000604879 0.0119022 0.0145347 0.0022542 0.0158105 0.0160905 0.00602532 -0.00630997 0.002767 -0.00347975 -0.000247525 -0.0103121 -0.00609359 -5.70041e-05 -0.0177956 -0.0206496 0.0161606
internal_weight=8.22269e+06 4.11679e+06 4.1059e+06 846496 906481 3.25941e+06 3.21031e+06 2.73076e+06 575909 569735 13582 2.71718e+06 393355 98833 29008 559158 238155 41038 287338 2.6835e+06 17661 294522 2.68158e+06 249960 18898 8370 231062 52409 10678 369422 537059 322051 479547 43237 24549 2.43162e+06 2.70991e+06 1.23368e+06 694676 25271 669405 666552 96275 50068 24558 130274 4642 11347 17657 142289 141069 10348 5107 16498 10508 7272 18774 14265 10087 8932 18688 69825
internal_count=8222691 4116789 4105902 846496 906481 3259406 3210308 2730761 575909 569735 13582 2717179 393355 98833 29008 559158 238155 41038 287338 2683497 17661 294522 2681575 249960 18898 8370 231062 52409 10678 369422 537059 322051 479547 43237 24549 2431615 2709907 1233679 694676 25271 669405 666552 96275 50068 24558 130274 4642 11347 17657 142289 141069 10348 5107 16498 10508 7272 18774 14265 10087 8932 18688 69825
cat_boundaries=0 2 3 4 5 6 7 8 10 12 13 14 15 16 17 18
cat_threshold=922754984 1 1933844392 6365184 3227287621 1078984705 1075060800 1074102272 1278074949 1 16388 1 2147483648 4194304 74938 1074036736 201949248 19012
is_linear=0
shrinkage=0.05


Tree=9
num_leaves=63
num_cat=13
split_feature=17 17 13 17 20 17 16 13 16 20 8 8 2 6 8 17 5 2 1 26 1 2 2 16 24 8 1 8 7 8 2 27 24 31 2 27 17 2 31 1 8 17 13 13 30 8 1 34 8 16 17 34 34 22 2 6 17 8 7 34 16 8
split_gain=1.30509e+06 62810.3 46247.2 7271.81 5978.07 5565.93 4094.14 3233.91 2036.42 1324.58 1182.53 1161.45 1099.47 2333.78 1032.06 961.239 879.803 5825.68 1197.97 929.492 4554.26 2316.56 801.105 746.767 738.568 978.56 978.011 725.065 679.825 592.739 2651.2 2463.97 669.775 661.993 3544.12 946.051 585.442 584.581 3705.57 626.258 552.255 513.787 507.65 486.787 450.093 612.471 1071.61 440.381 429.138 414.995 406.955 401.76 707.26 400.856 1150.28 1018.26 382.681 369.006 354.153 326.621 326.208 317.378
threshold=11.007214546203615 2.6125713586807255 40.420000076293952 6.4380712509155282 1.2511876821517947 16.860214233398441 49.000499725341804 1.0000000180025095e-35 10.028500080108644 3.4225171804428105 0 1 8.5000000000000018 95.259998321533217 2 8.4474287033081072 1.0000000180025095e-35 1.5000000000000002 1.5000000000000002 5.5000000000000009 24.500000000000004 11.500000000000002 4.5000000000000009 5.0030000209808358 -1.0000000180025095e-35 3 24.500000000000004 4 5 6 1.5000000000000002 2.8102087526349354e-05 -1.0000000180025095e-35 106.07303619384767 7.5000000000000009 1.0000000180025095e-35 31.722713470458988 3.5000000000000004 99.602500915527358 24.500000000000004 7 1.0000000180025095e-35 1.1940000057220461 18.004499435424808 93.867141723632827 8 17.500000000000004 7.5000000000000009 9 10.028500080108644 13.572071075439455 26.500000000000004 27.500000000000004 1.0000000180025095e-35 5.5000000000000009 58.61000061035157 4.7158572673797616 10 11 21.500000000000004 5.0030000209808358 12
decision_type=2 2 2 2 2 2 2 2 2 2 1 1 2 2 1 2 2 2 2 2 2 2 2 2 2 1 2 1 1 1 2 8 2 2 2 8 2 2 2 2 1 2 2 2 2 1 2 2 1 2 2 2 2 10 2 2 2 1 1 2 2 1
left_child=1 4 5 9 29 23 14 -7 44 56 51 12 37 -14 -4 -5 -12 18 -18 -19 -21 -22 24 -2 61 26 -26 28 -10 30 31 32 57 42 35 48 -29 38 -6 49 -15 -39 53 -11 -9 46 47 -46 -35 -40 -25 -8 -53 -32 -55 -56 -3 -1 -50 -48 -17 -16
right_child=2 3 6 15 11 7 10 8 27 43 16 -13 13 40 22 60 17 19 -20 20 21 -23 -24 50 25 -27 -28 36 -30 -31 33 -33 -34 34 -36 -37 -38 41 39 -41 -42 -43 -44 -45 45 -47 59 -49 58 -51 -52 52 -54 54 55 -57 -58 -59 -60 -61 -62 -63
leaf_value=0.15003452160051178 0.0012461265064763972 -0.025754539085195829 0.034742847837369806 -0.0088781437159095589 -0.08037011743440875 -0.072560145792634118 0.077600844930633267 0.017809832355416222 0.017802738684836197 -0.016627354893353909 0.11594389255780596 -0.043014747140080557 -0.039373002924715045 -0.027061474252437136 0.11912721215603353 -0.0052946227391368565 -0.083612276788296802 0.12188269797687817 0.11176222656513449 0.12122606516474153 0.11273472780596323 -0.072560145792634118 0.050498669859181167 0.0061365503959456948 -0.072560145792634118 0.029193582940930177 0.14954199479631161 0.019702966725717055 0.02651437851554438 -0.072560145792634118 -0.072560145792634118 -0.072560145792634118 -0.090755740751960301 0.13940364270408795 -0.072560145792634118 -0.072560145792634118 0.028681918881540282 -0.087765654936395238 0.004530755976441714 -0.07602588170495711 0.032746656339261729 -0.039373002924715045 -0.0049782955023356503 0.024652482392199526 0.019106042593776351 0.017865034246943801 0.026982464232798889 -0.097024664071158853 0.02647860971779277 0.085586484323763534 0.012630094524710089 -0.07991258519888772 0.061484461034542331 -0.072560145792634118 -0.072560145792634118 0.047334621014922043 -0.01743543745344214 0.011391020407013563 -0.010046089031391814 -0.095194595718363098 0.0010765249163438683 0.023765117245111191
leaf_weight=3440 71382 283509 120704 222103 37738 9052 76555 80987 56978 240443 2482315 353007 25912 2225 10536 77782 8208 196534 2061 43754 3358 8154 87531 104911 7319 12572 1671 154467 200006 2053735 413466 10945 1497 3586 48402 2725 127891 30069 6151 1761 12573 32763 3421 3146 1352 23002 5013 6179 3702 6886 119419 2938 2922 48849 6023 4427 100569 9349 5949 1019 118443 19305
leaf_count=3440 71382 283509 120704 222103 37738 9052 76555 80987 56978 240443 2482315 353007 25912 2225 10536 77782 8208 196534 2061 43754 3358 8154 87531 104911 7319 12572 1671 154467 200006 2053735 413466 10945 1497 3586 48402 2725 127891 30069 6151 1761 12573 32763 3421 3146 1352 23002 5013 6179 3702 6886 119419 2938 2922 48849 6023 4427 100569 9349 5949 1019 118443 19305
internal_value=0.000413335 -0.0192023 0.0206419 -0.00859538 -0.0227485 0.0110677 0.023625 0.0136025 0.0140115 -0.0119988 0.0241769 -0.0177907 -0.0141946 -0.00713093 0.0176163 -0.00348877 0.0243543 0.0215992 -0.0153155 0.0231046 0.017376 -0.0106063 0.0146732 0.00535927 0.00971976 0.00266905 -0.00992222 0.0153112 0.0133865 -0.023712 -0.0222735 -0.00643157 0.00724486 -0.0230133 -0.018254 0.00217705 0.0170618 -0.0166883 -0.012796 0.00840992 0.00871064 -0.0199429 -0.0236566 -0.00911464 0.00804835 0.00344387 -0.00498232 -0.0175641 0.00770001 0.0121903 0.00677662 0.0182642 0.00564846 -0.0237955 -0.019951 -0.00489474 -0.0138281 0.0109489 0.00219698 0.0107178 -0.000938846 0.0148143
internal_weight=8.22269e+06 4.1746e+06 4.0481e+06 1.046e+06 3.1286e+06 961658 3.08644e+06 665946 656894 627667 2.8268e+06 509085 156078 40710 259638 418328 2.74438e+06 262069 10269 251800 55266 11512 138934 295712 51403 21562 8990 539342 256984 2.61952e+06 565781 25231 14286 540550 64364 15962 282358 115368 52536 14798 14798 62832 476186 243589 117552 36565 13563 7531 13237 13037 224330 82415 5860 472765 59299 10450 384078 12789 9651 6032 196225 29841
internal_count=8222691 4174596 4048095 1045995 3128601 961658 3086437 665946 656894 627667 2826799 509085 156078 40710 259638 418328 2744384 262069 10269 251800 55266 11512 138934 295712 51403 21562 8990 539342 256984 2619516 565781 25231 14286 540550 64364 15962 282358 115368 52536 14798 14798 62832 476186 243589 117552 36565 13563 7531 13237 13037 224330 82415 5860 472765 59299 10450 384078 12789 9651 6032 196225 29841
cat_boundaries=0 1 2 4 5 6 8 9 10 11 12 13 15 16
cat_threshold=2354610240 1210949696 855646120 1 1074528256 3237576709 3808754241 2360324 1210417216 2105344 201949248 1074003968 1074003968 1492 522466 1074069504
is_linear=0
shrinkage=0.05


Tree=10
num_leaves=63
num_cat=16
split_feature=17 17 13 17 17 20 4 16 13 16 8 17 8 24 8 20 8 5 2 1 26 1 2 17 2 24 8 1 2 2 17 24 6 16 6 2 8 28 24 17 13 8 21 4 21 6 8 1 8 24 4 7 7 8 16 8 22 6 24 8 8 7
split_gain=1.26714e+06 63989.6 48407.3 7660.68 5698.02 5507.37 5711.05 3799.03 3142.46 2130.48 1451.84 1377.93 1086.01 1005.34 997.143 939.91 936.264 875.531 5732.55 1174.73 914.057 4481.93 2254.59 833.367 726.07 727.201 945.371 923.022 696.591 2699.15 1306.99 882.357 771.685 690.154 641.622 611.187 2616.26 2195.95 634.457 539.265 531.356 466.009 444.402 444.321 441.866 436.658 772.774 1084.75 412.113 403.978 374.506 369.881 365.627 357.55 354.216 320.669 319.419 751.802 999.439 880.37 313.409 305.281
threshold=11.007214546203615 2.1449999809265141 45.005500793457038 5.7925715446472177 16.860214233398441 0.89826282858848583 1.0000000180025095e-35 57.009500503540046 1.0000000180025095e-35 12.004499912261965 0 8.1670002937316912 1 -21.499999999999996 2 3.3387852907180791 3 1.0000000180025095e-35 1.5000000000000002 1.5000000000000002 5.5000000000000009 24.500000000000004 11.500000000000002 32.838357925415046 4.5000000000000009 -1.0000000180025095e-35 4 24.500000000000004 2.5000000000000004 3.5000000000000004 1.0000000180025095e-35 17.500000000000004 95.259998321533217 6.0374999046325692 95.259998321533217 1.5000000000000002 5 652.50000000000011 -1.0000000180025095e-35 1.0000000180025095e-35 17.001500129699711 6 1.2723888754844668 1.0000000180025095e-35 0.39673796296119695 93.909999847412124 7 17.500000000000004 8 1.0000000180025095e-35 3.5000000000000004 9 10 11 1.0000000180025095e-35 12 14.53989362716675 58.61000061035157 -7.4999999999999991 13 14 15
decision_type=2 2 2 2 2 2 2 2 2 2 1 2 1 2 1 2 1 2 2 2 2 2 2 2 2 2 1 2 2 2 2 2 2 2 2 2 1 10 2 2 2 1 10 2 10 2 1 2 1 2 2 1 1 1 2 1 8 2 2 1 1 1
left_child=1 5 4 15 33 6 35 12 -6 45 13 43 -4 34 -9 50 -8 -16 19 -19 -20 -22 -23 60 25 -14 27 54 -15 30 -30 39 -33 -2 -7 36 37 -1 48 -31 -17 51 -35 -5 -13 52 47 49 -39 -47 55 -25 -10 -34 -27 -3 57 -37 59 -59 -11 -50
right_child=2 3 7 11 8 10 16 14 9 23 -12 44 24 28 17 40 -18 18 20 -21 21 22 -24 41 -26 26 -28 -29 29 31 -32 32 53 42 -36 56 -38 38 -40 -41 -42 -43 -44 -45 -46 46 -48 -49 61 -51 -52 -53 -54 -55 -56 -57 -58 58 -60 -61 -62 -63
leaf_value=-0.068932138503002408 0.0019282280146602827 -0.034579330304620792 0.03323399282434767 -0.010554066960611674 -0.068932138503002408 -0.03740435277847929 0.12760430684172158 0.07284798546590221 0.012843744593077844 0.017891278617623563 -0.041146884107893737 -0.0030952074602360602 0.043744242599469269 -0.077906603202628363 0.11215446846824573 -0.01850160014202833 -0.021146374404726821 -0.079431662948881959 0.11765653586343444 0.10828521638739047 0.11747231362897043 0.10914350036775083 -0.068932138503002408 0.026553960601510097 0.051786344488937333 -0.083537363180860386 0.031690262152796356 0.14049630952987249 0.039196224391055828 -0.083377372189575472 -0.028596312023964777 -0.041808732194035338 -0.034274779379772427 0.0083840193785701175 0.021923135681901795 -0.068932138503002408 -0.068932138503002408 0.14267170355437872 -0.086217953714362278 -0.036007647335933923 0.026504966075934267 0.026513076481317024 0.018335917188124617 0.0024020059077335511 0.0091864821615293534 0.0057557890386592762 0.017717758321376665 0.020493745820868492 0.030601417537793486 -0.092742679394912098 0.045392535706998784 0.038998806978208171 0.019344580007328083 0.032393102481215033 0.0048865709300763508 -0.022847910028021036 -0.068932138503002408 -0.068932138503002408 -0.068932138503002408 0.046244184268092452 0.01892273248564378 -0.0020213684397711431
leaf_weight=8879 86821 38661 140000 274490 8992 5162 6749 73917 42416 29375 451589 210727 29316 33376 2424907 196614 3571 8050 191425 2003 42717 3257 8008 25537 84847 5682 11588 1704 11888 33641 6488 5813 1301 188002 7565 109751 132398 3525 1476 57647 2813 164677 20364 15794 14792 2033 30480 6369 3554 5901 842 76495 68732 5297 1862 379782 2122354 2621 15820 4794 261032 5752
leaf_count=8879 86821 38661 140000 274490 8992 5162 6749 73917 42416 29375 451589 210727 29316 33376 2424907 196614 3571 8050 191425 2003 42717 3257 8008 25537 84847 5682 11588 1704 11888 33641 6488 5813 1301 188002 7565 109751 132398 3525 1476 57647 2813 164677 20364 15794 14792 2033 30480 6369 3554 5901 842 76495 68732 5297 1862 379782 2122354 2621 15820 4794 261032 5752
internal_value=0.000509092 -0.018814 0.0204483 -0.00868021 0.011011 -0.0225947 -0.0236712 0.0236173 0.0134037 0.0137742 -0.018389 -0.00418033 0.0180136 -0.0144193 0.0241768 -0.0124316 0.0134448 0.024335 0.0215509 -0.0154556 0.0230669 0.0173206 -0.0107346 0.0152201 0.0148088 0.0100405 0.00289883 -0.00901923 -0.0155263 -0.0137762 0.0038855 -0.0169059 -0.00439731 0.00515834 -0.000909484 -0.0238301 -0.0207991 -0.00529617 0.00682358 -0.0186065 -0.0096059 0.017238 0.00671895 -0.00645816 -0.00124834 0.00860813 0.00443974 -0.00514742 0.0103947 -0.017488 -0.0137757 0.0145749 0.0102876 0.00730524 -0.0165363 -0.0138427 -0.0240392 -0.0216621 -0.0134915 0.00165543 0.0133668 0.00485723
internal_weight=8.22204e+06 4.17553e+06 4.04651e+06 1.13452e+06 1.01723e+06 3.04101e+06 2.42124e+06 3.02928e+06 722039 713047 619767 515803 274999 168178 2.75428e+06 618712 10320 2.68037e+06 255460 10053 245407 53982 11265 557116 134999 50152 20836 9248 155451 122075 18376 103699 12411 295187 12727 2.41092e+06 155584 23186 14307 91288 199427 266709 208366 290284 225519 155931 44783 14303 12831 7934 419285 102032 111148 6598 7544 418443 2.25534e+06 132986 23235 7415 290407 9306
internal_count=8222035 4175526 4046509 1134515 1017226 3041011 2421244 3029283 722039 713047 619767 515803 274999 168178 2754284 618712 10320 2680367 255460 10053 245407 53982 11265 557116 134999 50152 20836 9248 155451 122075 18376 103699 12411 295187 12727 2410924 155584 23186 14307 91288 199427 266709 208366 290284 225519 155931 44783 14303 12831 7934 419285 102032 111148 6598 7544 418443 2255340 132986 23235 7415 290407 9306
cat_boundaries=0 1 3 4 5 6 7 8 9 10 12 14 15 16 18 19 21
cat_threshold=2033034049 855646120 1 2287566912 2068062120 1074528320 1208320064 3236462725 201949248 1074003968 3792566849 2360469 3276797697 3146765 2105345 147474 2423439756 1 3225419781 1460 522354
is_linear=0
shrinkage=0.05


Tree=11
num_leaves=63
num_cat=3
split_feature=17 17 13 19 20 19 16 13 21 19 19 5 2 26 26 2 26 20 19 17 3 31 7 28 13 19 13 34 13 31 2 2 2 20 19 13 19 20 19 19 19 19 21 20 34 24 2 31 2 21 2 6 28 21 7 21 20 34 34 7 20 16
split_gain=1.24292e+06 70129.2 48057 8945.85 6575.45 6435.82 3693.22 3420.2 2014.25 1612.16 1225.41 889.28 5699.57 1180.17 915.381 2661.15 3998.81 873.085 864.68 846.695 678.586 2479.29 1262.49 687.32 673.62 666.829 746.336 637.625 632.951 608.108 1072.03 1917.61 1113.72 849.15 581.051 543.882 542.632 522.206 468.229 454.864 425.91 403.031 391.654 442.588 509.589 497.595 753.98 617.196 385.858 376.372 374.737 1719.78 1054.04 369.371 347.032 326.877 364.48 356.791 341.147 326.19 326.079 325.352
threshold=11.428643226623537 2.324714303016663 50.01049995422364 6.4344463348388681 0.89826282858848583 16.647588729858402 67.006500244140639 1.0000000180025095e-35 0.22078755497932437 34.196428298950202 9.2973928451538104 1.0000000180025095e-35 1.5000000000000002 -1.4999999999999998 5.5000000000000009 11.500000000000002 6.5000000000000009 16.894611358642582 12.612821102142336 4.4711427688598642 2013.5000000000002 105.9573211669922 0 5281.5000000000009 10.001500129699709 2.0521072149276738 6.0085000991821298 11.500000000000002 1.0000000180025095e-35 95.103752136230483 8.5000000000000018 3.5000000000000004 2.5000000000000004 4.092757225036622 1.0000000180025095e-35 16.0004997253418 45.280107498168952 4.9898705482482919 83.453430175781264 3.7321428060531621 21.944356918334964 1.0000000180025095e-35 0.16465033590793612 55.570648193359382 12.500000000000002 2.5000000000000004 2.5000000000000004 97.931606292724624 6.5000000000000009 4.5732152462005624 1.5000000000000002 97.055000305175795 652.50000000000011 1.0751250982284548 1 1.6815916895866396 29.013372421264652 26.500000000000004 27.500000000000004 2 9.7361645698547381 2.0069999694824223
decision_type=2 2 2 2 2 2 2 2 10 2 2 2 2 2 2 2 2 2 2 2 2 2 1 10 2 2 2 2 2 2 2 2 2 2 2 2 2 2 2 2 2 2 10 2 2 2 2 2 2 10 2 2 10 10 1 10 2 2 2 1 2 2
left_child=1 4 5 19 8 18 36 -7 20 17 49 38 13 -13 -14 -16 -17 40 59 35 -1 23 -23 50 -11 26 -6 -27 -12 -29 31 32 -31 -32 -10 39 -4 -34 -8 -3 -9 48 43 -38 -45 -46 61 -48 -24 -5 51 -22 -53 -30 -50 56 -26 -58 -59 -2 -20 -47
right_child=2 3 6 10 25 7 11 9 34 24 28 12 14 -15 15 16 -18 -19 60 -21 21 22 41 -25 55 27 -28 29 53 30 33 -33 37 -35 -36 -37 42 -39 -40 -41 -42 -43 -44 44 45 46 47 -49 54 -51 -52 52 -54 -55 -56 -57 57 58 -60 -61 -62 -63
leaf_value=-0.065485531577852293 0.0059946447185893264 -0.025811017010899485 0.022590106555461009 -0.0074243922543549834 -0.038806665577681844 -0.065485531577852293 0.024425733185111209 0.015046586714798905 0.090941367819078231 0.026110744195881774 -0.083877472206846604 0.10591923246926604 0.11313483596998196 -0.07546007980143786 0.1094870185170926 -0.065485531577852293 0.1247630479241742 0.01507843583413775 0.010587015902504084 -0.015613588050423967 -0.065485531577852293 -0.065485531577852293 -0.077698694937390012 -0.0037948285913143478 0.023901018181836809 -0.066147203604567981 0.00033314342924255507 -0.039934517810725913 0.0015343658799591875 -0.07422505824767206 -0.021695767244959863 -0.078223057164514553 -0.014022633511936401 0.053752385719303367 -0.03763365084223539 0.023019431310424956 0.028462592320569191 0.064559253289318927 0.10927203629696967 -0.01804774180174391 0.019465393233879837 -0.065485531577852293 0.044148387244308189 0.095213590211283061 0.078718258603607469 -0.079360495021817357 0.083029109892740094 -0.037833510777177809 0.015807534322619544 0.0038319795331660969 -0.065485531577852293 -0.065485531577852293 -0.034560662337487516 0.012991529859582275 -0.032561040410783802 0.033515200359469664 0.035080598711664711 -0.078267948827785885 0.024133282312850026 -0.00232491727970352 0.0051083924523060769 0.012149436615952381
leaf_weight=899393 56964 221433 41641 262864 461789 10045 50392 160376 3439 20473 10149 2005 191294 8061 37770 7985 8206 87289 126912 303995 108160 18832 1957 3359 153930 72192 5002 61213 152190 3960 4431 25598 2691 6885 1343 2192 120880 7092 2368093 149463 184953 2891 58987 33152 27000 2589 8659 5513 11993 15079 1314859 12250 29865 11899 12903 51228 98170 3855 3976 58855 29903 1518
leaf_count=899393 56964 221433 41641 262864 461789 10045 50392 160376 3439 20473 10149 2005 191294 8061 37770 7985 8206 87289 126912 303995 108160 18832 1957 3359 153930 72192 5002 61213 152190 3960 4431 25598 2691 6885 1343 2192 120880 7092 2368093 149463 184953 2891 58987 33152 27000 2589 8659 5513 11993 15079 1314859 12250 29865 11899 12903 51228 98170 3855 3976 58855 29903 1518
internal_value=0.00048748 -0.0185301 0.0203597 -0.00787535 -0.0224467 0.0111469 0.0236032 0.0134731 -0.023646 0.0138541 -0.00242972 0.0241933 0.0213869 -0.0154878 0.0229003 0.017149 0.00018992 0.0118435 0.00454034 -0.0115121 -0.0237102 -0.023065 -0.0119514 -0.0234326 0.016477 -0.0179851 -0.01899 -0.0154364 0.000857735 -0.0130723 -0.00901998 -0.012921 0.00214473 0.00454224 0.00877248 -0.0131082 0.0183421 0.0112006 0.0244896 -0.0132549 0.0129728 -0.00553035 0.019196 0.0181369 0.0152118 0.0117632 0.0053928 0.0108594 -0.0036225 -0.00449058 -0.0234844 -0.0211191 -0.0125472 0.00160721 -0.00194208 0.017055 0.0163356 0.0140793 0.00380858 0.00126383 0.00696027 -0.0134709
internal_weight=8.22204e+06 4.20136e+06 4.02067e+06 1.12926e+06 3.0721e+06 1.04693e+06 2.97374e+06 774295 2.42124e+06 764250 452181 2.67381e+06 255321 10066 245255 53961 16191 432618 272634 677083 2.41646e+06 1.51707e+06 48576 1.46849e+06 331632 650853 466791 184062 174238 111870 50657 39341 13743 11316 4782 373088 299939 9783 2.41848e+06 370896 345329 29744 258298 199311 78431 45279 18279 14172 26853 277943 1.46513e+06 150275 42115 164089 24896 311159 259931 106001 7831 115819 156815 4107
internal_count=8222035 4201361 4020674 1129264 3072097 1046929 2973745 774295 2421244 764250 452181 2673806 255321 10066 245255 53961 16191 432618 272634 677083 2416462 1517069 48576 1468493 331632 650853 466791 184062 174238 111870 50657 39341 13743 11316 4782 373088 299939 9783 2418485 370896 345329 29744 258298 199311 78431 45279 18279 14172 26853 277943 1465134 150275 42115 164089 24896 311159 259931 106001 7831 115819 156815 4107
cat_boundaries=0 2 4 6
cat_threshold=2998435840 2621956 1526 522610 2962228724 490034
is_linear=0
shrinkage=0.05


Tree=12
num_leaves=63
num_cat=15
split_feature=17 17 13 17 20 4 17 0 16 13 0 0 16 8 8 24 8 16 17 0 8 5 1 4 30 26 1 4 7 7 7 15 34 30 31 15 8 0 4 1 28 0 8 8 8 31 31 16 0 8 7 34 30 15 8 7 24 31 24 27 30 30
split_gain=1.21939e+06 72423.3 50561.4 8174.2 5889.87 5554.55 5278.7 3974.3 3940.34 3120.53 2715.7 2650.66 1369.69 1211.29 1110.4 1057.24 982.117 945.758 888.463 874.11 1784.94 868.203 2466.43 1193.31 1351.67 865.627 4294.31 992.435 803.895 745.151 720.513 653.323 646.833 650.387 985.706 757.047 608.616 2495.97 601.176 595.794 584.341 568.774 551.828 539.251 532.868 528.647 513.064 512.231 502.185 659.282 483.685 483.252 707.136 961.193 481.101 456.495 449.359 885.805 810.857 771.363 566.113 878.444
threshold=11.428643226623537 1.918285667896271 52.002500534057624 5.7925715446472177 0.93858957290649425 1.0000000180025095e-35 22.440500259399418 4.5000000000000009 76.005001068115249 1.0000000180025095e-35 4.5000000000000009 4.5000000000000009 12.004499912261965 0 1 -21.499999999999996 2 9.0015001296997088 8.4474287033081072 5.5000000000000009 3 1.0000000180025095e-35 1.5000000000000002 1.0000000180025095e-35 69.002861022949233 5.5000000000000009 24.500000000000004 1.0000000180025095e-35 4 5 6 26.006999969482425 18.500000000000004 95.132141113281264 103.29803466796876 1.0000000180025095e-35 7 5.5000000000000009 1.0000000180025095e-35 14.500000000000002 5281.5000000000009 3.5000000000000004 8 9 10 95.45035552978517 37.06428527832032 32.003000259399421 5.5000000000000009 11 12 13.500000000000002 93.867141723632827 87.007499694824233 13 14 1.5000000000000002 106.27482223510744 -8.4999999999999982 1.0000000180025095e-35 106.81928634643556 106.21857070922853
decision_type=2 2 2 2 2 2 2 2 2 2 2 2 2 1 1 2 1 2 2 2 1 2 2 2 2 2 2 2 1 1 1 2 2 2 2 2 1 2 2 2 10 2 1 1 1 2 2 2 2 1 1 2 2 2 1 1 2 2 2 8 2 2
left_child=1 4 6 10 5 40 11 18 14 -8 42 17 -11 15 -4 45 -7 -2 -5 47 -21 36 23 24 -23 -24 -27 46 -9 -13 44 41 39 -34 35 -35 37 -10 43 -17 54 -14 -3 -39 -12 -6 -28 51 -31 -50 -19 -16 -53 -54 56 -44 57 -1 -59 60 61 -60
right_child=2 3 8 7 13 16 9 28 21 12 30 29 31 -15 19 32 -18 50 -20 20 -22 22 25 -25 -26 26 27 -29 -30 48 -32 -33 33 34 -36 -37 -38 38 -40 -41 -42 -43 55 -45 -46 -47 -48 -49 49 -51 -52 52 53 -55 -56 -57 -58 58 59 -61 -62 -63
leaf_value=-0.062211254998959679 0.0013018771886574854 -0.025301194437940801 0.030112417216801357 -0.013040978960666961 -0.035393384658143436 0.12152604242337064 -0.062211254998959679 0.010284283673953332 0.071508293340953127 0.017600350812877853 -0.01726906779930033 0.024370036125134754 0.013422802712237747 -0.037628967498988287 0.087795699972414099 -0.0466492181178704 -0.016805227220681052 0.011831589347204919 -0.0048412281491184046 -0.10079500386090541 0.050039219694889718 -0.060112648796664905 0.10882646925349887 0.13710966594119722 0.080797020267445396 0.10864431271549223 0.096057814877610226 0.10469371026244159 0.00023473269174827395 0.020386947633197084 -0.015920606325179911 0.025025151003478553 -0.047222898063041821 0.026838006787030657 -0.073839749891866174 -0.061889582364272971 0.10507384109070272 -0.10959641581899818 0.071442658692953423 -0.069670590064999649 -0.062211254998959679 0.02939490065731757 -0.017601713921248808 0.040431373522081926 -0.001300527981156774 0.025109594644340275 -0.062211254998959679 0.041226242360628357 -0.023054108210429403 0.012948327132777094 0.0056649241315192226 0.062931344375154838 0.073117898129974296 -0.062863594805100495 -0.062211254998959679 -0.025887765451770784 -0.062211254998959679 -0.062211254998959679 0.015017157606488564 -0.062211254998959679 0.011222303245723042 -0.062211254998959679
leaf_weight=559516 123709 258975 208353 227965 4262 6567 8116 64706 42373 87271 22306 76218 111169 386366 29118 35493 3826 95245 158685 5997 13389 7140 178202 4895 6368 41799 706 1674 90282 27691 108205 315966 22643 10173 6491 7758 2310523 5039 1192 51048 4024 83656 88036 840 64648 6868 8538 52211 7824 19773 111127 21394 7216 5942 1401738 141604 428449 13865 4112 7002 9020 6728
leaf_count=559516 123709 258975 208353 227965 4262 6567 8116 64706 42373 87271 22306 76218 111169 386366 29118 35493 3826 95245 158685 5997 13389 7140 178202 4895 6368 41799 706 1674 90282 27691 108205 315966 22643 10173 6491 7758 2310523 5039 1192 51048 4024 83656 88036 840 64648 6868 8538 52211 7824 19773 111127 21394 7216 5942 1401738 141604 428449 13865 4112 7002 9020 6728
internal_value=0.000482335 -0.0183544 0.0201656 -0.00812417 -0.0225669 -0.0236037 0.0108413 -0.00353585 0.0235372 0.013909 -0.0117587 0.00681253 0.0143269 -0.0177944 0.0185042 -0.0138885 0.0128716 0.00442096 -0.00624751 0.0149713 0.00514547 0.0242001 0.021394 0.00377792 -0.00388659 0.0227979 0.0171695 -0.0107529 0.00322896 0.0128154 -0.00677281 0.015316 -0.0151228 -0.0104053 -0.00474572 0.00129803 0.0244965 0.0189863 -0.00851011 -0.0176884 -0.0237594 0.0130388 -0.0137501 -0.0150748 -0.00338243 0.000916442 -0.0171679 0.0166164 0.0083909 0.00361905 0.00649313 0.0136061 0.00960726 0.000486396 -0.0237909 -0.0119628 -0.0229657 -0.022083 -0.0149637 -0.00989502 -0.00486405 -0.0125646
internal_weight=8.22204e+06 4.20136e+06 4.02067e+06 1.22541e+06 2.97595e+06 2.44485e+06 1.06776e+06 541638 2.95291e+06 606178 683774 461587 598062 531102 343620 144736 10393 330081 386650 135267 19386 2.60929e+06 249322 18403 13508 230919 52717 10918 154988 131506 195159 510791 133606 47065 24422 17931 2.35997e+06 49444 7071 86541 2.43445e+06 194825 488615 5879 86954 11130 9244 115881 55288 27597 206372 63670 34552 13158 2.43043e+06 229640 1.02869e+06 600243 40727 26862 19860 10840
internal_count=8222035 4201361 4020674 1225412 2975949 2444847 1067765 541638 2952909 606178 683774 461587 598062 531102 343620 144736 10393 330081 386650 135267 19386 2609289 249322 18403 13508 230919 52717 10918 154988 131506 195159 510791 133606 47065 24422 17931 2359967 49444 7071 86541 2434454 194825 488615 5879 86954 11130 9244 115881 55288 27597 206372 63670 34552 13158 2430430 229640 1028692 600243 40727 26862 19860 10840
cat_boundaries=0 1 3 4 5 7 9 11 12 13 14 15 16 18 20 22
cat_threshold=1210949697 855646120 1 1933844392 4194304 2618819884 260704 1008338364 523104 471401918 1571680 2151784448 2223652887 4194304 2156019730 2285903936 551577815 394938 1278074948 1 1166109935 342514
is_linear=0
shrinkage=0.05


Tree=13
num_leaves=63
num_cat=19
split_feature=17 17 13 19 19 19 4 0 16 13 0 19 0 0 13 8 8 0 19 8 0 8 5 2 1 26 1 2 0 8 4 8 2 8 28 24 1 6 30 34 0 8 7 7 7 16 16 2 24 1 8 8 0 4 21 7 8 7 7 8 6 8
split_gain=1.19394e+06 74693.5 52894.4 9714.49 6760.9 5906.77 5728.74 3740.75 3461.43 3270.82 2525.44 2202.91 1965.94 1635.66 1348.72 1195.5 1055.41 2278.84 981.642 952.664 940.505 1711.87 833.568 5383.58 1099.73 846.814 4125.49 2119.38 827.832 5099.55 948.549 745.488 699.187 2808.44 2373.92 769.549 699.05 768.829 1219.06 984.544 679.144 673.757 668.801 657.543 634.517 628.453 581.752 569.274 970.088 642.218 558.434 506.911 485.822 481.99 476.938 475.843 473.506 471.137 465.28 447.329 1761.8 1112.36
threshold=11.428643226623537 1.7708571553230288 60.03599929809571 5.9107141494750985 16.647588729858402 0.75017857551574718 1.0000000180025095e-35 4.5000000000000009 90.003501892089858 1.0000000180025095e-35 4.5000000000000009 39.945623397827156 4.5000000000000009 4.5000000000000009 3.0080000162124638 0 1 5.5000000000000009 8.723642826080324 2 5.5000000000000009 3 1.0000000180025095e-35 1.5000000000000002 1.5000000000000002 5.5000000000000009 24.500000000000004 11.500000000000002 5.5000000000000009 4 1.0000000180025095e-35 5 1.5000000000000002 6 652.50000000000011 -1.0000000180025095e-35 17.500000000000004 95.259998321533217 103.17428588867189 7.5000000000000009 3.5000000000000004 7 8 9 10 12.004499912261965 34.017000198364265 4.5000000000000009 -1.0000000180025095e-35 24.500000000000004 11 12 4.5000000000000009 1.5000000000000002 1.7534461021423342 13 14 15 16 17 101.47999954223634 18
decision_type=2 2 2 2 2 2 2 2 2 2 2 2 2 2 2 1 1 2 2 1 2 1 2 2 2 2 2 2 2 1 2 1 2 1 10 2 2 2 2 2 2 1 1 1 1 2 2 2 2 2 1 1 2 2 10 1 1 1 1 1 2 1
left_child=1 5 4 10 13 6 14 18 15 -6 50 12 53 54 32 -4 17 -14 -5 -8 46 -22 59 24 -24 -25 -27 -28 40 30 -30 36 33 34 -1 -36 37 -7 39 -39 41 -13 -18 -12 -9 -41 47 48 -17 51 -3 -50 -33 58 -2 -52 -45 -15 -11 60 -10 -62
right_child=2 3 8 7 9 31 19 44 22 11 43 28 16 57 -16 20 42 -19 -20 -21 21 -23 23 25 -26 26 27 -29 29 -31 -32 52 -34 -35 35 -37 -38 38 -40 45 -42 -43 -44 56 -46 -47 -48 -49 49 -51 55 -53 -54 -55 -56 -57 -58 -59 -60 -61 61 -63
leaf_value=-0.05910069224901169 0.0011156671391927776 -0.025055612537648309 0.030421390487994637 -0.011222661199501372 -0.05910069224901169 -0.041777175320878192 -0.018427740881893452 0.010096481509806089 0.10250887163632545 0.013528516354831321 -0.016272718227075416 -0.021647615587066737 0.06405212956974915 0.020143499461592843 -0.0041700768239018252 0.074904199226185075 -0.0023264424933055364 -0.10144820260914232 -0.0036285580866845415 0.11517878850919877 -0.096072658974355907 0.052663263976819932 -0.068681443371532716 0.10681761158252617 0.099788253339968311 0.10600577676907048 0.10232169284352982 -0.05910069224901169 -0.098102446053651163 0.033832059057713873 0.044861606085668665 -0.045150026592279735 -0.05910069224901169 -0.05910069224901169 0.03351664045261591 -0.069780073612222854 -0.060216841032008861 -0.063839251488327656 -0.06802547956854138 -0.0056578217649262859 0.039767642297327391 0.021170498715363119 0.028005317648331831 -0.016783454969091217 0.0012800976701808687 0.09719861764177494 0.043568983689575402 0.092602371240900011 0.044198731191135293 0.10445270242428564 -0.025355088598171972 -0.059720415064845468 -0.032281783211715875 0.021308609339465101 0.012345784382765512 -0.01759725466847405 -0.0027225186992368535 0.009696699776891006 0.0089907799367118686 0.10225967177939271 0.074034713190196569 -0.12130453245581488
leaf_weight=9029 178510 246170 247131 219910 10045 22656 4431 72126 218805 185108 111198 2595 7130 42513 6822 13662 4685 7137 154568 6619 6128 12137 7552 179217 1896 40076 3030 7460 12302 34533 1774 251941 2317013 137493 12903 1651 40649 5085 7498 8248 96687 191209 130240 25002 77854 9045 51023 34401 1812 1913 159379 6203 100826 19906 17076 119535 73710 35555 168467 2034882 3872 4002
leaf_count=9029 178510 246170 247131 219910 10045 22656 4431 72126 218805 185108 111198 2595 7130 42513 6822 13662 4685 7137 154568 6619 6128 12137 7552 179217 1896 40076 3030 7460 12302 34533 1774 251941 2317013 137493 12903 1651 40649 5085 7498 8248 96687 191209 130240 25002 77854 9045 51023 34401 1812 1913 159379 6203 100826 19906 17076 119535 73710 35555 168467 2034882 3872 4002
internal_value=0.00047013 -0.018169 0.0199469 -0.00797982 0.010861 -0.0225311 -0.0234781 -0.00278135 0.0235667 0.0130132 -0.0116892 0.0133438 0.0113076 0.00400469 -0.0236378 0.0190831 0.0161594 0.00321671 -0.00545372 0.0124434 0.0151405 0.00464139 0.024238 0.0214313 -0.0155588 0.0229522 0.0172379 -0.0106768 0.0164823 0.010443 -0.0149191 -0.0172307 -0.023699 -0.0205136 -0.00456385 0.00792909 -0.0132462 -0.00943806 -0.00417057 0.00167575 0.0174929 0.0157853 0.0175264 -0.00705374 0.00389119 0.00736281 0.016901 0.0134749 0.00749258 -0.00440169 -0.0135423 -0.0106145 -0.0182823 0.00936949 0.00156248 -0.0120079 -0.00408217 0.0101232 0.00894329 0.0245349 0.0224165 -0.000819152
internal_weight=8.22204e+06 4.20136e+06 4.02067e+06 1.25945e+06 1.14547e+06 2.94191e+06 2.49596e+06 524458 2.8752e+06 871818 734994 861773 522673 273654 2.48491e+06 374410 149192 14267 374478 11050 127279 18265 2.50079e+06 239231 9448 229783 50566 10490 339100 48609 14076 445948 2.47809e+06 161076 23583 14554 93181 52532 29876 22378 290491 193804 134925 209910 149980 17293 109014 57991 23590 9928 525084 8015 352767 373481 195586 278914 98712 78068 353575 2.26156e+06 226679 7874
internal_count=8222035 4201361 4020674 1259452 1145472 2941909 2495961 524458 2875202 871818 734994 861773 522673 273654 2484911 374410 149192 14267 374478 11050 127279 18265 2500792 239231 9448 229783 50566 10490 339100 48609 14076 445948 2478089 161076 23583 14554 93181 52532 29876 22378 290491 193804 134925 209910 149980 17293 109014 57991 23590 9928 525084 8015 352767 373481 195586 278914 98712 78068 353575 2261561 226679 7874
cat_boundaries=0 2 3 5 6 7 8 9 10 11 13 15 16 17 19 20 22 24 25 26
cat_threshold=856694696 1 2151677952 2360598598 1 4194368 2151677952 1076207681 1208320064 3223322624 16777217 3823401537 2102431 2618819884 1309536 2156019735 140582912 4200305424 3310597 2156019730 1545209268 2358048 552724695 216275 3225788416 4202496
is_linear=0
shrinkage=0.05


Tree=14
num_leaves=63
num_cat=11
split_feature=17 20 17 17 19 4 8 0 30 0 0 20 0 0 8 19 19 2 8 19 8 0 22 30 4 8 19 8 0 8 8 1 24 17 8 5 2 1 8 26 1 2 1 2 8 27 24 2 4 4 0 19 16 2 20 27 22 34 17 0 19 1
split_gain=1.16934e+06 69230.9 63963.2 10088.6 8199.63 5211.26 3434.3 3340.47 3168.8 2177.86 2100.62 2044.34 1926.63 1888.85 2542.75 1646.29 1524 1465.34 1312.18 1302.44 1207.79 2686.09 1173.7 1400.43 955.925 1040.73 927.626 868.668 1063.12 4643.12 889.844 862.833 886.002 810.359 785.882 730.729 4463.4 1222.99 722.665 721.649 3694.07 1765.81 712.169 706.07 2778.71 2363.43 693.369 675.558 664.938 636.246 622.963 607.737 600.489 581.717 593.946 553.406 486.366 476.734 470.189 458.662 448.105 443.599
threshold=10.148214340209963 1.2907382249832156 68.28735733032228 4.7158572673797616 16.122857093811039 1.0000000180025095e-35 0 4.5000000000000009 93.867141723632827 3.5000000000000004 4.5000000000000009 0.85138598084449779 4.5000000000000009 5.5000000000000009 1 36.912675857543952 111.61742782592775 1.5000000000000002 2 7.2594285011291513 3 5.5000000000000009 3.6263325214385991 46.03357124328614 1.0000000180025095e-35 4 7.0487141609191903 5 5.5000000000000009 6 7 21.500000000000004 1.0000000180025095e-35 2.435928583145142 8 1.0000000180025095e-35 1.5000000000000002 1.5000000000000002 9 5.5000000000000009 24.500000000000004 11.500000000000002 1.5000000000000002 1.5000000000000002 10 0.00013195468636695298 -1.0000000180025095e-35 8.5000000000000018 1.5000000000000002 1.0000000180025095e-35 4.5000000000000009 11.717392921447756 74.010002136230483 11.500000000000002 17.992943763732914 5.5011409131111584e-05 1.9336175322532656 13.500000000000002 23.863714218139652 4.5000000000000009 11.287214279174806 5.5000000000000009
decision_type=2 2 2 2 2 2 1 2 2 2 2 2 2 2 1 2 2 2 1 2 1 2 10 2 2 1 2 1 2 1 1 2 2 2 1 2 2 2 1 2 2 2 2 2 1 8 2 2 2 2 2 2 2 2 2 10 10 2 2 2 2 2
left_child=1 5 4 10 12 11 16 19 17 15 34 43 51 14 -10 53 -4 22 -7 -5 56 -22 42 -24 25 -23 -9 28 30 49 -11 32 57 -12 55 -18 37 -37 -15 -38 -41 -42 -8 44 45 46 -1 -34 -25 -30 -32 58 -33 54 -6 -3 -19 -16 -2 -29 -14 -57
right_child=2 3 6 7 9 18 8 26 13 27 33 -13 60 38 31 -17 35 20 -20 -21 21 24 23 48 -26 -27 -28 59 29 -31 50 52 47 -35 -36 36 39 -39 -40 40 41 -43 -44 -45 -46 -47 -48 -49 -50 -51 -52 -53 -54 -55 -56 61 -58 -59 -60 -61 -62 -63
leaf_value=0.031925057606635977 -0.0046217356051769798 0.014430787300223596 0.024370179859124222 -0.015170128305417441 0.0093579172831448794 -0.033764924325244881 -0.10609525588704774 -0.0032994029681893914 0.059840991562978244 0.063941491183695492 -0.031784348139168833 -0.031103193745269354 0.0074390781522013956 -0.097172261743718735 0.1163664036615486 0.016237331528297851 0.097569928852044144 -0.047431260483869475 0.08600493554723139 -0.0060304130241054304 0.053149734697174315 -0.095794019297056429 0.1224912175261447 -0.10510727570911554 0.058513811445970509 0.037906587538907167 0.0070735656749593145 0.017266514491751372 -0.095009158792317194 0.026180882842185605 0.013018429074542915 0.12289973998921076 -0.056734394311603202 -0.010006650077933789 -0.035266722722571413 -0.053672944188255016 0.10126937717306235 0.10465026119470609 0.030210079809567116 0.10105448087319094 0.097106976278967763 -0.056145657636561111 0.073567247465887747 -0.056145657636561111 -0.056145657636561111 -0.056145657636561111 -0.070271033488033749 0.1489847598012824 0.08627929222307365 0.02890230991838626 0.026699717305362226 0.0038259363827032877 -0.056145657636561111 0.020179144292101436 0.0034643449382175343 -0.019642237815998567 0.10565790069916042 -0.056145657636561111 0.026295915953145767 0.027673989272367985 0.016875453307849266 -0.030989093245717549
leaf_weight=12873 101030 3492 225340 247293 213291 3238 993 92622 33774 30014 130714 246279 37334 5010 4143 198450 2049571 1644 9146 189025 81718 8215 4771 6709 2952 2377 81937 59332 13856 48548 48489 5779 9755 115597 189586 6623 158839 1622 5033 35296 2531 6461 29053 2232103 130299 8777 1512 1006 1086 1366 48714 134072 2312 29042 51414 71427 211703 3418 4718 118286 58496 351929
leaf_count=12873 101030 3492 225340 247293 213291 3238 993 92622 33774 30014 130714 246279 37334 5010 4143 198450 2049571 1644 9146 189025 81718 8215 4771 6709 2952 2377 81937 59332 13856 48548 48489 5779 9755 115597 189586 6623 158839 1622 5033 35296 2531 6461 29053 2232103 130299 8777 1512 1006 1086 1366 48714 134072 2312 29042 51414 71427 211703 3418 4718 118286 58496 351929
internal_value=0.00046681 -0.0183579 0.0193542 -0.00967348 0.00962333 -0.0231977 0.0233582 -0.00475697 0.0191818 0.012208 -0.0131547 -0.02335 0.00299464 0.00948669 0.0128362 0.0100316 0.0240659 0.021121 0.00916101 -0.00709563 0.022321 0.0176311 0.0124296 -0.000401878 -0.00299025 -0.0100028 0.0010886 0.0151142 0.0127702 0.00750196 0.0154121 0.00121012 -0.00479478 -0.00925162 -0.0147142 0.0244568 0.0216578 -0.0144057 -0.010587 0.0231216 0.0174776 -0.0111321 0.017796 -0.0237977 -0.0205171 -0.00455075 0.00792318 -0.0140112 -0.0134606 -0.0165868 0.0130834 0.000600033 0.0148097 0.0076548 0.0069178 -0.0135226 0.0244132 0.00832231 -0.00223408 0.0176329 0.00898727 -0.0136865
internal_weight=8.22204e+06 4.11785e+06 4.10419e+06 1.47362e+06 1.19645e+06 2.64423e+06 2.90773e+06 610877 421451 860802 862745 2.63184e+06 335650 70230 60187 492197 2.48628e+06 351221 12384 436318 308609 95262 42612 12566 13544 10592 174559 368605 190987 63770 127217 26413 18322 246311 616434 2.26094e+06 211372 8245 10043 203127 44288 8992 30046 2.38556e+06 153461 23162 14385 10761 7795 15222 97203 239820 8091 293747 264705 426848 213347 7561 105748 177618 95830 423356
internal_count=8222035 4117849 4104186 1473622 1196452 2644227 2907734 610877 421451 860802 862745 2631843 335650 70230 60187 492197 2486283 351221 12384 436318 308609 95262 42612 12566 13544 10592 174559 368605 190987 63770 127217 26413 18322 246311 616434 2260943 211372 8245 10043 203127 44288 8992 30046 2385564 153461 23162 14385 10761 7795 15222 97203 239820 8091 293747 264705 426848 213347 7561 105748 177618 95830 423356
cat_boundaries=0 2 3 5 6 7 8 9 10 12 13 14
cat_threshold=855646120 1 4202496 77742087 1 1074003968 2151677952 2154668037 4456448 4194304 1819125829 1 4194304 1208320064
is_linear=0
shrinkage=0.05


Tree=15
num_leaves=63
num_cat=4
split_feature=19 20 13 13 19 19 4 16 20 0 0 0 19 2 14 13 12 19 0 5 2 1 26 1 2 4 2 30 27 19 19 19 19 0 20 19 19 13 20 0 0 12 12 0 20 4 0 13 0 15 31 2 27 22 31 24 30 1 24 2 30 12
split_gain=1.12027e+06 77059.2 62435.6 11993.6 9932.06 5643.69 4682.69 3641.48 3608.76 3129.43 2541.45 2144.64 1346.52 1192.65 1117.88 1053.25 957.715 855.79 849.905 830.325 5258.96 1065.33 819.963 4032.26 2045.9 816.388 796.16 2280.19 1566.21 746.029 742.61 672.074 666.544 604.026 1326.11 594.184 528.432 485.552 453.825 504.4 443.825 429.162 420.976 418.509 2279.04 756.547 622.717 414.549 410.004 406.053 401.052 2264.36 1479.47 411.769 1347.75 948.446 538.296 392.653 446.407 894.573 386.852 380.966
threshold=11.287214279174806 1.3370465636253359 68.00799942016603 1.0000000180025095e-35 5.3659822940826425 24.286196708679203 1.0000000180025095e-35 98.004001617431655 0.55334255099296581 4.5000000000000009 4.5000000000000009 4.5000000000000009 1.0000000180025095e-35 8.5000000000000018 26.006999969482425 13.007999897003176 0 3.0029821395874028 3.5000000000000004 1.0000000180025095e-35 1.5000000000000002 1.5000000000000002 5.5000000000000009 24.500000000000004 11.500000000000002 1.0000000180025095e-35 1.5000000000000002 97.030002593994155 1.0000000180025095e-35 15.517857074737551 71.143520355224624 41.575607299804695 3.0029821395874028 5.5000000000000009 23.693269729614261 8.1942501068115252 108.3358726501465 9.0339999198913592 75.034271240234389 5.5000000000000009 4.5000000000000009 1 2 5.5000000000000009 42.804788589477546 1.0000000180025095e-35 4.5000000000000009 7.0355000495910653 4.5000000000000009 1.0000000180025095e-35 106.07303619384767 7.5000000000000009 1.0000000180025095e-35 19.584638595581058 58.697322845458991 -7.4999999999999991 59.460712432861335 10.500000000000002 2.5000000000000004 3.5000000000000004 52.770002365112312 3
decision_type=2 2 2 2 2 2 2 2 2 2 2 2 2 2 2 2 1 2 2 2 2 2 2 2 2 2 2 2 8 2 2 2 2 2 2 2 2 2 2 2 2 1 1 2 2 2 2 2 2 2 2 2 8 8 2 2 2 2 2 2 2 1
left_child=1 6 3 13 11 10 8 30 26 25 29 15 -8 57 18 17 -15 -3 47 36 21 -21 -22 -24 -25 35 27 -1 -29 -5 -4 48 37 -20 -35 -6 -9 -13 -32 -40 -10 -36 -12 46 -45 -46 -33 -7 -16 -17 53 52 61 54 -28 56 -56 58 59 60 -2 -52
right_child=2 4 7 5 9 14 12 19 40 -11 42 32 -14 16 31 49 -18 -19 33 20 22 -23 23 24 -26 -27 50 28 -30 -31 38 43 -34 34 41 -37 -38 -39 39 -41 -42 -43 -44 44 45 -47 -48 -49 -50 -51 51 -53 -54 -55 55 -57 -58 -59 -60 -61 -62 -63
leaf_value=-0.053338374754733055 -0.056796579090288263 -0.03218264863468006 0.020863723901125033 0.0026633668873648486 -0.012979436868920625 -0.0018189374251819435 0.086596636184521097 0.020469056539690958 -0.053338374754733055 0.002925163669055997 0.022639909163208505 -0.022809907140892351 -0.028866096157367318 -0.074197096052095832 0.012593337027841801 0.01587215561364861 0.11657735896740316 -0.020453171149289184 0.030891616821987523 -0.062563723993543319 0.098408777968111011 0.092060866039633871 0.097955833264911085 0.093959608581402607 -0.053338374754733055 0.003631940699117331 -0.053338374754733055 -0.022327020136977672 -0.053338374754733055 0.0086218455440326917 0.027845322065508826 0.020165553615709066 -0.0083820685109088806 0.027940861966631349 0.032028269430263802 -0.0061249421784045806 0.095239364080584518 0.020375250826644431 0.07610905254440968 0.059603553579538372 -0.030590497589490576 -0.078979390246815884 0.015819854849304395 0.030174882443222941 -0.081815371050070362 0.041769088794732449 0.039637540247730176 0.011929213766970892 0.025696770783695356 -0.02829358762306421 0.0097580183913495329 -0.053338374754733055 -0.053338374754733055 -0.053338374754733055 0.059153404437904213 -0.053338374754733055 -0.053338374754733055 -0.060516917992796473 -0.059980421980317222 -0.062954743289879142 0.15353957032629459 -0.054460584542917662
leaf_weight=95391 625 329399 62732 146686 248119 11418 8210 35866 317598 175855 55097 130174 4420 3007 100559 7351 4816 297303 63178 7390 175077 1886 39068 2955 7287 24586 87195 29740 13145 209215 207082 236741 121124 19481 2110 167100 2169543 3530 83077 13929 126578 9923 87681 32340 12201 2585 47542 115102 40176 2710 10639 129733 14259 1798032 4760 8823 1417 31272 5208 3674 3127 16689
leaf_count=95391 625 329399 62732 146686 248119 11418 8210 35866 317598 175855 55097 130174 4420 3007 100559 7351 4816 297303 63178 7390 175077 1886 39068 2955 7287 24586 87195 29740 13145 209215 207082 236741 121124 19481 2110 167100 2169543 3530 83077 13929 126578 9923 87681 32340 12201 2585 47542 115102 40176 2710 10639 129733 14259 1798032 4760 8823 1417 31272 5208 3674 3127 16689
